   -0.637697706963859190E+00   -0.191449411286781057E+01    0.938747749461573733E+01    0.106460378696262570E+00   -0.156127180967413715E+02    0.587662147984108252E+01   -0.120872394244604600E+02    0.121284675887671645E+01   -0.132905403446146693E+02    0.154460614756692749E+01    0.342935280783772469E+05
   -0.994427658038791407E+00   -0.124958980015288290E+01    0.484198354074763415E+00    0.105674231084880610E+00   -0.142349575685092589E+02    0.269153233221633803E+01   -0.121202048237272191E+02    0.139398016364514699E+01   -0.132959051601906175E+02    0.104702636184964204E+01    0.342935337670934096E+05
    0.221853438118316504E+01    0.284558624091864942E+01   -0.137754566513153236E+02    0.792241205171004825E-01   -0.143376725461304684E+02    0.290963775912530798E+01   -0.119407800324252840E+02    0.183466949023996606E+01   -0.131839492615551954E+02    0.134771398454303859E+01    0.342944546502547091E+05
    0.103130029633008746E+01    0.159307236626059989E+01    0.171349598465829587E+02    0.855097255593997296E-01   -0.148903423408386182E+02    0.482905825626408181E+01   -0.119917742077752436E+02    0.184113675352142869E+01   -0.132276773313080867E+02    0.762382268812622943E+00    0.342952393755476151E+05
    0.793812068408641380E-01   -0.100354435013243659E+01    0.124372477159746779E+02    0.658167521443888681E-01   -0.144707802398027816E+02    0.420815144554937959E+01   -0.120054454695069559E+02    0.162710827513517176E+01   -0.131596580450444876E+02    0.102924695532945965E+01    0.342952720326300623E+05
   -0.664173620937795306E+00   -0.182628733411155508E+01   -0.755641485515193523E+01    0.948422368818209183E-01   -0.155948364570250835E+02    0.546695041874296805E+01   -0.121041613405469661E+02    0.158378699519535826E+01   -0.131428141536748164E+02    0.123118590017722696E+01    0.342959477855396399E+05
    0.209832932504653513E+01    0.137941776902254531E+01   -0.176611855146113754E+02    0.880902847018190105E-01   -0.149055581571719920E+02    0.455689734586733231E+01   -0.120381931727853235E+02    0.100161521301522627E+01   -0.133378221338434919E+02    0.433294312107453061E+00    0.342959946994429702E+05
    0.977010380473370077E+00   -0.630607505286096881E+00   -0.183237949307631247E+02    0.838934954957581969E-01   -0.152414822370920895E+02    0.531608143547611078E+01   -0.120838569652269143E+02    0.124550505005874013E+01   -0.130361196478169461E+02    0.149707052132541474E+01    0.342966937638666786E+05
   -0.153478197255477511E+00    0.850585353660626708E+00   -0.945141009276903432E+01    0.830006915549224011E-01   -0.152055762228170988E+02    0.447666009534543008E+01   -0.119888144594245976E+02    0.192858382082878665E+01   -0.132688830792810144E+02    0.504904289145261087E+00    0.342969708450702601E+05
    0.417201975950654003E-01   -0.484904433381068145E-01   -0.146915599232238243E+02    0.653996986852447559E-01   -0.146087440753579756E+02    0.375236715754007477E+01   -0.119258942468235425E+02    0.175994567190357465E+01   -0.131557620453359547E+02    0.147520860408072507E+01    0.342970741081912347E+05
   -0.223333933202891899E+01    0.102718549020384131E+00    0.157318734124328756E+02    0.888980190835708672E-01   -0.149571732111053031E+02    0.453616757712815311E+01   -0.120077494399716151E+02    0.176484655030072157E+01   -0.132631724509329416E+02    0.410373239937165790E+00    0.342971014386545212E+05
    0.105833985519753782E+01    0.212805492825839337E+01   -0.191476046754101219E+02    0.800118064117594230E-01   -0.149471782165125244E+02    0.486826207855037829E+01   -0.121079141907037027E+02    0.116160406443935571E+01   -0.132325667549388317E+02    0.154698050121319697E+01    0.342971201340044427E+05
    0.151613928091674310E+01   -0.134067310103824511E+01   -0.855124491339021375E+01    0.960641199711149696E-01   -0.148940719333979956E+02    0.471543878905926128E+01   -0.120609467127005310E+02    0.126314261139798867E+01   -0.132740669527287061E+02    0.159841010801630556E+01    0.342972388184781666E+05
    0.824954389099975316E+00   -0.188406623402332940E+01   -0.861391218012222559E+01    0.977505460837961859E-01   -0.147266789724862761E+02    0.422652101744638742E+01   -0.119453262494767980E+02    0.172367740233331479E+01   -0.133257132845450492E+02    0.585143450784570085E+00    0.342973857454995232E+05
   -0.876909370887954509E+00    0.190030451906192610E+01   -0.600790463370611860E+01    0.790293114297118127E-01   -0.145898053906313940E+02    0.385293431039652390E+01   -0.119518660842225302E+02    0.161129364228571870E+01   -0.132422523486181394E+02    0.147758187789267881E+01    0.342975157378196964E+05
   -0.166728169478680499E+01    0.733087997504178190E+00    0.930565484166412915E+01    0.100835446246813065E+00   -0.152789740219415275E+02    0.497154556459542540E+01   -0.119647587667244366E+02    0.158959212541141293E+01   -0.132058046235702822E+02    0.958462698729640850E+00    0.342975673909406250E+05
    0.132657854423289479E+00    0.331519473084601657E+01   -0.180963534568141391E+02    0.793904286566353701E-01   -0.146562985120047671E+02    0.341348874582062800E+01   -0.119952461993713619E+02    0.164559336464109363E+01   -0.132697400962119829E+02    0.825859269648393735E+00    0.342975889211800313E+05
   -0.372968951160210338E+00    0.221214316709352943E+01    0.407782975262939118E+01    0.881337718614747523E-01   -0.151603409790152597E+02    0.569006544987796836E+01   -0.119804156487294158E+02    0.131626547300122043E+01   -0.131449111222812718E+02    0.123744105924974424E+01    0.342976142905691158E+05
   -0.879483538995383896E+00   -0.203686133061545149E+00    0.172638513943533525E+02    0.712540515350659209E-01   -0.150759786779689193E+02    0.451194790902394605E+01   -0.120497918992964461E+02    0.154578559777222124E+01   -0.132256348636967882E+02    0.425020543538376372E+00    0.342976269930951603E+05
    0.359103844497326463E+00   -0.269431110739603241E+00   -0.734238445148065821E+01    0.916720814478249046E-01   -0.148988149240990762E+02    0.374077692141546825E+01   -0.120910831103862453E+02    0.127730933861581830E+01   -0.133400589811762025E+02    0.319736894908921321E+00    0.342976557160548400E+05
    0.151899651872866315E+01    0.128721680584963494E+01   -0.790234742652795674E+01    0.674004131087801994E-01   -0.152024760355075301E+02    0.551811226952582512E+01   -0.120111115440303298E+02    0.149552509580983939E+01   -0.132764849810262024E+02    0.977043203549905037E+00    0.342977953694707830E+05
   -0.425752785257802913E+00    0.189174297789324797E+01   -0.177569356164214014E+02    0.866912042653389392E-01   -0.146501778579794184E+02    0.400409935847425835E+01   -0.119800459357138536E+02    0.167362781997298549E+01   -0.131577137976906933E+02    0.147891868567566664E+01    0.342979728811421883E+05
    0.278920123864303093E+00   -0.269505533540204212E+01    0.274919010539554165E+01    0.850077003463918235E-01   -0.141626079131633080E+02    0.287223189825677760E+01   -0.120471866398368803E+02    0.116561575138100615E+01   -0.132872150783375194E+02    0.105639072494959407E+01    0.342979744507520518E+05
   -0.104237954156958779E+01    0.140799773700415187E+00    0.171896029926721212E+02    0.708028668481679446E-01   -0.144324832156700609E+02    0.369455987913664119E+01   -0.120586612544841785E+02    0.171341941931670783E+01   -0.132495852908719129E+02    0.910072194384579869E+00    0.342981105823170656E+05
   -0.542540245683085232E-01    0.352073289400728129E+00    0.173728920037199046E+02    0.961870674029632333E-01   -0.154249700314081473E+02    0.481413736055871588E+01   -0.120109435689074253E+02    0.141756030094216601E+01   -0.131943167428960830E+02    0.144443956273400209E+01    0.342981527856147659E+05
    0.947628935142784457E+00    0.292460518482842247E+01    0.339220550012711186E+01    0.902700382640890808E-01   -0.152125979683912931E+02    0.544397507264148750E+01   -0.120426984377171120E+02    0.120530416608262425E+01   -0.131934703747332929E+02    0.104592233581304472E+01    0.342981664809809517E+05
    0.123732265877023195E+01   -0.125021394872489822E+01   -0.413470218322961713E+01    0.767539830527825817E-01   -0.151077273474255911E+02    0.463059545835198261E+01   -0.119957633176220995E+02    0.165162490989227417E+01   -0.131296640127689912E+02    0.181371750743930571E+01    0.342981718942095686E+05
   -0.192299124564287993E+01   -0.152949790552106890E+01    0.150234163089376551E+02    0.917328489828299620E-01   -0.150507347528202384E+02    0.507082741837212225E+01   -0.120472831636589834E+02    0.160706955911214067E+01   -0.133015468974991951E+02    0.109394523151614820E+01    0.342982033000410956E+05
   -0.119175130857234279E+01    0.332667963905279862E-01    0.631209966041541293E+01    0.804427280638559949E-01   -0.148481021446384673E+02    0.465122662839667189E+01   -0.121149103764110322E+02    0.139836344305839000E+01   -0.133555522854215116E+02    0.766180131411904775E+00    0.342982285832444686E+05
    0.821136985408799092E-01   -0.785566785578978966E+00    0.572492243583665328E+01    0.920034127968767379E-01   -0.150366807962611304E+02    0.537918031007856001E+01   -0.120419149114859501E+02    0.145666718840350384E+01   -0.133585125507600821E+02    0.109438919833880810E+01    0.342982957980101710E+05
    0.709894471719959341E+00    0.991874165929623075E+00   -0.729133143369024594E+01    0.803408015014097643E-01   -0.142367213747907826E+02    0.286813448791827330E+01   -0.120949524544677391E+02    0.136326648143392593E+01   -0.133029554267856227E+02    0.353405611113011942E+00    0.342983661246701959E+05
    0.298020976208128729E+00    0.286665663656604508E+01   -0.617707998435655270E+01    0.939705480263726134E-01   -0.154273691724286373E+02    0.564235921094817172E+01   -0.120025729222875484E+02    0.159780998875081837E+01   -0.131218455082676879E+02    0.143143682551650819E+01    0.342983929435646205E+05
   -0.965295502403016314E-01    0.905785999752577453E+00    0.636599590260132686E+00    0.962983535602834895E-01   -0.151343606071146937E+02    0.510342292809575504E+01   -0.120554873130329803E+02    0.156488289058526009E+01   -0.131992357659986848E+02    0.163967406258878556E+01    0.342984359852667258E+05
    0.140029508625261911E+01   -0.241254277035498532E+01   -0.618022423614655381E+01    0.847275888238323560E-01   -0.148681918827622219E+02    0.434532500510010067E+01   -0.119490946690217434E+02    0.162534781649950011E+01   -0.131058031610304599E+02    0.141453842291056575E+01    0.342985021058072161E+05
    0.168423074857031452E+00    0.388816547568971771E+00   -0.287129296178829563E+01    0.953019387954083808E-01   -0.149142242669534504E+02    0.390288117398589307E+01   -0.121018539651916583E+02    0.156326200844047669E+01   -0.132174327689460540E+02    0.805670033480039738E+00    0.342985114542506271E+05
    0.775130705424828648E+00   -0.113134637260406379E+01   -0.155389659383740462E+02    0.777489085604319285E-01   -0.150631201821724545E+02    0.391855036516278687E+01   -0.120559159194430894E+02    0.126263880826210251E+01   -0.132608143413334290E+02    0.835964695887815079E+00    0.342986382251148025E+05
    0.808304277656763048E+00   -0.277914083726646055E+01   -0.560730296684358009E+01    0.935719942214270350E-01   -0.151144524138938170E+02    0.430302853855830403E+01   -0.120622687042406618E+02    0.139954608630245092E+01   -0.131496971163394836E+02    0.126346379257463504E+01    0.342986382600062934E+05
    0.509658383578837970E+00   -0.232998679147505072E+01    0.522803580932855638E+01    0.846050910032192238E-01   -0.151931387261460387E+02    0.484770660827245781E+01   -0.121029073039127706E+02    0.124016706137188404E+01   -0.131347753663087374E+02    0.110064870803342973E+01    0.342986635968450646E+05
    0.201078319655707105E+01    0.177932070394374975E+01   -0.623937353848331888E+01    0.745916036083520417E-01   -0.152735123906702626E+02    0.510670815079834384E+01   -0.120387386452674026E+02    0.124075684493734673E+01   -0.131837381778636029E+02    0.125302481255127995E+01    0.342988364272129111E+05
    0.871630021856514503E+00   -0.157736672806910860E+01    0.187015700867350532E+01    0.898260116844451506E-01   -0.149178042022435129E+02    0.388624003443926558E+01   -0.120702142241522417E+02    0.139883363724723142E+01   -0.132040744138662589E+02    0.711420116777514377E+00    0.342988413514909116E+05
    0.989683228229338852E+00   -0.257657469375472203E+01   -0.909691333300976623E+01    0.868209180180088413E-01   -0.155124756966669786E+02    0.551080368637232176E+01   -0.120382398984328169E+02    0.120754516967103043E+01   -0.131438957188671424E+02    0.938353975797660667E+00    0.342988540915376434E+05
    0.840247989671262019E+00   -0.230465793266369445E+01    0.829230024303458890E+01    0.881396677564194597E-01   -0.147119819589898668E+02    0.385710312744979733E+01   -0.120189162448530240E+02    0.153700014651614647E+01   -0.133135357035172248E+02    0.444132494075427320E+00    0.342988973074731402E+05
    0.175247072051235619E+01   -0.195553552211212889E+01   -0.109575142558822751E+02    0.836217285859734982E-01   -0.151384828035624057E+02    0.439225356940715628E+01   -0.120626789267822279E+02    0.111661945722143829E+01   -0.131697808975686907E+02    0.106216102280130986E+01    0.342989004063475295E+05
   -0.240727897601615837E+00    0.961266285079666716E+00    0.527792889026269307E+00    0.715392443164897252E-01   -0.149110179381838766E+02    0.422923067408153486E+01   -0.119372106628646826E+02    0.200398415313268474E+01   -0.131867121609803633E+02    0.982618468444744764E+00    0.342989129492628854E+05
    0.761513655081145657E+00    0.712295902791815649E+00    0.737230490346308898E+01    0.692488488313636186E-01   -0.148415662949405487E+02    0.397675362344398620E+01   -0.120796501248998336E+02    0.109419981301667679E+01   -0.131926264574647938E+02    0.112057980587322481E+01    0.342989206453184161E+05
    0.514340690330463701E-01   -0.147732446713174426E+01    0.463993191565350571E-01    0.975816784476604138E-01   -0.155930637487496320E+02    0.594021934748311953E+01   -0.120250591064887402E+02    0.131115998988798754E+01   -0.131548810873474693E+02    0.100495285400436907E+01    0.342989745315334221E+05
   -0.656486993686989706E+00   -0.909520036371972651E+00   -0.498796195157720668E+01    0.698037853983439760E-01   -0.147392455448225395E+02    0.371671267726351529E+01   -0.120805176317477194E+02    0.131535863572940892E+01   -0.133042067344772779E+02    0.943778941246779635E+00    0.342989813686965936E+05
   -0.982963994299524302E+00    0.101414174150460923E+01    0.539506868421917574E+01    0.759120137341731116E-01   -0.150939206851742469E+02    0.489090630115856850E+01   -0.119483607389036948E+02    0.191815032123495977E+01   -0.132370951399705934E+02    0.120627295738384488E+01    0.342990452967210658E+05
    0.445360081594351698E+00   -0.130564100083313051E+01    0.699399043989734537E+01    0.841243017675590288E-01   -0.148846784331918833E+02    0.433414876929057336E+01   -0.119840556396713058E+02    0.140745979725035020E+01   -0.130722560023799090E+02    0.123143400993834895E+01    0.342990767820392939E+05
    0.615983930432921767E+00   -0.610314808228281436E+00   -0.709102859740419333E+01    0.875674874132521541E-01   -0.149042272878586992E+02    0.442498130539269319E+01   -0.119671480045425440E+02    0.189490903835438740E+01   -0.133708238575248952E+02    0.479566126508994495E+00    0.342990822326168200E+05
    0.777461954239555553E-02   -0.134541107420665895E+01    0.525247199281237087E+01    0.911812864558774194E-01   -0.144221449447877657E+02    0.308878772842290372E+01   -0.121290132173969667E+02    0.138254354779700894E+01   -0.132205232521154432E+02    0.106938102157770532E+01    0.342991124270814398E+05
   -0.220240646799213380E+01    0.105789453287656698E+01    0.154540730317990054E+02    0.853476599776421541E-01   -0.153105949556138441E+02    0.533131879642310125E+01   -0.119723092621983671E+02    0.137745082620116044E+01   -0.131597961000785304E+02    0.105663599520952545E+01    0.342992320519295317E+05
   -0.822480764060212977E+00    0.213333069384624707E+01    0.114169958213473990E+02    0.829191626695255923E-01   -0.146176009342431765E+02    0.378704958860736784E+01   -0.120184848699012949E+02    0.144997252571100343E+01   -0.133258762092711827E+02    0.141016401456196494E+01    0.342992498241682624E+05
    0.202019192760690913E+00   -0.250760357320537963E+01    0.145318931879109670E+01    0.733517837171477893E-01   -0.143247016100338485E+02    0.302009956925554679E+01   -0.119822737386408136E+02    0.133946686278357863E+01   -0.132008164370520902E+02    0.992336476251485022E+00    0.342992660325618344E+05
   -0.487069555095608564E+00    0.246331956494955762E+00    0.584218441036440694E+01    0.974366302681859420E-01   -0.147402522811266969E+02    0.460379036156807597E+01   -0.120094457871989491E+02    0.139595321214041679E+01   -0.132332990428283548E+02    0.803315656800192235E+00    0.342992714346883513E+05
    0.522159771282879603E+00    0.820657619683320405E+00    0.109624605455568158E+01    0.734649608070643279E-01   -0.152492505824007232E+02    0.437424100550527228E+01   -0.120386787630402914E+02    0.154116784816930164E+01   -0.132034659585744869E+02    0.116202393505801149E+01    0.342993088184147055E+05
   -0.109964530845385156E+00   -0.128863171569225443E+00   -0.490514267242072144E+01    0.731380996775812253E-01   -0.150549724388083490E+02    0.541842985609660577E+01   -0.119669890192093415E+02    0.158589705131447856E+01   -0.132413619659699311E+02    0.695497914269731066E+00    0.342993136756891108E+05
   -0.411683112682261765E-01   -0.557272935675996450E-01    0.741583117181982132E+01    0.876623605589448296E-01   -0.152715185505626572E+02    0.522601182823374266E+01   -0.120284023867591046E+02    0.122644266388449963E+01   -0.133414611721767624E+02    0.259346986333106821E+00    0.342993279710774805E+05
   -0.104301351149992172E+00    0.127061415339586503E+01    0.190962390295563154E+02    0.748690286893687329E-01   -0.144019140765784126E+02    0.310012651103784798E+01   -0.120305228157906683E+02    0.161765133464957755E+01   -0.132649351318903435E+02    0.575915242277264650E+00    0.342993370723410480E+05
   -0.143825942974365262E+01    0.284856593743089448E+01    0.131754805483874264E+02    0.833255082138448788E-01   -0.152135861320250907E+02    0.555842989972271617E+01   -0.120055781116145681E+02    0.158687513723520013E+01   -0.132211682347191122E+02    0.120256486850390010E+01    0.342994550684569840E+05
   -0.222186448785193136E+01    0.159593202520383670E+00    0.184094006443312352E+02    0.954787395165208608E-01   -0.149806476942807105E+02    0.447096323126524897E+01   -0.120752698454959102E+02    0.148479232718741927E+01   -0.131812824371168418E+02    0.122801345822403585E+01    0.342994622888345912E+05
    0.168869206300008301E+01    0.437267803698837554E-01   -0.180193365669862438E+02    0.819406934141870824E-01   -0.143542461217703838E+02    0.334947182701377066E+01   -0.120405393104259595E+02    0.164157469142019186E+01   -0.133107405867615007E+02    0.110274536484032826E+01    0.342995277621913119E+05
   -0.105127532597499851E+00   -0.155359761784219685E+01   -0.843988410301819592E+01    0.830395428905617017E-01   -0.155531637987620606E+02    0.598254844459812496E+01   -0.120915854334226758E+02    0.119538993406189764E+01   -0.133099357299594168E+02    0.998923515460184319E+00    0.342995451560934234E+05
    0.134639761151041881E+01   -0.689805380203466711E+00   -0.763784622881062525E+01    0.887261839480546488E-01   -0.152404450218480925E+02    0.463653361633057592E+01   -0.119569356004262826E+02    0.143330806769558139E+01   -0.131386214523145917E+02    0.145664298422757454E+01    0.342995569974279279E+05
   -0.574307129785090353E+00    0.118791598703761636E+01    0.623487497245526967E+01    0.951095521102860442E-01   -0.151889155873374566E+02    0.476833036764443285E+01   -0.120670180955590585E+02    0.109743235645243487E+01   -0.132263878180838486E+02    0.812577195996792012E+00    0.342995672352632901E+05
    0.179126234016351304E+01   -0.136473491404768055E+00   -0.145663123464601050E+02    0.829034460609305857E-01   -0.147320963841645405E+02    0.411218320560394801E+01   -0.119917758381485378E+02    0.132613282999174054E+01   -0.132083872255049997E+02    0.166695219862946042E+01    0.342996420045206905E+05
   -0.754900045405651809E+00    0.213441971299357647E+01    0.418723711845132485E+01    0.816677769191975766E-01   -0.148610814243050964E+02    0.389266814278783935E+01   -0.120427888013924029E+02    0.166440784197918390E+01   -0.132479812486305324E+02    0.127384402943031816E+01    0.342996614924215974E+05
    0.753263041726341953E+00    0.159716362998025119E+01   -0.165205523551819411E+01    0.910966178741723365E-01   -0.142991655051614970E+02    0.315082117232549663E+01   -0.120759705556345143E+02    0.125023791824133990E+01   -0.131963648057877929E+02    0.118039131853240598E+01    0.342996831822334934E+05
   -0.780854026699113746E+00   -0.246383108927403782E-01    0.408895029773095331E+01    0.862542137837205569E-01   -0.150214925082073165E+02    0.424496317169431414E+01   -0.120993713665218419E+02    0.993370829750636841E+00   -0.132520555620098115E+02    0.872116724078389360E+00    0.342996881039231157E+05
   -0.173483569918778358E+01    0.179556115702822794E+01    0.154549225415292852E+02    0.785366872787476300E-01   -0.147660962898577743E+02    0.366980414415940803E+01   -0.120548671466723842E+02    0.111489167753600715E+01   -0.132643120509853620E+02    0.931606638854148184E+00    0.342996936607142998E+05
    0.528412970522239789E+00   -0.237027181284893373E+01   -0.121861782184151224E+02    0.917770876189500928E-01   -0.152683924293206488E+02    0.561300427320135409E+01   -0.120449543129047463E+02    0.144852529000559094E+01   -0.131704687443103587E+02    0.136353429432458051E+01    0.342997563269135790E+05
    0.528412970522239789E+00   -0.237027181284893373E+01   -0.121861782184151224E+02    0.917770876189500928E-01   -0.152683924293206488E+02    0.561300427320135409E+01   -0.120449543129047463E+02    0.144852529000559094E+01   -0.131704687443103587E+02    0.136353429432458051E+01    0.342997563269135790E+05
   -0.667726502598220861E+00   -0.235878811330465510E-01    0.961394830406845813E+01    0.822891277940134280E-01   -0.143545310567278612E+02    0.346898392145927614E+01   -0.120442895817631879E+02    0.128576485277657770E+01   -0.131704686056488498E+02    0.161647037776013702E+01    0.342997702472518504E+05
   -0.543498151138997798E+00    0.216077419799544757E+01    0.881959355109071197E+00    0.908231574903632932E-01   -0.152119135267377033E+02    0.523539231683897643E+01   -0.120415330522553461E+02    0.165596959016924195E+01   -0.132255193301793970E+02    0.736644116987941966E+00    0.342997826580434485E+05
    0.594418066138295842E+00   -0.427003554149322895E+00   -0.860213929601696137E+01    0.833245677733989165E-01   -0.154208299529932482E+02    0.525476474257919879E+01   -0.119676355171036430E+02    0.141689844025661493E+01   -0.130898013171087761E+02    0.171516488936845990E+01    0.342998818233793645E+05
    0.594418066138295842E+00   -0.427003554149322895E+00   -0.860213929601696137E+01    0.833245677733989165E-01   -0.154208299529932482E+02    0.525476474257919879E+01   -0.119676355171036430E+02    0.141689844025661493E+01   -0.130898013171087761E+02    0.171516488936845990E+01    0.342998818233793645E+05
   -0.881665869859489248E+00    0.134829211102015734E+00   -0.163569532093529091E+01    0.757428688296593045E-01   -0.151166175775775962E+02    0.460807219758449804E+01   -0.120613728500329778E+02    0.132673591696538473E+01   -0.131025485055962783E+02    0.111489916061532846E+01    0.342998944954034305E+05
    0.311210743555090374E+00   -0.159057282540242539E+01   -0.597957604280377453E+01    0.977290259915459814E-01   -0.153111221354982572E+02    0.551701005819650625E+01   -0.120315443999541110E+02    0.134819035112595276E+01   -0.131709533339877236E+02    0.115022229168910339E+01    0.342999185959186798E+05
    0.288580250462871390E+00    0.276899024546961670E+01    0.798682079690802027E+01    0.905787833296698430E-01   -0.148409209266852535E+02    0.429803650936807902E+01   -0.119874237277439839E+02    0.145658810958569096E+01   -0.131954137836758569E+02    0.852949596985442149E+00    0.342999613544978420E+05
    0.288580250462871390E+00    0.276899024546961670E+01    0.798682079690802027E+01    0.905787833296698430E-01   -0.148409209266852535E+02    0.429803650936807902E+01   -0.119874237277439839E+02    0.145658810958569096E+01   -0.131954137836758569E+02    0.852949596985442149E+00    0.342999613544978420E+05
   -0.831535466240833188E+00   -0.743010624737678427E+00    0.108502071978914962E+02    0.850029019586151513E-01   -0.151335598190453027E+02    0.559909577640426637E+01   -0.120623789809638780E+02    0.147203003462925941E+01   -0.132704305079263172E+02    0.634432167551516324E+00    0.342999705054022852E+05
   -0.831535466240833188E+00   -0.743010624737678427E+00    0.108502071978914962E+02    0.850029019586151513E-01   -0.151335598190453027E+02    0.559909577640426637E+01   -0.120623789809638780E+02    0.147203003462925941E+01   -0.132704305079263172E+02    0.634432167551516324E+00    0.342999705054022852E+05
   -0.273652680592988418E-01    0.559846015720225409E+00   -0.667288050219298157E+01    0.819922399744636987E-01   -0.147658146496536862E+02    0.413571230947471147E+01   -0.120666384937548337E+02    0.125492602746637827E+01   -0.134377755119352962E+02    0.338039952257982834E+00    0.342999835154115935E+05
    0.145391341116085471E+01   -0.662220201554063692E+00   -0.186041456893276020E+02    0.934218902588237476E-01   -0.150731685622869769E+02    0.472571715044682517E+01   -0.120414361121230868E+02    0.111214261641458712E+01   -0.131590129540042149E+02    0.119765000660386756E+01    0.342999872197876684E+05
    0.316007882838356124E+00    0.493369057522663468E-01    0.139503562057127866E+02    0.833724718714023982E-01   -0.148758124049963527E+02    0.427246130003419911E+01   -0.119994255083728856E+02    0.137131142830724273E+01   -0.130898254393337545E+02    0.121559353923242996E+01    0.343000319267253653E+05
    0.183649154404048076E+01   -0.720151307141673414E+00   -0.184011787019081652E+02    0.942459453733781594E-01   -0.154141742282081289E+02    0.539050263526191031E+01   -0.119961857043522713E+02    0.135762443590726023E+01   -0.133096408989939228E+02    0.904485077869708665E+00    0.343000569316535184E+05
    0.160816394382313632E+01    0.484518856317748714E+00   -0.112047134275262401E+02    0.811709010862542435E-01   -0.153808139848599694E+02    0.516398853581568673E+01   -0.119685042416703133E+02    0.177305313245942342E+01   -0.131925086252707935E+02    0.148472689474355346E+01    0.343000574718186399E+05
    0.428764838181194818E-01   -0.145583932453424936E+01    0.118758797494227863E+02    0.777713395481114400E-01   -0.151320209934547147E+02    0.493076886987491481E+01   -0.120218389688443903E+02    0.180051432447004367E+01   -0.131723887291657338E+02    0.106021787735696527E+01    0.343000676214285922E+05
    0.428764838181194818E-01   -0.145583932453424936E+01    0.118758797494227863E+02    0.777713395481114400E-01   -0.151320209934547147E+02    0.493076886987491481E+01   -0.120218389688443903E+02    0.180051432447004367E+01   -0.131723887291657338E+02    0.106021787735696527E+01    0.343000676214285922E+05
    0.134576969802132851E+00    0.982579289153420632E+00   -0.756775299317696160E+01    0.925539708267502093E-01   -0.149385781320498054E+02    0.446200281795071341E+01   -0.121286948213923296E+02    0.123020207384492064E+01   -0.132809977099143808E+02    0.106155012125692960E+01    0.343000705223027835E+05
   -0.372969481446169482E+00    0.170972718096468768E+01   -0.135993712280291845E+02    0.878105154481731986E-01   -0.146824435665839381E+02    0.351460478005040500E+01   -0.120477071819634194E+02    0.144720548624193923E+01   -0.132880976531039003E+02    0.103233659386603049E+01    0.343001054991740311E+05
   -0.246066538485095521E+00   -0.601601577480209926E+00    0.157008869715823067E+02    0.849578139465585469E-01   -0.150048394228358664E+02    0.486722918024674112E+01   -0.119500537160484956E+02    0.149726725894709389E+01   -0.132894072608577378E+02    0.642784463050211974E+00    0.343001254473683730E+05
    0.324375869802132399E+00    0.122472420128731940E+01   -0.449622479783034024E+01    0.672078736491328321E-01   -0.145802259526966989E+02    0.386503524465848081E+01   -0.120132932267595365E+02    0.131148429911309305E+01   -0.132107872876632957E+02    0.126677569181884664E+01    0.343001431871957757E+05
    0.324375869802132399E+00    0.122472420128731940E+01   -0.449622479783034024E+01    0.672078736491328321E-01   -0.145802259526966989E+02    0.386503524465848081E+01   -0.120132932267595365E+02    0.131148429911309305E+01   -0.132107872876632957E+02    0.126677569181884664E+01    0.343001431871957757E+05
    0.118704150626850691E+01   -0.164033898838217596E+01   -0.840466923792910769E+01    0.924555700464320118E-01   -0.147273470034590677E+02    0.391766201813950010E+01   -0.119714051801489365E+02    0.177810326501583260E+01   -0.132769796343600195E+02    0.724027316172713320E+00    0.343001474588938654E+05
    0.195617798932588016E+00    0.110137621893322546E+01   -0.171011076537282491E+01    0.731172346111377269E-01   -0.146885563819650251E+02    0.375824137537089875E+01   -0.120944943712021580E+02    0.103011389304712853E+01   -0.132636068392995305E+02    0.100307088750182549E+01    0.343002100733342086E+05
    0.159835860935583440E+00    0.729816134814580408E+00    0.982086587109208864E+01    0.879975558890391252E-01   -0.150148132077932956E+02    0.415638503157592787E+01   -0.120220682018756744E+02    0.159460637925869086E+01   -0.133401851632469253E+02    0.945684164683981754E+00    0.343002680281290595E+05
    0.744666057144240057E+00   -0.298657387194019464E+00   -0.163210200644042409E+02    0.717367715143975015E-01   -0.149606786097793094E+02    0.439960310405202115E+01   -0.120581460881235092E+02    0.140723857323461310E+01   -0.133434397885179123E+02    0.444296311038890446E+00    0.343002911398116703E+05
    0.879511163733191381E+00    0.193933360959053402E+01   -0.168733569048689311E+02    0.897962848961368909E-01   -0.152062505290111893E+02    0.443263067275313460E+01   -0.120374321416269936E+02    0.150040328032070613E+01   -0.132141747371087437E+02    0.124524933432544138E+01    0.343003205686414367E+05
    0.879511163733191381E+00    0.193933360959053402E+01   -0.168733569048689311E+02    0.897962848961368909E-01   -0.152062505290111893E+02    0.443263067275313460E+01   -0.120374321416269936E+02    0.150040328032070613E+01   -0.132141747371087437E+02    0.124524933432544138E+01    0.343003205686414367E+05
    0.102190891823674690E+00    0.675061772272847804E+00    0.664246525708653834E+01    0.908011098113228332E-01   -0.147790807355742970E+02    0.409300617988396631E+01   -0.120116372709576318E+02    0.131150638458819779E+01   -0.133743459668848175E+02    0.295858372117171364E+00    0.343003364405646644E+05
    0.120627055285979878E+01    0.159133310077733370E+01   -0.108504285022172180E+02    0.873919022958262737E-01   -0.151340995601276092E+02    0.456217599138896723E+01   -0.120088284187760941E+02    0.170233469975746399E+01   -0.132005680123881373E+02    0.147279834140216570E+01    0.343003400087713380E+05
    0.101458963923164447E+00   -0.129982230071775007E+01    0.396643929509240323E+01    0.880853319504382171E-01   -0.152328532754313919E+02    0.510197931631595214E+01   -0.120007646635419150E+02    0.164405647503212160E+01   -0.130859544005999204E+02    0.148610734344772899E+01    0.343003460066587941E+05
    0.101458963923164447E+00   -0.129982230071775007E+01    0.396643929509240323E+01    0.880853319504382171E-01   -0.152328532754313919E+02    0.510197931631595214E+01   -0.120007646635419150E+02    0.164405647503212160E+01   -0.130859544005999204E+02    0.148610734344772899E+01    0.343003460066587941E+05
   -0.290015079267401887E+00   -0.182235374872616873E+01    0.134129133297386929E+02    0.809900736555630996E-01   -0.146532402855259090E+02    0.408941337899839752E+01   -0.120776622533351379E+02    0.107014758935343623E+01   -0.132622248595502690E+02    0.958591313195597650E+00    0.343003833434459521E+05
   -0.290015079267401887E+00   -0.182235374872616873E+01    0.134129133297386929E+02    0.809900736555630996E-01   -0.146532402855259090E+02    0.408941337899839752E+01   -0.120776622533351379E+02    0.107014758935343623E+01   -0.132622248595502690E+02    0.958591313195597650E+00    0.343003833434459521E+05
    0.110940206014091913E+01   -0.186810016764002285E+01   -0.145481810968428125E+02    0.936173714205383867E-01   -0.148038408401916080E+02    0.382245897098723209E+01   -0.120048180506363380E+02    0.132587874199890110E+01   -0.132968449303433793E+02    0.730040940020452278E+00    0.343004283687921634E+05
    0.147166384370000713E+01    0.112890183053167092E+01   -0.149154390668155497E+02    0.920829845308224204E-01   -0.146734241758878987E+02    0.367849730372746642E+01   -0.121070455240674573E+02    0.138016853365449066E+01   -0.132651263771641528E+02    0.107989503315067026E+01    0.343004513086553416E+05
    0.147166384370000713E+01    0.112890183053167092E+01   -0.149154390668155497E+02    0.920829845308224204E-01   -0.146734241758878987E+02    0.367849730372746642E+01   -0.121070455240674573E+02    0.138016853365449066E+01   -0.132651263771641528E+02    0.107989503315067026E+01    0.343004513086553416E+05
   -0.967490330162448231E-01   -0.255576304367115981E+01   -0.103957301958966752E+01    0.914222549441783272E-01   -0.148157345039968344E+02    0.411056309134871256E+01   -0.119731059748107658E+02    0.167560696910089213E+01   -0.132605018059301614E+02    0.110932552929104555E+01    0.343004668138162961E+05
    0.434318756981340925E+00   -0.156577480254572521E+00   -0.971475107197083965E+01    0.779601746472258217E-01   -0.146263168814870141E+02    0.371749754193963833E+01   -0.119349189763446013E+02    0.156574079870877947E+01   -0.132092280945424321E+02    0.149612084932587530E+01    0.343005270895482972E+05
    0.167113298966317103E+00    0.635567442576878250E+00   -0.731548912749378033E+01    0.786224005110531809E-01   -0.153256584865894396E+02    0.525240159397383088E+01   -0.119678841735136743E+02    0.188306861291560890E+01   -0.131904543050999639E+02    0.138303568555881240E+01    0.343005378669168713E+05
   -0.974959247971142418E+00   -0.140313261325217908E+01    0.121761441129746046E+02    0.705675936713519025E-01   -0.146272385810075356E+02    0.396155556985153989E+01   -0.120313732133682709E+02    0.127687484053794709E+01   -0.132893964907513542E+02    0.697576491215337158E+00    0.343005511076839830E+05
   -0.974959247971142418E+00   -0.140313261325217908E+01    0.121761441129746046E+02    0.705675936713519025E-01   -0.146272385810075356E+02    0.396155556985153989E+01   -0.120313732133682709E+02    0.127687484053794709E+01   -0.132893964907513542E+02    0.697576491215337158E+00    0.343005511076839830E+05
   -0.135505860708724413E+01   -0.261465011252706603E+00    0.197469743665445279E+02    0.910839890814350017E-01   -0.145400194164010124E+02    0.370525051780723436E+01   -0.120367795564647153E+02    0.170319393390015250E+01   -0.131694055305641378E+02    0.125449414910768864E+01    0.343005738766733994E+05
    0.394407489983514381E+00    0.490440403209085218E+00   -0.141837798196923686E+02    0.886894511724662937E-01   -0.156889979895592937E+02    0.583086594502219313E+01   -0.120115386888018882E+02    0.182214443721226571E+01   -0.132604306957305198E+02    0.849276021542621384E+00    0.343006037325917277E+05
    0.394407489983514381E+00    0.490440403209085218E+00   -0.141837798196923686E+02    0.886894511724662937E-01   -0.156889979895592937E+02    0.583086594502219313E+01   -0.120115386888018882E+02    0.182214443721226571E+01   -0.132604306957305198E+02    0.849276021542621384E+00    0.343006037325917277E+05
    0.198935107561041846E+01   -0.296155960150112918E+00   -0.113498678848686456E+02    0.898852849651932129E-01   -0.144767761160252206E+02    0.337289206786450846E+01   -0.120153060741482971E+02    0.162516245474174315E+01   -0.132484469305077788E+02    0.113999946907893612E+01    0.343006076502400974E+05
   -0.161987596351742980E+01   -0.123505173788279521E+01    0.154870322349218057E+02    0.767436027340491211E-01   -0.146577392220550404E+02    0.345531165767497939E+01   -0.120505081882402934E+02    0.125110890007849096E+01   -0.132528061417249869E+02    0.698618460301813737E+00    0.343006105138129860E+05
   -0.746552755496171727E+00    0.139686328752103961E+01    0.697332535740227399E+01    0.928215200885231795E-01   -0.144462053635341441E+02    0.337842394657527034E+01   -0.120605938797329593E+02    0.162417400659614231E+01   -0.132621706434948230E+02    0.789432177880840413E+00    0.343006755820500694E+05
   -0.746552755496171727E+00    0.139686328752103961E+01    0.697332535740227399E+01    0.928215200885231795E-01   -0.144462053635341441E+02    0.337842394657527034E+01   -0.120605938797329593E+02    0.162417400659614231E+01   -0.132621706434948230E+02    0.789432177880840413E+00    0.343006755820500694E+05
   -0.509875778044651895E+00    0.144337202290319766E+00   -0.928234838151506736E+01    0.852658212595192033E-01   -0.148130555648395017E+02    0.394786330482482439E+01   -0.120044084989571687E+02    0.127531759407625644E+01   -0.133032184296321461E+02    0.110997809104069156E+01    0.343006845568066856E+05
    0.103172619588768910E+01    0.485349047620733387E+00   -0.545851811397155018E+01    0.864954052756348180E-01   -0.152155697141392316E+02    0.517716693150902785E+01   -0.120332279182128392E+02    0.135969702645682267E+01   -0.133882615852982880E+02    0.525181589623029299E+00    0.343007276438757108E+05
    0.103172619588768910E+01    0.485349047620733387E+00   -0.545851811397155018E+01    0.864954052756348180E-01   -0.152155697141392316E+02    0.517716693150902785E+01   -0.120332279182128392E+02    0.135969702645682267E+01   -0.133882615852982880E+02    0.525181589623029299E+00    0.343007276438757108E+05
    0.840302485772838281E+00    0.175415189286169593E+01   -0.162856787914383361E+02    0.813892910985043461E-01   -0.148747218869481550E+02    0.462152615129428668E+01   -0.120306341750110413E+02    0.125697149720573531E+01   -0.132111435577858032E+02    0.740496358917110964E+00    0.343007828606504190E+05
    0.840302485772838281E+00    0.175415189286169593E+01   -0.162856787914383361E+02    0.813892910985043461E-01   -0.148747218869481550E+02    0.462152615129428668E+01   -0.120306341750110413E+02    0.125697149720573531E+01   -0.132111435577858032E+02    0.740496358917110964E+00    0.343007828606504190E+05
   -0.113677834479524620E+00   -0.128627647073539464E+01   -0.747935028151829329E+00    0.745557485908945328E-01   -0.156489178538714562E+02    0.559985354452136797E+01   -0.119704076206982339E+02    0.138210958137795870E+01   -0.131480608106251982E+02    0.106968920453789829E+01    0.343007894632930111E+05
   -0.113677834479524620E+00   -0.128627647073539464E+01   -0.747935028151829329E+00    0.745557485908945328E-01   -0.156489178538714562E+02    0.559985354452136797E+01   -0.119704076206982339E+02    0.138210958137795870E+01   -0.131480608106251982E+02    0.106968920453789829E+01    0.343007894632930111E+05
    0.695186850340178353E+00    0.110300042240924157E+01    0.715567803448903916E+01    0.850090512237768881E-01   -0.144535202089840382E+02    0.323457618629082067E+01   -0.120199485540035447E+02    0.128478646551734021E+01   -0.133215064144655670E+02    0.990298066964969026E+00    0.343007938937682266E+05
    0.136008024205668931E+01   -0.194049251895471997E+01   -0.842625401231957838E+01    0.906222626089832062E-01   -0.147713174187776506E+02    0.417645154817127029E+01   -0.119800799957598620E+02    0.159865070105720175E+01   -0.132417658315924172E+02    0.790252783435776207E+00    0.343007945176759022E+05
    0.136008024205668931E+01   -0.194049251895471997E+01   -0.842625401231957838E+01    0.906222626089832062E-01   -0.147713174187776506E+02    0.417645154817127029E+01   -0.119800799957598620E+02    0.159865070105720175E+01   -0.132417658315924172E+02    0.790252783435776207E+00    0.343007945176759022E+05
   -0.351305324445142730E+00    0.775675073479618504E+00    0.117108218673168736E+02    0.908209329682039268E-01   -0.146454387803569688E+02    0.388468693891153105E+01   -0.119670617461727851E+02    0.137015518337174069E+01   -0.132370849403991375E+02    0.792524484556930142E+00    0.343008028447778706E+05
   -0.351305324445142730E+00    0.775675073479618504E+00    0.117108218673168736E+02    0.908209329682039268E-01   -0.146454387803569688E+02    0.388468693891153105E+01   -0.119670617461727851E+02    0.137015518337174069E+01   -0.132370849403991375E+02    0.792524484556930142E+00    0.343008028447778706E+05
    0.169572290734994269E+01   -0.121554867043098724E+01   -0.139329637254385954E+02    0.738231554321855388E-01   -0.150108100031736988E+02    0.491716533277713452E+01   -0.119916308984637130E+02    0.142806328640441382E+01   -0.132668368790113256E+02    0.834187210757638908E+00    0.343008266015329355E+05
    0.169572290734994269E+01   -0.121554867043098724E+01   -0.139329637254385954E+02    0.738231554321855388E-01   -0.150108100031736988E+02    0.491716533277713452E+01   -0.119916308984637130E+02    0.142806328640441382E+01   -0.132668368790113256E+02    0.834187210757638908E+00    0.343008266015329355E+05
    0.300442384835925225E+00   -0.178508246990892161E+01   -0.362432574556686049E+01    0.731008502084629086E-01   -0.147004718443456124E+02    0.357066097776626545E+01   -0.120254698139779208E+02    0.121713062009970363E+01   -0.132590513053046166E+02    0.770351255767051102E+00    0.343008330865185417E+05
    0.300442384835925225E+00   -0.178508246990892161E+01   -0.362432574556686049E+01    0.731008502084629086E-01   -0.147004718443456124E+02    0.357066097776626545E+01   -0.120254698139779208E+02    0.121713062009970363E+01   -0.132590513053046166E+02    0.770351255767051102E+00    0.343008330865185417E+05
   -0.528776284935958074E+00    0.288460252280913210E+00   -0.212268145107515593E+01    0.865713525633646785E-01   -0.148400846149784460E+02    0.480444620742671535E+01   -0.119722223038413436E+02    0.168997986662641675E+01   -0.132603765691810835E+02    0.848637049899987561E+00    0.343008468150007102E+05
   -0.225673793972973158E+00   -0.170863453084034589E+01    0.521715410118041945E+01    0.835950636261209024E-01   -0.148785247500095110E+02    0.400042329908696992E+01   -0.120424159285115095E+02    0.154976604514302174E+01   -0.132176282417308606E+02    0.623635283681109431E+00    0.343009000103574435E+05
    0.478362327296704137E+00   -0.147059183760362799E+01    0.340616073688423526E+01    0.756536600505079981E-01   -0.145782006985312371E+02    0.345470490969216071E+01   -0.119938578967545713E+02    0.140156766797100030E+01   -0.133313333790988544E+02    0.740292634305097952E+00    0.343009035667581484E+05
   -0.135828534259217903E+01    0.834812479228986604E+00    0.177195930051061694E+02    0.904223404306021550E-01   -0.154911725256883592E+02    0.536447986124972509E+01   -0.119916547225704537E+02    0.146756512599471067E+01   -0.131211055811027393E+02    0.145419851575417858E+01    0.343009114734271134E+05
   -0.135828534259217903E+01    0.834812479228986604E+00    0.177195930051061694E+02    0.904223404306021550E-01   -0.154911725256883592E+02    0.536447986124972509E+01   -0.119916547225704537E+02    0.146756512599471067E+01   -0.131211055811027393E+02    0.145419851575417858E+01    0.343009114734271134E+05
   -0.469042213439994526E+00    0.313082013638776857E+00    0.918227159815977600E+01    0.792064963845566794E-01   -0.150523890440002592E+02    0.440606897616453530E+01   -0.120267937757105035E+02    0.155169552779333597E+01   -0.132240004465421723E+02    0.160966413452076607E+01    0.343009334053043567E+05
   -0.119413168474258669E+01    0.380584103233250204E+00    0.117957373668733680E+02    0.823472597828647235E-01   -0.152422491048055093E+02    0.521831700513736862E+01   -0.120050169591127798E+02    0.164541528983600194E+01   -0.132910879761671801E+02    0.121643317539890505E+01    0.343009385939762651E+05
   -0.566831510076426071E+00    0.395903109770394224E+00    0.155801296126092907E+02    0.857789314935522018E-01   -0.149749064782210795E+02    0.505051980675222811E+01   -0.120754452273172745E+02    0.123692677720218014E+01   -0.133314249718887190E+02    0.745168485838399897E+00    0.343009399162251284E+05
   -0.566831510076426071E+00    0.395903109770394224E+00    0.155801296126092907E+02    0.857789314935522018E-01   -0.149749064782210795E+02    0.505051980675222811E+01   -0.120754452273172745E+02    0.123692677720218014E+01   -0.133314249718887190E+02    0.745168485838399897E+00    0.343009399162251284E+05
   -0.187172470858072160E+01    0.569872195681092819E+00    0.166650909117157013E+02    0.736377424668792635E-01   -0.154148068910606835E+02    0.523477309784261902E+01   -0.120176818845497291E+02    0.158731357302579212E+01   -0.131560174440674995E+02    0.128134110917298960E+01    0.343009552050932471E+05
   -0.601648469667324548E+00   -0.355894807141307723E+00    0.753961971178882351E+01    0.850172454179782822E-01   -0.147524378077892315E+02    0.457278879002357641E+01   -0.120448544247921330E+02    0.132130868132908064E+01   -0.131934682692907153E+02    0.150887750725846503E+01    0.343010191293323514E+05
   -0.126903404320582780E+00   -0.373916415771621047E+00   -0.995811214746802165E+01    0.808967363777739479E-01   -0.150409524440212614E+02    0.414646120090012005E+01   -0.120251814616280583E+02    0.138460695687493907E+01   -0.133225245658474751E+02    0.821506137301845518E+00    0.343010314468438592E+05
    0.614771348861353317E+00   -0.360624387784231004E+00   -0.194762814580709325E+02    0.773214242917126260E-01   -0.156042486038321435E+02    0.552410061430093435E+01   -0.119571523020969863E+02    0.140199960123124834E+01   -0.131799054294024316E+02    0.106564005666788209E+01    0.343010361584594648E+05
   -0.147282596816417310E+00    0.182276570558244089E-01   -0.646509078494812606E+01    0.854978172944360626E-01   -0.147510524289980083E+02    0.432799284611287671E+01   -0.120101536640816065E+02    0.163622716878553365E+01   -0.132870906635582777E+02    0.127580373137439329E+01    0.343010602865057226E+05
   -0.147282596816417310E+00    0.182276570558244089E-01   -0.646509078494812606E+01    0.854978172944360626E-01   -0.147510524289980083E+02    0.432799284611287671E+01   -0.120101536640816065E+02    0.163622716878553365E+01   -0.132870906635582777E+02    0.127580373137439329E+01    0.343010602865057226E+05
   -0.121271970721319278E+01    0.490662727324906456E+00    0.487283131055686880E+00    0.818101574627922989E-01   -0.148537749335004214E+02    0.410508887200634032E+01   -0.120398112046177186E+02    0.127269847113191448E+01   -0.131248760689553752E+02    0.135250763094140725E+01    0.343010708584198583E+05
   -0.409044610950967780E+00    0.416217008121009258E+00   -0.766757343292282734E+01    0.817726595540146928E-01   -0.145342050946840828E+02    0.380376139002976199E+01   -0.120755539975325874E+02    0.127165511108064577E+01   -0.132508775951058517E+02    0.670336927702397611E+00    0.343011018372935578E+05
   -0.409044610950967780E+00    0.416217008121009258E+00   -0.766757343292282734E+01    0.817726595540146928E-01   -0.145342050946840828E+02    0.380376139002976199E+01   -0.120755539975325874E+02    0.127165511108064577E+01   -0.132508775951058517E+02    0.670336927702397611E+00    0.343011018372935578E+05
    0.499300476343336186E-01   -0.185410705376294160E+01    0.543671811585978659E+01    0.847968965268792729E-01   -0.148312216388910727E+02    0.463835163352827706E+01   -0.120784070103810599E+02    0.124690284583081579E+01   -0.131970414749423135E+02    0.123091167777801935E+01    0.343011386325658023E+05
    0.499300476343336186E-01   -0.185410705376294160E+01    0.543671811585978659E+01    0.847968965268792729E-01   -0.148312216388910727E+02    0.463835163352827706E+01   -0.120784070103810599E+02    0.124690284583081579E+01   -0.131970414749423135E+02    0.123091167777801935E+01    0.343011386325658023E+05
   -0.129149863258806619E+00    0.531098749250197955E+00    0.957619726124127624E+01    0.788504840578900801E-01   -0.147451058567491362E+02    0.447062850846534054E+01   -0.120952466919446611E+02    0.140213797818592956E+01   -0.132424159581449512E+02    0.914802992816170724E+00    0.343011421570361927E+05
   -0.129149863258806619E+00    0.531098749250197955E+00    0.957619726124127624E+01    0.788504840578900801E-01   -0.147451058567491362E+02    0.447062850846534054E+01   -0.120952466919446611E+02    0.140213797818592956E+01   -0.132424159581449512E+02    0.914802992816170724E+00    0.343011421570361927E+05
    0.588076360028534140E+00   -0.691788840384177206E+00   -0.137749690706021841E+02    0.783638368719774547E-01   -0.149814789128558168E+02    0.425453803645862561E+01   -0.119528821212408864E+02    0.157171947208050566E+01   -0.133078988794467676E+02    0.763400184370695567E+00    0.343011471089272236E+05
    0.372234042712733526E-01    0.173868370033133957E+01    0.116018502113758117E+02    0.847622165374279923E-01   -0.148074206678537230E+02    0.402906911769067211E+01   -0.120669842935926859E+02    0.132414800907356445E+01   -0.133503298154555736E+02    0.927060358708614696E+00    0.343011581853272655E+05
    0.759207527927774350E+00   -0.145251961569698551E+00   -0.872774582908829899E+01    0.767690822875588541E-01   -0.147032196325615221E+02    0.447493908769851600E+01   -0.119925406486199382E+02    0.137049468412519948E+01   -0.131569821180347191E+02    0.117628689545287668E+01    0.343011886859682563E+05
    0.759207527927774350E+00   -0.145251961569698551E+00   -0.872774582908829899E+01    0.767690822875588541E-01   -0.147032196325615221E+02    0.447493908769851600E+01   -0.119925406486199382E+02    0.137049468412519948E+01   -0.131569821180347191E+02    0.117628689545287668E+01    0.343011886859682563E+05
   -0.438041519615126163E+00   -0.498225657194346638E+00    0.199558745772178270E+01    0.890581355138766462E-01   -0.156298978526159686E+02    0.579307610365498249E+01   -0.119511030845904092E+02    0.176959278137427645E+01   -0.132375913365553082E+02    0.112831970724314079E+01    0.343011946325501849E+05
   -0.438041519615126163E+00   -0.498225657194346638E+00    0.199558745772178270E+01    0.890581355138766462E-01   -0.156298978526159686E+02    0.579307610365498249E+01   -0.119511030845904092E+02    0.176959278137427645E+01   -0.132375913365553082E+02    0.112831970724314079E+01    0.343011946325501849E+05
   -0.155843077576543010E+01    0.984381490161233330E+00    0.130352972415100794E+02    0.851227188064507256E-01   -0.150739212350806184E+02    0.488131999603932165E+01   -0.120351552472173395E+02    0.166361095733918463E+01   -0.131830431347497861E+02    0.930090393480507815E+00    0.343012169398347396E+05
    0.574395386328454549E+00   -0.460474845849379477E+00    0.752445538034105965E+01    0.860382951601739165E-01   -0.149233084852720914E+02    0.455898122546340190E+01   -0.120416475214259684E+02    0.133901245293208948E+01   -0.133163756982628456E+02    0.446649391634083293E+00    0.343012266806426633E+05
   -0.502232652355377951E+00    0.136924729023884595E+01    0.126768821906489748E+02    0.818008751118732835E-01   -0.153472608749765911E+02    0.532119000708809509E+01   -0.119758351233487641E+02    0.165698469973629425E+01   -0.132421019160139863E+02    0.615274161512171291E+00    0.343012281409673451E+05
   -0.502232652355377951E+00    0.136924729023884595E+01    0.126768821906489748E+02    0.818008751118732835E-01   -0.153472608749765911E+02    0.532119000708809509E+01   -0.119758351233487641E+02    0.165698469973629425E+01   -0.132421019160139863E+02    0.615274161512171291E+00    0.343012281409673451E+05
    0.677507565922184085E-01    0.238818374674604428E+00    0.703021856390167699E+01    0.846565456387367021E-01   -0.147380690303249420E+02    0.419522960582686011E+01   -0.121031294113145407E+02    0.137488742024382393E+01   -0.132751313913387659E+02    0.600805751231273222E+00    0.343012372132379096E+05
    0.677507565922184085E-01    0.238818374674604428E+00    0.703021856390167699E+01    0.846565456387367021E-01   -0.147380690303249420E+02    0.419522960582686011E+01   -0.121031294113145407E+02    0.137488742024382393E+01   -0.132751313913387659E+02    0.600805751231273222E+00    0.343012372132379096E+05
   -0.133301611058525538E+01    0.476782631755558128E+00    0.191846714132709621E+02    0.808021066656654519E-01   -0.151091174165697488E+02    0.456869391913574230E+01   -0.119391215913417810E+02    0.148005985611313684E+01   -0.131935723542488716E+02    0.981467579955526803E+00    0.343012479387679705E+05
   -0.133301611058525538E+01    0.476782631755558128E+00    0.191846714132709621E+02    0.808021066656654519E-01   -0.151091174165697488E+02    0.456869391913574230E+01   -0.119391215913417810E+02    0.148005985611313684E+01   -0.131935723542488716E+02    0.981467579955526803E+00    0.343012479387679705E+05
   -0.187223933638145112E+01    0.141486546225077348E+01    0.174891137755060981E+02    0.785234062719954995E-01   -0.144766013189546712E+02    0.321054940030112412E+01   -0.120248615623141859E+02    0.130175869360200025E+01   -0.132735113385266068E+02    0.864713380947879418E+00    0.343012485275668223E+05
   -0.577099484047071343E+00   -0.134135572062002950E+01    0.617742835393562473E+01    0.791348089723742376E-01   -0.149386609095873446E+02    0.476984396381122355E+01   -0.120406261836110868E+02    0.165396020223176810E+01   -0.132850594895364722E+02    0.843472988985858652E+00    0.343012566548438699E+05
    0.609125798495959714E+00    0.915217967002451616E+00   -0.535422223863028002E+01    0.761182898216941073E-01   -0.143246751348219519E+02    0.324574824896898129E+01   -0.120047933244241030E+02    0.140034958541099774E+01   -0.131667020763619078E+02    0.103652739024462059E+01    0.343012645376846558E+05
    0.609125798495959714E+00    0.915217967002451616E+00   -0.535422223863028002E+01    0.761182898216941073E-01   -0.143246751348219519E+02    0.324574824896898129E+01   -0.120047933244241030E+02    0.140034958541099774E+01   -0.131667020763619078E+02    0.103652739024462059E+01    0.343012645376846558E+05
    0.747557061711745519E-01    0.207685832838539142E+00    0.492390398809163798E+00    0.957838666508414871E-01   -0.154863300694820296E+02    0.564756158817758447E+01   -0.119908785057562532E+02    0.156682015855867696E+01   -0.132246603436947527E+02    0.130922485730092708E+01    0.343013251338635673E+05
    0.822527815994909872E+00    0.794660417495663296E+00   -0.156857352501420699E+02    0.793104188892312933E-01   -0.155393754043446428E+02    0.580936631052125829E+01   -0.120872475529259091E+02    0.116164695316983302E+01   -0.132306494235181002E+02    0.106287464243657270E+01    0.343013322363984189E+05
    0.822527815994909872E+00    0.794660417495663296E+00   -0.156857352501420699E+02    0.793104188892312933E-01   -0.155393754043446428E+02    0.580936631052125829E+01   -0.120872475529259091E+02    0.116164695316983302E+01   -0.132306494235181002E+02    0.106287464243657270E+01    0.343013322363984189E+05
   -0.395005519105254166E+00   -0.506782576258224537E+00    0.255750120529469527E+01    0.776227774105884283E-01   -0.154971517446955449E+02    0.542693447201412482E+01   -0.120269262298318331E+02    0.134212281380467635E+01   -0.132019912452609809E+02    0.662822477020543754E+00    0.343013565700915642E+05
   -0.651430888245705830E+00   -0.195030585552552438E+01    0.516962060919502164E+01    0.806747334569606345E-01   -0.154505273490473005E+02    0.525783054836901442E+01   -0.120241320078331810E+02    0.125540584487046702E+01   -0.131539962429805879E+02    0.112984722553958772E+01    0.343013603518316959E+05
   -0.276190976568955193E-01    0.234923132837270288E+00   -0.319547027332349742E+01    0.802843447209622418E-01   -0.152306510435686100E+02    0.504186042457159900E+01   -0.120758698463292422E+02    0.147099129734591028E+01   -0.131161564302524010E+02    0.129912463085173524E+01    0.343013713107805670E+05
    0.193004666656460699E+01   -0.953946882965848175E+00   -0.198460839598033942E+02    0.876025739017958216E-01   -0.145297108685723568E+02    0.316914469300229484E+01   -0.120026041512247783E+02    0.146538237752635236E+01   -0.132271561756922260E+02    0.865514476015621925E+00    0.343013837200634516E+05
    0.193004666656460699E+01   -0.953946882965848175E+00   -0.198460839598033942E+02    0.876025739017958216E-01   -0.145297108685723568E+02    0.316914469300229484E+01   -0.120026041512247783E+02    0.146538237752635236E+01   -0.132271561756922260E+02    0.865514476015621925E+00    0.343013837200634516E+05
   -0.194127270591874179E+00    0.677241922872031665E+00    0.519108712972115427E+01    0.923883144231698594E-01   -0.147473468125599112E+02    0.363375760183331398E+01   -0.119934648611252257E+02    0.159677520151274766E+01   -0.132189591796775350E+02    0.774052497123010053E+00    0.343013869627408640E+05
   -0.194127270591874179E+00    0.677241922872031665E+00    0.519108712972115427E+01    0.923883144231698594E-01   -0.147473468125599112E+02    0.363375760183331398E+01   -0.119934648611252257E+02    0.159677520151274766E+01   -0.132189591796775350E+02    0.774052497123010053E+00    0.343013869627408640E+05
    0.134877395836877412E+01   -0.565269663251520171E+00   -0.858388026343139110E+01    0.813101100724542558E-01   -0.154851576914201541E+02    0.536875385284413653E+01   -0.120370306287139268E+02    0.116898574800619048E+01   -0.132657586031418511E+02    0.879286362485588002E+00    0.343014254314110585E+05
    0.169784959319869699E-01    0.209268809312759174E+01    0.637216170957448114E+01    0.778177473839478662E-01   -0.145275920386833448E+02    0.388864261082612295E+01   -0.120268335009734635E+02    0.153478739123305963E+01   -0.132408805518675621E+02    0.101368028091167051E+01    0.343014373663270380E+05
    0.169784959319869699E-01    0.209268809312759174E+01    0.637216170957448114E+01    0.778177473839478662E-01   -0.145275920386833448E+02    0.388864261082612295E+01   -0.120268335009734635E+02    0.153478739123305963E+01   -0.132408805518675621E+02    0.101368028091167051E+01    0.343014373663270380E+05
    0.189242600026517493E+00    0.180466967162400849E+01   -0.496792908969198521E+01    0.883581939997721832E-01   -0.152356053817334907E+02    0.526601125288700178E+01   -0.120816960447843460E+02    0.131266267666914915E+01   -0.131838382298680390E+02    0.119597438286508284E+01    0.343014473292774637E+05
    0.105284739297907848E+01   -0.105334799608479557E+01    0.390777862697692058E+01    0.855564484434452321E-01   -0.150300107582915601E+02    0.463704426946529491E+01   -0.120866901268635143E+02    0.135171974300004072E+01   -0.132541884237000431E+02    0.946954960205189877E+00    0.343014484360473216E+05
    0.109577923183928050E+01   -0.153416125315866125E+01   -0.847921706851487045E+01    0.890122407317923692E-01   -0.152483113534368009E+02    0.517502195094737516E+01   -0.119956602174992391E+02    0.152466197928321434E+01   -0.131318015617292509E+02    0.137894015079565313E+01    0.343014556153551239E+05
   -0.424024037387198405E-01   -0.534491199364744318E+00   -0.302362784272058960E+01    0.753999724404061933E-01   -0.145968570278218390E+02    0.385946586980475281E+01   -0.120772470915000891E+02    0.113453925414812806E+01   -0.132766714648366442E+02    0.109563788687473385E+01    0.343014673525174876E+05
   -0.466521060219392325E+00    0.632664068471907370E+00    0.155838927191535959E+01    0.878108561221824235E-01   -0.157367552142075731E+02    0.569860445074031574E+01   -0.119615440953699146E+02    0.168695600134093615E+01   -0.131928716411971543E+02    0.120837594383545710E+01    0.343014878297224350E+05
    0.477927305636551836E+00   -0.149491971381830879E+01   -0.935589894101658892E+01    0.761825896365673216E-01   -0.153313456109954558E+02    0.498968605667094067E+01   -0.120009648738312578E+02    0.143627073868056621E+01   -0.131957490796239334E+02    0.740225139164549129E+00    0.343015178338065598E+05
    0.120857688594438883E+01    0.752239587908690055E+00   -0.120873029073761842E+02    0.916428135700961821E-01   -0.149252735104296494E+02    0.400378735776327321E+01   -0.119741260318910179E+02    0.162914756175873077E+01   -0.132414685773438254E+02    0.100104649690939551E+01    0.343015334364977243E+05
    0.448463024917735709E+00   -0.565631622348252705E+00   -0.109555423233261280E+02    0.744981051061754940E-01   -0.142920712996409698E+02    0.293100258949342862E+01   -0.119772869800341066E+02    0.150815437642044881E+01   -0.132517295471392949E+02    0.921939471511538544E+00    0.343015342963416915E+05
    0.105175632243256700E+01    0.679018672500294684E+00   -0.374960793806133097E+01    0.782775585582253797E-01   -0.156116332275611924E+02    0.541429939186292231E+01   -0.120197923837290226E+02    0.145846252825302436E+01   -0.131504027037741746E+02    0.136168685549507429E+01    0.343015559480390730E+05
   -0.569374750867343238E+00    0.143374769315266093E+01    0.435908755489785804E+01    0.713216359386659171E-01   -0.153726818164870487E+02    0.539975576949217118E+01   -0.119907738166642801E+02    0.159822599713627733E+01   -0.132128129625920341E+02    0.909864722175436458E+00    0.343015603667283867E+05
   -0.121269740321561414E+01   -0.693198800915070024E+00   -0.105843341918184564E+00    0.831272438843342343E-01   -0.146642241606255244E+02    0.344221692087579978E+01   -0.120335436561196669E+02    0.145406003636688874E+01   -0.132007925798600141E+02    0.973717549816420336E+00    0.343015688982351203E+05
   -0.101687325342567547E+01   -0.201097837851094141E-02    0.890168722537440260E+01    0.930262773550976085E-01   -0.148184752248082265E+02    0.393758358136833442E+01   -0.120214066521134342E+02    0.158862754572304210E+01   -0.132096244487736456E+02    0.141085616488106314E+01    0.343015696339821225E+05
    0.248609191500616333E+00    0.124469930421834718E+01   -0.838493088060700664E+01    0.875513806391825522E-01   -0.157000057653187177E+02    0.552172697348868446E+01   -0.120189177174526307E+02    0.136848475499662969E+01   -0.132310322532882410E+02    0.977501696047045510E+00    0.343015796210615154E+05
    0.248609191500616333E+00    0.124469930421834718E+01   -0.838493088060700664E+01    0.875513806391825522E-01   -0.157000057653187177E+02    0.552172697348868446E+01   -0.120189177174526307E+02    0.136848475499662969E+01   -0.132310322532882410E+02    0.977501696047045510E+00    0.343015796210615154E+05
    0.967006430111929660E+00   -0.154432003138408191E+01   -0.124194215190972486E+02    0.777592182124391407E-01   -0.147106403512936090E+02    0.396452178777799524E+01   -0.120628805067840439E+02    0.148743581726158913E+01   -0.132931181648054348E+02    0.552127007903253197E+00    0.343015840163051616E+05
    0.182578340346893242E+00    0.246052201526200065E+01    0.124011346952904944E+01    0.818100947936708511E-01   -0.145784764385234133E+02    0.361322869514981804E+01   -0.120428951602994836E+02    0.130525960054345269E+01   -0.132700067605172229E+02    0.121428507792534446E+01    0.343015863072207430E+05
    0.221054346658107193E+00   -0.100021349158866002E+01   -0.108212796816788774E+02    0.887239550962246604E-01   -0.148589841028369314E+02    0.404786954044848013E+01   -0.119976399498623714E+02    0.132482812100896830E+01   -0.133054711102602532E+02    0.105533025580549555E+01    0.343016033736912723E+05
   -0.472673498777758994E+00    0.532195618235991930E+00    0.772293091026641676E+01    0.893888604769732531E-01   -0.148714905884831694E+02    0.409107900060502061E+01   -0.120928793125946150E+02    0.120625740173755935E+01   -0.133359303081028564E+02    0.866988936741297067E+00    0.343016325964117786E+05
    0.893291655345159086E+00    0.804465942336690887E+00   -0.123217552615936015E+02    0.848373014996413044E-01   -0.146035209662828898E+02    0.319512570109811467E+01   -0.120107399847428908E+02    0.155667044697609347E+01   -0.131851952801481040E+02    0.104494970108229790E+01    0.343016415098616562E+05
    0.358354470467961761E+00   -0.817829871138904707E+00   -0.124141883003016744E+02    0.843989316248632271E-01   -0.149728648511868325E+02    0.463354030697013464E+01   -0.119836754561915395E+02    0.157547833986736419E+01   -0.132901405791682095E+02    0.124474320938042493E+01    0.343016575860740704E+05
    0.522656243513285546E+00    0.126399516196321926E+01    0.885623980142452893E+01    0.883135462357937939E-01   -0.150889698986365737E+02    0.467838894001842398E+01   -0.120725061335985497E+02    0.124053974327335248E+01   -0.132810955664072861E+02    0.104200839114513411E+01    0.343016889323023279E+05
    0.465286411009095957E+00    0.351562790186040530E+00   -0.128544412887920885E+02    0.701191407668915190E-01   -0.149516255142413961E+02    0.430347301853530162E+01   -0.119968594834179196E+02    0.168025273245793971E+01   -0.132257094062834071E+02    0.106692899507572303E+01    0.343016948434701917E+05
    0.465286411009095957E+00    0.351562790186040530E+00   -0.128544412887920885E+02    0.701191407668915190E-01   -0.149516255142413961E+02    0.430347301853530162E+01   -0.119968594834179196E+02    0.168025273245793971E+01   -0.132257094062834071E+02    0.106692899507572303E+01    0.343016948434701917E+05
   -0.189167903897216050E+01   -0.387437302220149604E+00    0.141636812229576563E+02    0.770623781305730393E-01   -0.147695173661566699E+02    0.430539535213195279E+01   -0.120152366882809076E+02    0.140901718341864535E+01   -0.132357965344727582E+02    0.848442118480431162E+00    0.343016996653958922E+05
   -0.486265806024455571E+00    0.224535896963299919E+01    0.155132581922160639E+01    0.879691761840879494E-01   -0.154861105176157849E+02    0.545005539298248110E+01   -0.120153898445590279E+02    0.155605114033412661E+01   -0.131761498699259398E+02    0.104470863795598001E+01    0.343017203602386362E+05
    0.935404376244793667E+00   -0.136433741259439145E+01   -0.171857947331518446E+02    0.768067709616218064E-01   -0.147450484846553582E+02    0.405584817409667320E+01   -0.119895915766891470E+02    0.159418524945581752E+01   -0.131793738472307567E+02    0.150098920030818528E+01    0.343017330483467740E+05
   -0.863784966489053119E+00    0.819341619857926418E+00    0.186276313226871437E+02    0.820953931627173006E-01   -0.157892675108551188E+02    0.590975442243381810E+01   -0.120367735854625941E+02    0.162938742441301843E+01   -0.132203679712129762E+02    0.941104792019122782E+00    0.343017337815339997E+05
   -0.830017892641770061E-01   -0.624770874714826618E+00   -0.454268099145163973E+01    0.869522146095382809E-01   -0.148037866790247712E+02    0.405794749309464198E+01   -0.120566917431918377E+02    0.173817849944856917E+01   -0.132216708288075040E+02    0.106765618581206634E+01    0.343017400482240409E+05
   -0.497782838275099948E+00   -0.199054318664650509E+00   -0.301945352310802306E+01    0.884148033657452537E-01   -0.148211643813908669E+02    0.396726390113794825E+01   -0.120324705163068728E+02    0.120932164661332830E+01   -0.132370510702463271E+02    0.137877085102478603E+01    0.343017406910311547E+05
    0.918926054982694751E+00   -0.100679934217770040E+01   -0.470863265247452922E+01    0.833470803195202059E-01   -0.153783922816187815E+02    0.548464611984912054E+01   -0.120663200840939044E+02    0.122569257327089076E+01   -0.131510567874237019E+02    0.125293944294356918E+01    0.343017412940490103E+05
   -0.745486515985913201E+00    0.146092728736725519E+00    0.830541890956070006E+01    0.791200590801504067E-01   -0.153312841295691467E+02    0.520840124116482261E+01   -0.120847086388318932E+02    0.110515353048110576E+01   -0.132112687504856154E+02    0.114798805776647561E+01    0.343017544475807226E+05
   -0.539996267717256728E+00    0.714112040375596280E+00   -0.927596352423948289E+01    0.806746304927803415E-01   -0.150845513993646811E+02    0.463168855719550887E+01   -0.120524066308438904E+02    0.133932817135822635E+01   -0.132669450739692536E+02    0.116551497640468105E+01    0.343017877062841508E+05
    0.720344032413372304E+00   -0.132615251614447871E+01   -0.106225772395382734E+01    0.764394559483734248E-01   -0.153936326837580779E+02    0.504530998745998627E+01   -0.119732332888932262E+02    0.154491011207943796E+01   -0.132308311748194782E+02    0.106683391669363625E+01    0.343018231921738625E+05
   -0.115540479459218659E+01    0.600580051473080800E+00    0.117395432621272668E+02    0.808226912615372939E-01   -0.155994554083195034E+02    0.587160162895127602E+01   -0.120509163479783439E+02    0.117539673756041640E+01   -0.131921250825339307E+02    0.110138823520171925E+01    0.343018459872524472E+05
    0.812968519719699856E+00    0.286772498624582539E+00   -0.156891616090879396E+02    0.883008864952168349E-01   -0.151788230486822968E+02    0.520070158779166469E+01   -0.119674024900503486E+02    0.152747147180214471E+01   -0.131982438880671076E+02    0.916063260934578016E+00    0.343018848366089587E+05
   -0.487284541830412365E+00   -0.361269388175074369E+00    0.103331527040553439E+02    0.882494889648506309E-01   -0.153044424186054790E+02    0.555276870019732449E+01   -0.120779283729111029E+02    0.144012074927938238E+01   -0.132665386183593093E+02    0.858521099300424861E+00    0.343019219372752123E+05
    0.129933276849865464E+01   -0.990028023495124643E+00   -0.158424341899951884E+02    0.807871425322737036E-01   -0.146654297498183457E+02    0.377410423206483392E+01   -0.120095381676485378E+02    0.161203165023764150E+01   -0.132130995561719651E+02    0.672703667797926452E+00    0.343019329393545995E+05
    0.357713182947065889E-01   -0.239674191122512781E+01   -0.112337291992756487E+02    0.808628062100626988E-01   -0.148018299917121183E+02    0.431184119079194428E+01   -0.120333116486456877E+02    0.137603833254321506E+01   -0.132318112785048392E+02    0.856417964328038073E+00    0.343019416054249014E+05
   -0.743217581263216687E+00    0.106456153852493074E+01    0.961041661089302224E+01    0.850097056595311429E-01   -0.151991764675844845E+02    0.490900525479606564E+01   -0.120800492745504879E+02    0.145788284094069320E+01   -0.132400781147098776E+02    0.726537922103337008E+00    0.343019464302585984E+05
    0.271768064589828384E+00    0.116863707325952859E+01    0.934481306005530143E+00    0.704256982570639067E-01   -0.147328958377980790E+02    0.382373413927064165E+01   -0.119756594244627976E+02    0.160840135821953556E+01   -0.132157211090914135E+02    0.104266489499209403E+01    0.343019746287729358E+05
    0.218344646612088411E+00   -0.243376103394346543E+01   -0.659033050791854258E+01    0.836155341671540597E-01   -0.151747868587488384E+02    0.480160826586654998E+01   -0.120301637259351928E+02    0.161770000663832825E+01   -0.132421250181685526E+02    0.949572660171383975E+00    0.343019952580927056E+05
   -0.138579128475448954E-01   -0.324359286828787674E+00   -0.779670457735025479E+01    0.908050217882845345E-01   -0.153022307628697725E+02    0.523706208434614773E+01   -0.120202853384448858E+02    0.122790050560751918E+01   -0.132158584120900660E+02    0.107241939834869093E+01    0.343020047539724255E+05
    0.306070159572449541E+00   -0.105153739983293093E+01   -0.159846136247112725E+01    0.806719681033347680E-01   -0.156376906577283830E+02    0.552514987063010654E+01   -0.120343218291422964E+02    0.163336048521930577E+01   -0.131802576070015078E+02    0.123692071291240024E+01    0.343020205788592939E+05
   -0.131708526465299869E+01   -0.582855567383674611E+00    0.119899741708104166E+02    0.851175556344225814E-01   -0.146413107709405033E+02    0.371491594138044956E+01   -0.119678440698065351E+02    0.152001965472904654E+01   -0.131500538309051969E+02    0.118567750761577928E+01    0.343020244400759766E+05
   -0.292380683065928793E+00    0.440133726711099627E+00   -0.131183797384652188E+02    0.866695193798625585E-01   -0.147451461450238526E+02    0.419590195054944992E+01   -0.119948432075038518E+02    0.153810938622635196E+01   -0.132058967784736829E+02    0.126184050807002013E+01    0.343020276387807971E+05
    0.150768608366053414E+01   -0.112867361697207969E+01   -0.146349331087792134E+02    0.824658607888484330E-01   -0.145600748139385594E+02    0.394308682011452971E+01   -0.120330790545436077E+02    0.147073380740673665E+01   -0.132003966639573278E+02    0.124424448410764010E+01    0.343020293860634920E+05
    0.612262640178254713E+00   -0.520931846294029555E+00   -0.377528382311927402E+01    0.813132397241884686E-01   -0.151557247143146920E+02    0.515910240420783150E+01   -0.120577331965115846E+02    0.124479921087791690E+01   -0.131775355486727541E+02    0.145678741091276764E+01    0.343020452679713708E+05
   -0.571766936495308187E-01   -0.116448635052289973E+00    0.658236197196890060E+01    0.777314419770391840E-01   -0.142939756765065642E+02    0.327649266000109751E+01   -0.120212023879952454E+02    0.150361041389270467E+01   -0.132468130679938447E+02    0.856760711202785297E+00    0.343020524567246030E+05
   -0.126904645523538662E+01    0.188440783821747004E+00    0.186289511232005509E+02    0.865170992566355324E-01   -0.143942143566871330E+02    0.341245857414391818E+01   -0.120524393296502801E+02    0.154355316360411687E+01   -0.132832920084671073E+02    0.874998912451837696E+00    0.343020905230356802E+05
    0.135845382222047562E+01   -0.555050848521922546E+00   -0.148919968973685179E+02    0.890486449034961769E-01   -0.144654190426570359E+02    0.336464003637943820E+01   -0.120543640371511351E+02    0.138487781877433758E+01   -0.131785464961741248E+02    0.101779901327118227E+01    0.343021224358320324E+05
   -0.163009829986754795E+01    0.159900144775739861E+01    0.168248064299430737E+02    0.899783163807228448E-01   -0.151258174036333006E+02    0.463528421482248465E+01   -0.120215688192829191E+02    0.145849738656382355E+01   -0.132453608554527982E+02    0.110511461918051501E+01    0.343021248076707780E+05
   -0.703399832697829908E+00    0.112323284111718991E+01    0.171567761643947563E+02    0.877953433936133898E-01   -0.152181454532161702E+02    0.470227180605262429E+01   -0.120234346350711974E+02    0.137240802920028360E+01   -0.131409896471995040E+02    0.134020967465916119E+01    0.343021554808876826E+05
    0.502375578216529561E-01   -0.519540718568080706E+00   -0.742428398087351660E+01    0.825741474698216127E-01   -0.148863962166821544E+02    0.392114406442794206E+01   -0.119938061082611895E+02    0.140864724041119027E+01   -0.132141380023922981E+02    0.144213319220241121E+01    0.343021585750700033E+05
   -0.345915754351047156E-01    0.908652486437233620E-03    0.840488594254706811E+01    0.930934200014579272E-01   -0.152650505203400506E+02    0.493152005541181371E+01   -0.120438094311713844E+02    0.133267721953808582E+01   -0.132731548569753439E+02    0.117782154012690898E+01    0.343021807390215836E+05
    0.832107589439530670E+00    0.627253268737611336E+00   -0.913026692588464073E+01    0.811297762312923609E-01   -0.150346391108664363E+02    0.460833161337354547E+01   -0.120906763309939880E+02    0.116240700411320619E+01   -0.132737490110510681E+02    0.774756658350646110E+00    0.343021931722197987E+05
   -0.392956802057113919E+00    0.116679295560544460E+00   -0.732058849944612433E+01    0.804756452363899477E-01   -0.150530492735875576E+02    0.434586713765678123E+01   -0.120349150249647607E+02    0.132625876542430809E+01   -0.132984953850140375E+02    0.821668531305827954E+00    0.343021991081229644E+05
    0.811119403606674894E-01   -0.600519754838735764E+00    0.339968525286355572E+01    0.933377352566526763E-01   -0.151802421478529759E+02    0.498356035625743932E+01   -0.120073687085346066E+02    0.144449772561591416E+01   -0.132081433574256835E+02    0.868194755025000875E+00    0.343022256369306269E+05
    0.163437795301231148E+00    0.181328317038176223E+01    0.320000206064742088E+01    0.793829646669501621E-01   -0.148586205344115783E+02    0.436198323641125363E+01   -0.120777057589108061E+02    0.132848884436270720E+01   -0.132273044702709974E+02    0.830909882952367229E+00    0.343022433968761907E+05
    0.271939377148889605E+00   -0.153056933847011223E+01    0.748980004918173847E-01    0.803248264764904185E-01   -0.147749106466059850E+02    0.419636732897477760E+01   -0.120179982263903113E+02    0.131182289352351922E+01   -0.131523601533367405E+02    0.103233669792434046E+01    0.343022847644522990E+05
    0.779800259701637799E+00   -0.705286476146049779E-01   -0.633047569710196711E+01    0.714760374582763536E-01   -0.148921333512763745E+02    0.410203360025572650E+01   -0.120180393077574657E+02    0.137343163138423696E+01   -0.131574151018107859E+02    0.138055518149683243E+01    0.343022968155779308E+05
    0.595718952585500006E-02    0.549064269113831216E+00   -0.121958914414954975E+02    0.864555068670682658E-01   -0.152343818440166157E+02    0.495971494329911700E+01   -0.120014292108594240E+02    0.161987255777307859E+01   -0.132604617852999098E+02    0.727137543361197070E+00    0.343023005345350539E+05
   -0.104136719837374869E+01    0.272441814918344960E-01    0.128345125325513294E+02    0.815005574498564034E-01   -0.146963047216014093E+02    0.429494893814121959E+01   -0.120164378330306167E+02    0.166556629089023289E+01   -0.132030770428719926E+02    0.105143737055718467E+01    0.343023145358005640E+05
    0.833875758635787889E+00   -0.149213300944671801E+01   -0.984204611401469975E+01    0.866595871436293130E-01   -0.152566560819355885E+02    0.518748534351411283E+01   -0.119940585878798345E+02    0.155297530820224572E+01   -0.131964760409195296E+02    0.854720196693910417E+00    0.343023450073521672E+05
    0.576236932124928103E+00   -0.920393890942012405E+00   -0.134787250601006843E+02    0.774610260085466518E-01   -0.147930914016323936E+02    0.376039234413990009E+01   -0.120497150305521163E+02    0.134935912956605364E+01   -0.131404445649497248E+02    0.126023113998534630E+01    0.343023555468538107E+05
    0.114651598730772974E+01    0.201568178826640576E+00   -0.685645094165958824E+01    0.806401511005216953E-01   -0.148778974537888935E+02    0.465847997312758366E+01   -0.120690571472221109E+02    0.126436661003399653E+01   -0.132046047373330762E+02    0.102829090055713079E+01    0.343023853805596082E+05
   -0.980277812921102054E-01   -0.663836849859709588E+00    0.142774361117472068E+02    0.831959358012113182E-01   -0.151933711218100918E+02    0.522097888768900908E+01   -0.120196451655887646E+02    0.148310991346772747E+01   -0.132034336684682181E+02    0.849633133872291113E+00    0.343023857849384149E+05
   -0.255838522033666749E+00    0.147531864907680443E+01    0.148668164842281953E+02    0.837751783613671641E-01   -0.146348760495028785E+02    0.381824687921446282E+01   -0.120669878534587944E+02    0.151120241045764092E+01   -0.132577154436804001E+02    0.916813078916667079E+00    0.343023909638784244E+05
   -0.103955435486824754E+01    0.226943923656200752E+00    0.523401803626949658E+01    0.753355833482207693E-01   -0.150831133739879455E+02    0.455252765931716397E+01   -0.120092036324905092E+02    0.144995049552489541E+01   -0.132093639342613702E+02    0.135417840580947857E+01    0.343024134619461620E+05
   -0.132239800447052858E+00   -0.158889286286548526E+00    0.115125747822266931E+02    0.772829426266765651E-01   -0.152868551922766258E+02    0.519425061077673078E+01   -0.119601461580058306E+02    0.149840331524903880E+01   -0.132202106071498324E+02    0.103981603374821896E+01    0.343024222791526772E+05
   -0.215810999490905431E+00   -0.173343013379572142E+00    0.182589234886680174E+01    0.838258615267790663E-01   -0.150372789506790081E+02    0.489030127781760449E+01   -0.119697289679403571E+02    0.152454172423685863E+01   -0.132429387876310205E+02    0.739078519540731560E+00    0.343024251932835396E+05
    0.317022199323972131E+00    0.548470570207435060E+00   -0.124020109216479479E+02    0.757700331624282519E-01   -0.149900252319213756E+02    0.468512054855149529E+01   -0.120066434311443935E+02    0.156034997033475009E+01   -0.131306454402272852E+02    0.126544229116765461E+01    0.343024309767940285E+05
   -0.129780427208181948E+00   -0.965796512197279355E+00    0.253929049695180709E+01    0.726960085155825553E-01   -0.146060392612065950E+02    0.363441720496899645E+01   -0.120121923746011348E+02    0.144815400780925008E+01   -0.132663202465944394E+02    0.112454349314520718E+01    0.343024421322709022E+05
    0.868859786047110561E+00   -0.839174743928722933E+00   -0.150770089992254022E+02    0.715974527904910119E-01   -0.149450356629723036E+02    0.449227117312815949E+01   -0.119807987069690913E+02    0.153741332084413207E+01   -0.132322414279411227E+02    0.931108097674671842E+00    0.343024601433991847E+05
   -0.472233309731748818E+00   -0.173686823862200157E+01    0.280873854893602726E+00    0.859833977229991220E-01   -0.148170927459380017E+02    0.427712250797358973E+01   -0.120178424549218636E+02    0.129039254503162493E+01   -0.132632381359046345E+02    0.944896845839123700E+00    0.343024788749781510E+05
    0.455101198815022201E+00   -0.239195731939111056E+01   -0.831878472830151594E+01    0.839239538882681213E-01   -0.146121903010318182E+02    0.375264562997643569E+01   -0.120128080274684415E+02    0.145244975927550413E+01   -0.131865401127843072E+02    0.121462793291404392E+01    0.343025004984086700E+05
   -0.241538781259713176E+00   -0.104832382610407748E+01    0.108939420310179003E+02    0.749257589119571854E-01   -0.150767230125732610E+02    0.471878215853385807E+01   -0.119882709802912206E+02    0.147663874186022870E+01   -0.132268845045568373E+02    0.122927866400950458E+01    0.343025158035784043E+05
    0.941078409806806349E+00   -0.787578435306169666E+00   -0.127037861484781196E+02    0.857714502803099688E-01   -0.146731488288166183E+02    0.386121898647137352E+01   -0.120254768846541218E+02    0.145732899256041870E+01   -0.131992383918668814E+02    0.775233193813700039E+00    0.343028702763054680E+05
   -0.629216616657355843E+00   -0.223982763132643470E+01    0.842498495414603354E+01    0.815710055884597551E-01   -0.148073346103191401E+02    0.400799039951670366E+01   -0.120260701221718147E+02    0.154641452959888492E+01   -0.132023036245684189E+02    0.962445269039489792E+00    0.343025301551716911E+05
    0.106894928050561333E+01   -0.524289966764328597E-01   -0.194025737895570956E+02    0.792117112301591320E-01   -0.151415634563704593E+02    0.460921819139486644E+01   -0.120169929056858908E+02    0.125419492859516657E+01   -0.132011752477933921E+02    0.115566853933828484E+01    0.343030613650199375E+05
   -0.414196540718677397E+00    0.197516434239279803E+01    0.299652294499923144E+01    0.818491844939819302E-01   -0.148685150451105201E+02    0.433265215632510170E+01   -0.120145276511870787E+02    0.163148940524583574E+01   -0.132231814170663995E+02    0.106981536698985114E+01    0.343027970732845424E+05
    0.829884388297909226E+00    0.117041460223476435E+01   -0.121334551069801577E+02    0.759296994053160201E-01   -0.149601475324669551E+02    0.435431762388795285E+01   -0.120331959212207806E+02    0.143142678914908617E+01   -0.131946981115244277E+02    0.127321735840185002E+01    0.343031577450281984E+05
    0.445723642011497390E+00   -0.423636963704769443E+00   -0.125038202645646219E+02    0.862673390402086682E-01   -0.153618083528869818E+02    0.536497501453539538E+01   -0.120784928966642831E+02    0.126977774979123170E+01   -0.132517175570684191E+02    0.108865739703462627E+01    0.343027117490068777E+05
   -0.100246936512672136E+00   -0.913422405389464842E+00    0.163782595700830242E+02    0.838193181302220314E-01   -0.148872292629379395E+02    0.410480205758229033E+01   -0.120322191270394612E+02    0.137624310550325335E+01   -0.132572212999143488E+02    0.950503249298072173E+00    0.343031584646384290E+05
    0.312165118445697942E+00    0.344898212018236450E+00   -0.100979669882668333E+01    0.832378113734644209E-01   -0.152163818470619585E+02    0.497935587038077720E+01   -0.120173678876171053E+02    0.142271382112198719E+01   -0.132746574222958955E+02    0.103352441562097552E+01    0.343037739788445542E+05
    0.312165118445697942E+00    0.344898212018236450E+00   -0.100979669882668333E+01    0.832378113734644209E-01   -0.152163818470619585E+02    0.497935587038077720E+01   -0.120173678876171053E+02    0.142271382112198719E+01   -0.132746574222958955E+02    0.103352441562097552E+01    0.343037739788445542E+05
    0.312165118445697942E+00    0.344898212018236450E+00   -0.100979669882668333E+01    0.832378113734644209E-01   -0.152163818470619585E+02    0.497935587038077720E+01   -0.120173678876171053E+02    0.142271382112198719E+01   -0.132746574222958955E+02    0.103352441562097552E+01    0.343037739788445542E+05
   -0.230315568075795341E+00    0.180922990930667993E+00    0.113259129857630967E+02    0.907229187355595990E-01   -0.147274365891402432E+02    0.387685802223205922E+01   -0.120708585352939792E+02    0.123391007436691647E+01   -0.132382990333690529E+02    0.123045204441995337E+01    0.343027207239377967E+05
   -0.907312783308960036E+00    0.637348836213615044E+00    0.130559153078874033E+02    0.883793255331239980E-01   -0.154222528481966084E+02    0.533347661189049127E+01   -0.119945721864894974E+02    0.158165871886799025E+01   -0.131619640553526835E+02    0.112309482393763460E+01    0.343028057311067241E+05
   -0.314274910003820906E+00   -0.100201286427563474E+01    0.348878213163806805E+01    0.798610199980260838E-01   -0.147241624010276944E+02    0.392565417541059558E+01   -0.120199125545729224E+02    0.153892993339795048E+01   -0.131617660598130790E+02    0.127118964697054349E+01    0.343035372632168364E+05
   -0.314274910003820906E+00   -0.100201286427563474E+01    0.348878213163806805E+01    0.798610199980260838E-01   -0.147241624010276944E+02    0.392565417541059558E+01   -0.120199125545729224E+02    0.153892993339795048E+01   -0.131617660598130790E+02    0.127118964697054349E+01    0.343035372632168364E+05
   -0.221512832274363802E+00   -0.928871413136850066E+00    0.110806393504888945E+01    0.811882968451567155E-01   -0.148191712701326370E+02    0.407228120041486275E+01   -0.120681276918301705E+02    0.139974862023584024E+01   -0.132040647049163908E+02    0.124151614863759430E+01    0.343034958368030348E+05
   -0.750953665680938798E+00   -0.269611779318832845E+00    0.119092732312157139E+02    0.830285220203661467E-01   -0.149171020250827269E+02    0.453750339706819084E+01   -0.120197040264223816E+02    0.150784407674189458E+01   -0.133286512774809989E+02    0.900769833642668938E+00    0.343026501179138650E+05
    0.630282283724206138E+00   -0.104334826898486099E+01   -0.177534594494392337E+02    0.820005477525569404E-01   -0.151810479431747503E+02    0.492987617116175691E+01   -0.119857330382825484E+02    0.154845785425819660E+01   -0.131452602209365690E+02    0.140974047101224675E+01    0.343026797839258652E+05
   -0.346954669311937636E+00    0.171933200037297951E+01    0.132346553116836603E+02    0.838263782920987133E-01   -0.150660267215047696E+02    0.461459672864014259E+01   -0.120268926238533105E+02    0.125193477240594819E+01   -0.132292435737826874E+02    0.952107252338404431E+00    0.343028370459296493E+05
   -0.934673308450015838E-01   -0.548425683210613357E+00    0.330156992559361129E+01    0.880742902396269844E-01   -0.146849648803490567E+02    0.402584325533143605E+01   -0.120039657086058131E+02    0.151737904989929673E+01   -0.131734320725361265E+02    0.118629101855807484E+01    0.343033450247419678E+05
   -0.934673308450015838E-01   -0.548425683210613357E+00    0.330156992559361129E+01    0.880742902396269844E-01   -0.146849648803490567E+02    0.402584325533143605E+01   -0.120039657086058131E+02    0.151737904989929673E+01   -0.131734320725361265E+02    0.118629101855807484E+01    0.343033450247419678E+05
    0.103814601255629668E+01   -0.647052148452488041E+00   -0.141140859504233376E+02    0.831202210684001130E-01   -0.148143469610579572E+02    0.391427168873224485E+01   -0.119820037811808913E+02    0.136973824754446305E+01   -0.132290786033373351E+02    0.113930240557293727E+01    0.343030013607220462E+05
    0.335277642544795640E-01   -0.463465316187612331E+00   -0.593598662277775801E+01    0.776343953224705174E-01   -0.144582004244754465E+02    0.324067281665649132E+01   -0.119925834321518927E+02    0.136300257041274642E+01   -0.132132592123336501E+02    0.120075119615141901E+01    0.343026505073575536E+05
   -0.141955954163973530E+01    0.465160444694067365E+00    0.145942278335728091E+02    0.839766690748289246E-01   -0.149905242961549270E+02    0.441773097640310652E+01   -0.120054137107536576E+02    0.151439474884920089E+01   -0.132908908936941064E+02    0.107722247353932699E+01    0.343025490341040131E+05
   -0.151239323144746862E+01    0.107069213201968694E+01    0.172935039627079021E+02    0.829305888446769668E-01   -0.146896559967927391E+02    0.365708105923739391E+01   -0.120210030199126230E+02    0.156959000294798079E+01   -0.132201189131700687E+02    0.125629569313086131E+01    0.343025760177300108E+05
    0.381505519196629450E+00   -0.994944476585892801E+00   -0.684567279738853784E+01    0.863630193244848687E-01   -0.148340430374846086E+02    0.436154569921061785E+01   -0.120590276995312884E+02    0.127130387337285433E+01   -0.133251335404693467E+02    0.625409617681523589E+00    0.343025618976471742E+05
   -0.975078830644893202E+00    0.934427803896426212E+00    0.922287086862468541E+01    0.816498251345043613E-01   -0.149789830524438603E+02    0.465576779635222948E+01   -0.120459709695528083E+02    0.140222351788094191E+01   -0.132779408083745913E+02    0.791236901642160095E+00    0.343032206330766203E+05
    0.562054141312739119E+00   -0.161727400316313563E+01   -0.199190052881029267E+02    0.856898519247522028E-01   -0.147218770073408756E+02    0.377745321158528968E+01   -0.120131489869877797E+02    0.147088761723072103E+01   -0.131790476548865207E+02    0.117125511916279512E+01    0.343028869942023375E+05
    0.939487054989101011E-01    0.197123147517700659E+00   -0.862943835998872899E+01    0.868975742268613960E-01   -0.148165708290966514E+02    0.415279352017303971E+01   -0.120446309363057953E+02    0.151248375473042040E+01   -0.132358131095105058E+02    0.947529824677305732E+00    0.343038897575414157E+05
    0.939487054989101011E-01    0.197123147517700659E+00   -0.862943835998872899E+01    0.868975742268613960E-01   -0.148165708290966514E+02    0.415279352017303971E+01   -0.120446309363057953E+02    0.151248375473042040E+01   -0.132358131095105058E+02    0.947529824677305732E+00    0.343038897575414157E+05
    0.939487054989101011E-01    0.197123147517700659E+00   -0.862943835998872899E+01    0.868975742268613960E-01   -0.148165708290966514E+02    0.415279352017303971E+01   -0.120446309363057953E+02    0.151248375473042040E+01   -0.132358131095105058E+02    0.947529824677305732E+00    0.343038897575414157E+05
    0.225048828011210844E+00    0.650350799382305667E+00   -0.114900633421525100E+01    0.894582399873045109E-01   -0.151182840541485710E+02    0.471610909704208225E+01   -0.120087080849066581E+02    0.139768139488269272E+01   -0.132251203878819101E+02    0.916491186020459425E+00    0.343034951653930329E+05
    0.225048828011210844E+00    0.650350799382305667E+00   -0.114900633421525100E+01    0.894582399873045109E-01   -0.151182840541485710E+02    0.471610909704208225E+01   -0.120087080849066581E+02    0.139768139488269272E+01   -0.132251203878819101E+02    0.916491186020459425E+00    0.343034951653930329E+05
    0.146882762653085308E+01   -0.146349758951750175E+00   -0.125436601094393083E+02    0.854939223315804853E-01   -0.153870165126259337E+02    0.551517393841774251E+01   -0.119960441219484117E+02    0.149828856594955262E+01   -0.131947374415239089E+02    0.991193373579231540E+00    0.343028323392561142E+05
   -0.428473938217166506E-02   -0.781692879166762111E+00   -0.622934826964704591E+01    0.849123864166343445E-01   -0.145446912332030358E+02    0.365010815274225742E+01   -0.120202757657179564E+02    0.148630929486039154E+01   -0.131768657508162228E+02    0.118591790530659313E+01    0.343034227908822650E+05
    0.372247356596258072E+00    0.484048644693775287E+00    0.299273616811775156E+01    0.753216283327811098E-01   -0.148680327817421709E+02    0.446000772401974821E+01   -0.120255584482719780E+02    0.148124518426108409E+01   -0.132435137180613189E+02    0.958852755287621705E+00    0.343033443954831891E+05
    0.372247356596258072E+00    0.484048644693775287E+00    0.299273616811775156E+01    0.753216283327811098E-01   -0.148680327817421709E+02    0.446000772401974821E+01   -0.120255584482719780E+02    0.148124518426108409E+01   -0.132435137180613189E+02    0.958852755287621705E+00    0.343033443954831891E+05
   -0.224020059154423024E+00   -0.213383600160301512E+01    0.776200395237354712E+01    0.829236009792095885E-01   -0.147687776022235457E+02    0.411712799075164604E+01   -0.119933605931037413E+02    0.153397294951178242E+01   -0.132176403365805228E+02    0.987425908714602563E+00    0.343027205657468294E+05
    0.486576767773282626E+00    0.818364600354971827E+00   -0.192682363263396645E+02    0.802318638082364366E-01   -0.152290902220649720E+02    0.506023708472981770E+01   -0.119973155846860742E+02    0.149099834736724413E+01   -0.131926134305473433E+02    0.133680651939528561E+01    0.343026344540073260E+05
    0.255708316999321283E+00   -0.291964180285940955E+00    0.565304173040966873E+01    0.835702819371633154E-01   -0.147128667205996670E+02    0.382464324451648618E+01   -0.120410900053960468E+02    0.129232522977257691E+01   -0.131741749636166929E+02    0.119613347403578074E+01    0.343035658102088710E+05
    0.255708316999321283E+00   -0.291964180285940955E+00    0.565304173040966873E+01    0.835702819371633154E-01   -0.147128667205996670E+02    0.382464324451648618E+01   -0.120410900053960468E+02    0.129232522977257691E+01   -0.131741749636166929E+02    0.119613347403578074E+01    0.343035658102088710E+05
    0.622569424779058522E+00   -0.127360983769215252E+01   -0.660270188340763653E+01    0.837030735685460048E-01   -0.150925535717377741E+02    0.448428723424717912E+01   -0.119984072002983631E+02    0.159910182582755289E+01   -0.131557730413526599E+02    0.131547383330030754E+01    0.343030484807868706E+05
    0.663997444016658278E+00   -0.582890379891981780E+00   -0.146819906916331728E+02    0.789424404257057510E-01   -0.153904267680435467E+02    0.549462116644781506E+01   -0.120180273699926019E+02    0.135607150691092126E+01   -0.132121248940100227E+02    0.114898430580490363E+01    0.343034159679988443E+05
    0.663997444016658278E+00   -0.582890379891981780E+00   -0.146819906916331728E+02    0.789424404257057510E-01   -0.153904267680435467E+02    0.549462116644781506E+01   -0.120180273699926019E+02    0.135607150691092126E+01   -0.132121248940100227E+02    0.114898430580490363E+01    0.343034159679988443E+05
   -0.734634561055333535E+00   -0.510114275269742734E+00    0.108712521061378666E+02    0.774919318588260797E-01   -0.149752698031778877E+02    0.452941432626446527E+01   -0.119715500262640706E+02    0.157350944185116637E+01   -0.132518815232703879E+02    0.115031667207040833E+01    0.343026788672361508E+05
    0.669469015724484251E+00   -0.298099925289577072E+00   -0.561858718100153354E+01    0.858468250134123423E-01   -0.146464584629815668E+02    0.379910165923020982E+01   -0.120112876950352483E+02    0.163476463120429871E+01   -0.132105920491786115E+02    0.765952526894115526E+00    0.343027407706072554E+05
    0.680231555940661536E+00   -0.156342364287429803E+01   -0.108731602240092577E+02    0.844914243046839264E-01   -0.147223657707055828E+02    0.421185504343452344E+01   -0.120270447448901976E+02    0.150175447123998440E+01   -0.131656117740327669E+02    0.109347478290565081E+01    0.343026785132703953E+05
    0.991636747384461614E+00    0.263497298645198441E+00   -0.168776534517864967E+02    0.762980760953393400E-01   -0.147010593321237018E+02    0.396658054034840069E+01   -0.120629545893585171E+02    0.148822189294578089E+01   -0.131923219572181889E+02    0.116158321325790026E+01    0.343026826702781182E+05
    0.712957191161315507E+00    0.114223646384304089E+01   -0.112249688977660966E+01    0.846171727619537961E-01   -0.151700380085605424E+02    0.472289852547951661E+01   -0.120227056998859538E+02    0.133366197394060770E+01   -0.132001004633423165E+02    0.140447344912714289E+01    0.343026243436073128E+05
   -0.489850677250448285E+00    0.811950486681666916E+00    0.121642793824162396E+02    0.812983936253675044E-01   -0.150391733609350453E+02    0.431510831228240033E+01   -0.120158268769820893E+02    0.131421708850284569E+01   -0.132228878809731452E+02    0.118339458214895998E+01    0.343033239619949745E+05
    0.174561739240408187E+01   -0.383814106033071312E-01   -0.147134406538476270E+02    0.854613662842025334E-01   -0.147546621321609699E+02    0.403348052813312741E+01   -0.120263920033134788E+02    0.133856679406049794E+01   -0.132432701903798389E+02    0.114826883024513227E+01    0.343031232057928864E+05
    0.174561739240408187E+01   -0.383814106033071312E-01   -0.147134406538476270E+02    0.854613662842025334E-01   -0.147546621321609699E+02    0.403348052813312741E+01   -0.120263920033134788E+02    0.133856679406049794E+01   -0.132432701903798389E+02    0.114826883024513227E+01    0.343031232057928864E+05
   -0.274331121443843529E+00   -0.157949521780746949E+00    0.677291342393335682E+01    0.765490739790921637E-01   -0.149884492345709273E+02    0.438512494651476104E+01   -0.120074501437163867E+02    0.151027003190823583E+01   -0.131236633068810882E+02    0.106932826783738943E+01    0.343026401301834267E+05
   -0.216339802354646338E+00    0.615737490760860595E+00    0.671701249558049085E+01    0.829643037763934110E-01   -0.147690120492731207E+02    0.446552557328698985E+01   -0.120279828089136487E+02    0.139602131741805469E+01   -0.131497361107099504E+02    0.117043387730502335E+01    0.343025371059138561E+05
    0.580466473401486382E-01    0.793916590943659628E+00    0.712565640194387129E+01    0.820195736006392728E-01   -0.152649837524860352E+02    0.520980606438236560E+01   -0.119941783784111635E+02    0.159152727435252128E+01   -0.131441693596567255E+02    0.114215714298101734E+01    0.343028633393353230E+05
