   -0.717559290159067942E+00    0.441904582680266167E+00    0.390273935836990660E+00   -0.113399513341792044E+02    0.529990230290436348E+00    0.894720712154033099E+05
    0.399680647456308691E+01    0.321783646474394891E+00    0.273901451998167733E+00   -0.112948776541356235E+02    0.497132408057294639E+00    0.894735320673318347E+05
    0.233610001470184603E+01    0.330503258383161136E+00    0.294457995751368995E+00   -0.112505056055645714E+02    0.781905387385184669E+00    0.894740019202369149E+05
    0.201970929447394809E+01    0.192501715458544942E+00    0.685092405627321099E+00   -0.113781495326972752E+02    0.174768558344586100E+00    0.894742421497394098E+05
   -0.965194427374381325E+00    0.909669286408904265E-01    0.603621883681847660E+00   -0.112435809481658975E+02    0.323207399572182363E+00    0.894744650671013951E+05
   -0.154402916895761244E+00    0.164681972900104667E+00    0.638323159422493513E+00   -0.112900954349314731E+02    0.183497801328720483E+00    0.894747512205265812E+05
    0.406094038787311451E+01    0.326274446269658125E+00    0.288216773191215414E+00   -0.113305538126887075E+02    0.489175682035529136E+00    0.894748229713524925E+05
    0.698922824171582580E+00    0.189966536449147849E+00    0.669533459028360145E+00   -0.112708848301609770E+02    0.382055430648471139E+00    0.894749165263677132E+05
    0.221981383051139947E+01    0.192514972916236121E+00    0.682882955527110536E+00   -0.112513897926182533E+02    0.711395705938899781E+00    0.894754972118661390E+05
    0.284703737384047617E+01    0.335273698538167964E+00    0.306775993137512470E+00   -0.112581151601246638E+02    0.681182046223946069E+00    0.894755684203187702E+05
   -0.735407537055486227E+00    0.128058208717656913E+00    0.621291231326097204E+00   -0.113599583322859949E+02    0.432410363630160222E+00    0.894759670361913304E+05
   -0.175789668697655443E+00    0.143228636514909025E+00    0.630228674344620265E+00   -0.112979106130444755E+02    0.802542562762050160E+00    0.894759688052435813E+05
   -0.490624288950316956E+00    0.154719151894618545E+00    0.635699771421037729E+00   -0.113042882943514691E+02    0.331176858748203573E+00    0.894760816381869954E+05
   -0.495665479035573231E+00    0.392470309679705920E+00    0.378209073241662475E+00   -0.113081450773709147E+02    0.382169314062437371E+00    0.894762073875139467E+05
    0.146887944900503609E+00    0.371685596388977468E+00    0.357206395547861877E+00   -0.111606819866449776E+02    0.689038936323762230E+00    0.894762125758299371E+05
    0.229577754988528238E+01    0.336390291040917222E+00    0.300103255290754711E+00   -0.112058441481678344E+02    0.729517129693287636E+00    0.894762476895615691E+05
   -0.801493235303941898E+00    0.849218613057561855E-01    0.607315523376720012E+00   -0.112834840751434982E+02    0.714806141369810466E+00    0.894762970983547712E+05
    0.905245275623192569E+00    0.192299078152627673E+00    0.670746088885457281E+00   -0.112752833135398376E+02    0.669353992944840770E+00    0.894763199141915538E+05
    0.249666665267723964E+00    0.161968308287228996E+00    0.641517859229876586E+00   -0.111867796691019397E+02    0.848041464193170391E+00    0.894763880201507127E+05
    0.580038994876272085E+00    0.175957830991482100E+00    0.658409877872609295E+00   -0.112640553156451002E+02    0.939953080654643003E+00    0.894764046674515121E+05
   -0.599094052772618291E+00    0.415426513727999935E+00    0.383921037781349783E+00   -0.113368022058514466E+02    0.245019455704147071E+00    0.894764220163551654E+05
    0.445814465238731472E+00    0.367188539040364748E+00    0.344686408500494867E+00   -0.113688976610485142E+02    0.113570254020681438E+00    0.894764422256689286E+05
    0.231579068482130612E+01    0.199282867141962444E+00    0.699901763633359542E+00   -0.113516833701906759E+02    0.294145616554976064E+00    0.894765755333435955E+05
   -0.703080746631051134E+00    0.392531125914158119E+00    0.373872210265035920E+00   -0.112116801908310464E+02    0.671133006273422206E+00    0.894766744367463398E+05
    0.510878853807952282E-01    0.162586492498882018E+00    0.646589699380170524E+00   -0.111703021878189421E+02    0.663836448067837703E+00    0.894767048220554425E+05
    0.169118106792785738E+01    0.347437965332970278E+00    0.323245586854571831E+00   -0.111929703785144117E+02    0.510747488930313964E+00    0.894767982667956385E+05
   -0.523192574486083029E+00    0.389141029063150179E+00    0.367728991312741116E+00   -0.112181285321505051E+02    0.579187741303394565E+00    0.894768403675422596E+05
    0.311783194687973086E+01    0.201052073727757324E+00    0.699333399700240887E+00   -0.113394496723813205E+02    0.289271775230055317E+00    0.894768593868830358E+05
   -0.337852567869503240E-01    0.382162547617351689E+00    0.364242020602904559E+00   -0.112700982962312430E+02    0.296446165869884037E+00    0.894768811295670457E+05
   -0.341902155747525249E+00    0.138765164256442447E+00    0.626348744181472794E+00   -0.113603862885213545E+02    0.474979495829483678E+00    0.894768851123815984E+05
   -0.727929863509885866E+00    0.401047014945165592E+00    0.377937610769995880E+00   -0.112926761278515393E+02    0.646709374919963831E+00    0.894770051653822884E+05
    0.289853703612803404E+01    0.330916873423600544E+00    0.296412865900132383E+00   -0.112689664738674118E+02    0.665420118061734511E+00    0.894770747507634223E+05
    0.116564806912888175E+01    0.351719814357832672E+00    0.321078225686416863E+00   -0.112732872726956952E+02    0.766792754562892198E+00    0.894770788027232047E+05
    0.366249396547737138E+00    0.162722410925338734E+00    0.654564955229999246E+00   -0.112959319046511055E+02    0.560148629094743500E+00    0.894771779026617296E+05
   -0.238733876009227242E+00    0.142631122807765714E+00    0.629441651051417916E+00   -0.113190765712604886E+02    0.225894646018566958E+00    0.894771980260390264E+05
    0.237513211094027810E+01    0.333479050903601137E+00    0.301211323852642709E+00   -0.112671052041168895E+02    0.402912916757505180E+00    0.894772008355387952E+05
   -0.181668159373299165E+00    0.402122792888085834E+00    0.372284087342750203E+00   -0.113112482349721475E+02    0.622246030672488959E+00    0.894772092141106841E+05
    0.162992569092454875E+01    0.194730245728523321E+00    0.676880685162111084E+00   -0.113217495337911966E+02    0.500622896888198721E+00    0.894772525071269483E+05
    0.110695040793944965E+01    0.351561543197745019E+00    0.332927072705903604E+00   -0.112500917102650462E+02    0.885275511713707886E+00    0.894773132626005099E+05
   -0.975738444579295372E+00    0.102895806400996742E+00    0.603131789148465991E+00   -0.113130343154948072E+02    0.378003917725926786E+00    0.894773459781925194E+05
    0.150685575099250268E+01    0.186650948043530857E+00    0.679942452408299536E+00   -0.113547094845540713E+02    0.405830212518388134E+00    0.894773571044163546E+05
    0.249224099471529392E+01    0.200368608422287181E+00    0.694920463624973173E+00   -0.112929552998182743E+02    0.737443704017194834E+00    0.894773730127101880E+05
   -0.100882093412113272E+01    0.101368211969617400E+00    0.606559258751574459E+00   -0.112283694654443202E+02    0.657907362047468691E+00    0.894774156664724724E+05
    0.219592274042217195E+01    0.190867570341966331E+00    0.692547527090541681E+00   -0.112927304860560280E+02    0.484261220670297088E+00    0.894774374338340713E+05
   -0.390636251403618573E+00    0.404846541196776599E+00    0.377351658264599932E+00   -0.113275790340352103E+02    0.533962128489904986E+00    0.894774512179904414E+05
    0.105584417239555783E+01    0.356714075628398575E+00    0.339051165860652592E+00   -0.113223652597247426E+02    0.380636310712667569E+00    0.894774618401931366E+05
   -0.172886807708446444E+00    0.167437788244998276E+00    0.640883922305632403E+00   -0.112343686859232523E+02    0.501139159650500043E+00    0.894774901918840187E+05
   -0.856866455392899518E-01    0.380248700603694756E+00    0.358886437708281325E+00   -0.111630471551658772E+02    0.829995108219656164E+00    0.894775633691179974E+05
   -0.345022935434266653E+00    0.155443773626291859E+00    0.634558282133678153E+00   -0.113400838233034946E+02    0.636042824067677426E+00    0.894776320728491701E+05
   -0.839820768276478224E+00    0.423769393396105032E+00    0.388054300465270452E+00   -0.112725728020933875E+02    0.464605374320111730E+00    0.894776414360918134E+05
   -0.504708100687313532E+00    0.152777626634766184E+00    0.633016850763113759E+00   -0.113284731780478882E+02    0.306512823413330637E+00    0.894776869961402263E+05
    0.372399838749526868E+00    0.372356764192938283E+00    0.352972185498459601E+00   -0.112706324736665504E+02    0.325921788304686988E+00    0.894777025266198034E+05
   -0.192005117622703558E+00    0.149642331016603014E+00    0.628633145468403987E+00   -0.112681894286396389E+02    0.573496046317260699E+00    0.894777074699677178E+05
    0.750068910651906950E+00    0.183185270278315354E+00    0.667654349243114176E+00   -0.111931510684795441E+02    0.663622203364554575E+00    0.894777811985052540E+05
    0.750068910651906950E+00    0.183185270278315354E+00    0.667654349243114176E+00   -0.111931510684795441E+02    0.663622203364554575E+00    0.894777811985052540E+05
    0.575168128179895266E+00    0.176354762971243972E+00    0.667198251486103566E+00   -0.113253442825445312E+02    0.318746050208745968E+00    0.894777929717834340E+05
    0.272981728062675888E+01    0.333785469330003137E+00    0.297732136953837878E+00   -0.113256449589000354E+02    0.348449077534924934E+00    0.894778324775118963E+05
   -0.510442253982152483E+00    0.132033849618405308E+00    0.624452254646178040E+00   -0.113194042055950064E+02    0.443931742041251742E+00    0.894778555651382048E+05
    0.353217182284326991E+01    0.333618069543974605E+00    0.293071639324068656E+00   -0.112249894025906087E+02    0.762561286172261710E+00    0.894778599513997906E+05
    0.353217182284326991E+01    0.333618069543974605E+00    0.293071639324068656E+00   -0.112249894025906087E+02    0.762561286172261710E+00    0.894778599513997906E+05
    0.237884715517491063E+01    0.192865036024591235E+00    0.689616678965491170E+00   -0.112659881416700376E+02    0.678872450049012088E+00    0.894779000827585696E+05
   -0.561283737690231099E+00    0.138857070847139108E+00    0.627835143643702520E+00   -0.112879607415704246E+02    0.642514968015141297E+00    0.894779185589873814E+05
   -0.561283737690231099E+00    0.138857070847139108E+00    0.627835143643702520E+00   -0.112879607415704246E+02    0.642514968015141297E+00    0.894779185589873814E+05
   -0.127083344311896163E+00    0.391270399159903415E+00    0.370045066373766274E+00   -0.112501240864886132E+02    0.701407280292769886E+00    0.894779186279829300E+05
   -0.217816316255430742E+00    0.387736447591891631E+00    0.368975206817108548E+00   -0.112730155363729363E+02    0.264227454646189464E+00    0.894779472593291430E+05
    0.478184485891468114E+00    0.167157630300285576E+00    0.651102769836212625E+00   -0.113531890279230545E+02    0.397707944166764804E+00    0.894779653383258847E+05
    0.871047135300516917E+00    0.350436747982034835E+00    0.324038893153120955E+00   -0.112443088987014281E+02    0.669313844688576021E+00    0.894779976091514691E+05
    0.273822796887770448E+00    0.363058117175055373E+00    0.350544750371946878E+00   -0.112662658492476258E+02    0.700423822577569744E+00    0.894780020143326255E+05
    0.431371059301312254E+00    0.368293515248953762E+00    0.343727409917777338E+00   -0.112676371107009761E+02    0.305475787575120283E+00    0.894780148077994818E+05
    0.431371059301312254E+00    0.368293515248953762E+00    0.343727409917777338E+00   -0.112676371107009761E+02    0.305475787575120283E+00    0.894780148077994818E+05
    0.257745065175390931E+01    0.196348465717754328E+00    0.691115430750514070E+00   -0.113441361988078828E+02    0.335286571586511428E+00    0.894781195233439794E+05
    0.257745065175390931E+01    0.196348465717754328E+00    0.691115430750514070E+00   -0.113441361988078828E+02    0.335286571586511428E+00    0.894781195233439794E+05
    0.766875363617913752E+00    0.178663963760368250E+00    0.660010569380326761E+00   -0.111572972289224808E+02    0.870242122697697074E+00    0.894781955911513651E+05
    0.766875363617913752E+00    0.178663963760368250E+00    0.660010569380326761E+00   -0.111572972289224808E+02    0.870242122697697074E+00    0.894781955911513651E+05
   -0.120597582109421175E+00    0.144088634399860221E+00    0.631370302273890127E+00   -0.112334545177121807E+02    0.440535861609053447E+00    0.894782171519661497E+05
   -0.120597582109421175E+00    0.144088634399860221E+00    0.631370302273890127E+00   -0.112334545177121807E+02    0.440535861609053447E+00    0.894782171519661497E+05
   -0.946321514786303553E+00    0.104713289343306426E+00    0.608456092996991882E+00   -0.112874167174100073E+02    0.579340041867901001E+00    0.894782421071168501E+05
   -0.946321514786303553E+00    0.104713289343306426E+00    0.608456092996991882E+00   -0.112874167174100073E+02    0.579340041867901001E+00    0.894782421071168501E+05
    0.945991348743724370E+00    0.359522861379376169E+00    0.338228265982090881E+00   -0.112061944892098033E+02    0.816932014854040656E+00    0.894782782459548907E+05
    0.805818342858115599E-01    0.372774956400657276E+00    0.355387038453459592E+00   -0.113260327601439048E+02    0.218419528581166866E+00    0.894782837132914574E+05
   -0.293563538460552387E+00    0.391037575014285987E+00    0.363371962496915724E+00   -0.112954897486386283E+02    0.407910295049936589E+00    0.894782894470914034E+05
   -0.462856703123427859E+00    0.142130037868557768E+00    0.624125818466010118E+00   -0.112257695313512844E+02    0.821525566656150952E+00    0.894783120735807752E+05
    0.102009463892459706E+01    0.354466667873798269E+00    0.327796258843771948E+00   -0.112428725834954477E+02    0.555912625987961428E+00    0.894783354816907085E+05
    0.103774956136048324E+01    0.187030988589758640E+00    0.674996695359140531E+00   -0.113493140511765684E+02    0.214481118255647807E+00    0.894783577960936236E+05
   -0.300330214653122596E+00    0.158402461972146857E+00    0.637981121499995973E+00   -0.112342828089650038E+02    0.483350701094816093E+00    0.894783799893452669E+05
   -0.300330214653122596E+00    0.158402461972146857E+00    0.637981121499995973E+00   -0.112342828089650038E+02    0.483350701094816093E+00    0.894783799893452669E+05
    0.148571211990527718E+01    0.195551664852161966E+00    0.683826415462761572E+00   -0.113460172428904276E+02    0.368988296391000059E+00    0.894784010416145320E+05
    0.148571211990527718E+01    0.195551664852161966E+00    0.683826415462761572E+00   -0.113460172428904276E+02    0.368988296391000059E+00    0.894784010416145320E+05
   -0.522416038998196886E+00    0.128954710308240683E+00    0.622769986796159802E+00   -0.112006593242540990E+02    0.614648916047918159E+00    0.894784027805397491E+05
    0.262577165184901595E+00    0.368458023334506224E+00    0.347902247069614590E+00   -0.113524659078461205E+02    0.232934210101251565E+00    0.894784087430920918E+05
    0.262577165184901595E+00    0.368458023334506224E+00    0.347902247069614590E+00   -0.113524659078461205E+02    0.232934210101251565E+00    0.894784087430920918E+05
   -0.243926592573787904E+00    0.391136555585639811E+00    0.371451692187526161E+00   -0.112298944953135056E+02    0.670359132443599792E+00    0.894784214280465094E+05
    0.760962702978071004E+00    0.172848489503895308E+00    0.657206268872259525E+00   -0.113605394749231188E+02    0.422437470108809388E+00    0.894785257709283615E+05
    0.760962702978071004E+00    0.172848489503895308E+00    0.657206268872259525E+00   -0.113605394749231188E+02    0.422437470108809388E+00    0.894785257709283615E+05
    0.221821857448932125E+00    0.379868327636132763E+00    0.356566537350323232E+00   -0.113087920685657917E+02    0.534631338374653931E+00    0.894785276402464078E+05
    0.705450644874730859E+00    0.360784161223775268E+00    0.339446442065142295E+00   -0.113581553711599916E+02    0.369490594826479724E+00    0.894785420690635219E+05
    0.195079369158141347E+01    0.200111939750180184E+00    0.694718175169627417E+00   -0.112547993989674904E+02    0.665415733589391212E+00    0.894785465644010110E+05
   -0.434456015556297093E+00    0.401631836951604537E+00    0.372334593991948959E+00   -0.112777698103571495E+02    0.674210326366351587E+00    0.894785493182604259E+05
    0.432663509024972637E+01    0.328715461855197233E+00    0.281806818424700289E+00   -0.113053316415275678E+02    0.496857897527814174E+00    0.894785760584017262E+05
    0.995881530157915584E+00    0.361374935339982217E+00    0.336527403788776047E+00   -0.112957666443392775E+02    0.606344449269232477E+00    0.894786186606458505E+05
    0.995881530157915584E+00    0.361374935339982217E+00    0.336527403788776047E+00   -0.112957666443392775E+02    0.606344449269232477E+00    0.894786186606458505E+05
    0.122350947863733328E+01    0.352121906422387165E+00    0.325422623607736661E+00   -0.112117157283382838E+02    0.608674527404581722E+00    0.894786784885534435E+05
    0.155030171549396290E+01    0.342871868753232001E+00    0.322712303130937350E+00   -0.112679215656057963E+02    0.655894653695838881E+00    0.894787539108328056E+05
    0.155030171549396290E+01    0.342871868753232001E+00    0.322712303130937350E+00   -0.112679215656057963E+02    0.655894653695838881E+00    0.894787539108328056E+05
    0.257446440081648209E+01    0.200367743200197540E+00    0.692924567064667318E+00   -0.112871306205334641E+02    0.599180376914360879E+00    0.894787918525382993E+05
    0.257446440081648209E+01    0.200367743200197540E+00    0.692924567064667318E+00   -0.112871306205334641E+02    0.599180376914360879E+00    0.894787918525382993E+05
    0.481335063637741811E+00    0.166841861975070616E+00    0.650001564256230346E+00   -0.112946233959971369E+02    0.527710260493298500E+00    0.894788588069041143E+05
    0.481335063637741811E+00    0.166841861975070616E+00    0.650001564256230346E+00   -0.112946233959971369E+02    0.527710260493298500E+00    0.894788588069041143E+05
    0.151597225668528512E+00    0.178128169593842256E+00    0.654262761778293345E+00   -0.112620962454394693E+02    0.399350725540254081E+00    0.894788750232816092E+05
    0.151597225668528512E+00    0.178128169593842256E+00    0.654262761778293345E+00   -0.112620962454394693E+02    0.399350725540254081E+00    0.894788750232816092E+05
   -0.212487534088887209E+00    0.157412540254588923E+00    0.640546532154148363E+00   -0.113385645783931945E+02    0.530481226306419362E+00    0.894788761952891073E+05
   -0.212487534088887209E+00    0.157412540254588923E+00    0.640546532154148363E+00   -0.113385645783931945E+02    0.530481226306419362E+00    0.894788761952891073E+05
    0.165507333357036490E+01    0.341936611358201581E+00    0.315604233104458065E+00   -0.113333205933365484E+02    0.358819449630305543E+00    0.894788834172692150E+05
    0.165507333357036490E+01    0.341936611358201581E+00    0.315604233104458065E+00   -0.113333205933365484E+02    0.358819449630305543E+00    0.894788834172692150E+05
    0.348091850883843090E+00    0.374787063142785537E+00    0.354825916381553030E+00   -0.112989472677034790E+02    0.542754873128658999E+00    0.894788926874011522E+05
    0.348091850883843090E+00    0.374787063142785537E+00    0.354825916381553030E+00   -0.112989472677034790E+02    0.542754873128658999E+00    0.894788926874011522E+05
    0.645691029832625052E+00    0.360514505872102931E+00    0.342438468584761235E+00   -0.112232052563895088E+02    0.610365338825678450E+00    0.894789052732689888E+05
    0.645691029832625052E+00    0.360514505872102931E+00    0.342438468584761235E+00   -0.112232052563895088E+02    0.610365338825678450E+00    0.894789052732689888E+05
    0.176595573843564058E+00    0.374487873452179432E+00    0.354816800964507406E+00   -0.112973861180657078E+02    0.808366423265637568E+00    0.894789069049514655E+05
    0.162836267145947211E+01    0.183493775355902583E+00    0.675488928297116820E+00   -0.112488187457952620E+02    0.542610254615099707E+00    0.894789072079771431E+05
    0.159979692788413974E+01    0.188827116687443286E+00    0.674527162870754760E+00   -0.112479334208992601E+02    0.854259416555979811E+00    0.894789435443619150E+05
    0.159979692788413974E+01    0.188827116687443286E+00    0.674527162870754760E+00   -0.112479334208992601E+02    0.854259416555979811E+00    0.894789435443619150E+05
    0.140558028308045380E+01    0.192891242171958327E+00    0.682249853400227257E+00   -0.113184581444822747E+02    0.335256376301723003E+00    0.894789649626770406E+05
    0.201624251148207989E+01    0.197397524093889998E+00    0.683496779478485084E+00   -0.112637685233110503E+02    0.557678965524402104E+00    0.894789933623739635E+05
   -0.628487002328116162E+00    0.132584154358937972E+00    0.624173993880937417E+00   -0.112963692182597057E+02    0.641231195354592498E+00    0.894790202428220800E+05
   -0.628487002328116162E+00    0.132584154358937972E+00    0.624173993880937417E+00   -0.112963692182597057E+02    0.641231195354592498E+00    0.894790202428220800E+05
   -0.149707634600778405E+00    0.154703334143454441E+00    0.638595095070683128E+00   -0.112306177517127086E+02    0.777627155134847925E+00    0.894790612435565854E+05
   -0.149707634600778405E+00    0.154703334143454441E+00    0.638595095070683128E+00   -0.112306177517127086E+02    0.777627155134847925E+00    0.894790612435565854E+05
    0.516887228807531240E+00    0.172937831865173641E+00    0.659196511935446150E+00   -0.113197370319817932E+02    0.374479541542326433E+00    0.894790806435095728E+05
   -0.862091987520660519E+00    0.126285167278424038E+00    0.612635647926874638E+00   -0.112374010785164629E+02    0.616209635772644759E+00    0.894791214148635918E+05
    0.545584532359518537E+00    0.360250681209739132E+00    0.337042473801759723E+00   -0.112571934372049292E+02    0.762112901641401441E+00    0.894791586936356616E+05
    0.545584532359518537E+00    0.360250681209739132E+00    0.337042473801759723E+00   -0.112571934372049292E+02    0.762112901641401441E+00    0.894791586936356616E+05
    0.610082862788528857E+00    0.361727908198669512E+00    0.337741035959492286E+00   -0.113291422837081548E+02    0.623593907521807100E+00    0.894791751942835399E+05
    0.610082862788528857E+00    0.361727908198669512E+00    0.337741035959492286E+00   -0.113291422837081548E+02    0.623593907521807100E+00    0.894791751942835399E+05
    0.242036932871435884E+01    0.333804376003075998E+00    0.306367969522913230E+00   -0.112851477836892862E+02    0.498148664422972287E+00    0.894791836413969286E+05
    0.220295488356814140E+01    0.192769448197461862E+00    0.692686681432651996E+00   -0.113197660857891975E+02    0.563567374727619863E+00    0.894792144857328385E+05
   -0.211077456855256695E+00    0.373702150066170746E+00    0.361211202968537148E+00   -0.113241717134986768E+02    0.332528750805654361E+00    0.894792398449055618E+05
   -0.211077456855256695E+00    0.373702150066170746E+00    0.361211202968537148E+00   -0.113241717134986768E+02    0.332528750805654361E+00    0.894792398449055618E+05
   -0.175704915098437109E+00    0.383585805515977707E+00    0.366227503675407573E+00   -0.112976683447752109E+02    0.730153095727860801E+00    0.894792414660959621E+05
    0.693021627884804037E+00    0.363805808133846609E+00    0.339504936112337674E+00   -0.112269345800786695E+02    0.621607629204647294E+00    0.894792463083128096E+05
    0.167272735908873571E+01    0.346030965883827424E+00    0.322265949101518789E+00   -0.112413383974001935E+02    0.863258990583185115E+00    0.894792752448898973E+05
    0.167272735908873571E+01    0.346030965883827424E+00    0.322265949101518789E+00   -0.112413383974001935E+02    0.863258990583185115E+00    0.894792752448898973E+05
    0.220244026984728336E+00    0.173534869598982677E+00    0.646630746209842622E+00   -0.113002995053532658E+02    0.501874818406388923E+00    0.894793191129029728E+05
    0.271328148925686907E+00    0.370301139907735055E+00    0.351072657556299683E+00   -0.112309090946839056E+02    0.794480835573362465E+00    0.894793819738827005E+05
    0.822327826985417509E+00    0.172878226525375378E+00    0.657725359191231984E+00   -0.112667740303692945E+02    0.706016185804422935E+00    0.894793841024507419E+05
    0.626426075831964191E+00    0.175208162642851162E+00    0.660553462499794519E+00   -0.112132805717533799E+02    0.623000218202983680E+00    0.894793866927511990E+05
    0.626426075831964191E+00    0.175208162642851162E+00    0.660553462499794519E+00   -0.112132805717533799E+02    0.623000218202983680E+00    0.894793866927511990E+05
   -0.517612993514574349E+00    0.145592415239986339E+00    0.629580629723617058E+00   -0.113287438915497667E+02    0.385754878172572035E+00    0.894794064555446093E+05
   -0.457475595864935691E-01    0.383883014414284796E+00    0.365125284132444272E+00   -0.113424915582163717E+02    0.380449702492687059E+00    0.894794123009086761E+05
    0.731336375098959657E+00    0.360807217846324968E+00    0.339401997165957037E+00   -0.113057001288450163E+02    0.337855541605996290E+00    0.894794200976800639E+05
    0.178767476367168054E+01    0.192427238204290862E+00    0.681006870585058488E+00   -0.112781676686959909E+02    0.472157204819812604E+00    0.894794273350560106E+05
    0.178767476367168054E+01    0.192427238204290862E+00    0.681006870585058488E+00   -0.112781676686959909E+02    0.472157204819812604E+00    0.894794273350560106E+05
    0.755555666966922779E-01    0.372455875097458033E+00    0.355179811855556749E+00   -0.112769907860993861E+02    0.691025957667596780E+00    0.894794302286060411E+05
    0.755555666966922779E-01    0.372455875097458033E+00    0.355179811855556749E+00   -0.112769907860993861E+02    0.691025957667596780E+00    0.894794302286060411E+05
    0.551719396444866561E+00    0.170962022350752030E+00    0.655904687260304708E+00   -0.113131682173754502E+02    0.304355576528414939E+00    0.894794445042833104E+05
    0.551719396444866561E+00    0.170962022350752030E+00    0.655904687260304708E+00   -0.113131682173754502E+02    0.304355576528414939E+00    0.894794445042833104E+05
    0.742987541392388984E+00    0.177859850688022597E+00    0.657333601471568052E+00   -0.112859936160767820E+02    0.497799255917176331E+00    0.894794599581593648E+05
    0.742987541392388984E+00    0.177859850688022597E+00    0.657333601471568052E+00   -0.112859936160767820E+02    0.497799255917176331E+00    0.894794599581593648E+05
   -0.709427906358463645E+00    0.113141927401919556E+00    0.615042613194008325E+00   -0.112631149058581634E+02    0.693455410883382251E+00    0.894794781315960572E+05
   -0.709427906358463645E+00    0.113141927401919556E+00    0.615042613194008325E+00   -0.112631149058581634E+02    0.693455410883382251E+00    0.894794781315960572E+05
    0.274897690714152176E+01    0.334848555683732174E+00    0.301166343659551694E+00   -0.112531282302142195E+02    0.625950869917774044E+00    0.894795176268166979E+05
    0.274897690714152176E+01    0.334848555683732174E+00    0.301166343659551694E+00   -0.112531282302142195E+02    0.625950869917774044E+00    0.894795176268166979E+05
   -0.604832374546092844E+00    0.397443104351700216E+00    0.377747982728879439E+00   -0.112839918521311660E+02    0.639557067031422788E+00    0.894795179917441565E+05
   -0.369989760538923296E+00    0.144200602470240857E+00    0.632992860612821229E+00   -0.112935579077531774E+02    0.687127389968104407E+00    0.894795256728070963E+05
   -0.212629588868462616E+00    0.395569071631604041E+00    0.371007780205509230E+00   -0.113148819399363063E+02    0.385399186549985839E+00    0.894795308202310407E+05
    0.287466730781526714E+01    0.203467187118200943E+00    0.704944486823551042E+00   -0.112459301725318070E+02    0.749469194005698336E+00    0.894795342722145724E+05
    0.287466730781526714E+01    0.203467187118200943E+00    0.704944486823551042E+00   -0.112459301725318070E+02    0.749469194005698336E+00    0.894795342722145724E+05
    0.548698505734859676E+00    0.174763348654898037E+00    0.658302578764845214E+00   -0.112563863005761746E+02    0.854915486034226291E+00    0.894795636206635972E+05
   -0.221464993150259915E+00    0.382947943248344025E+00    0.363754012455854647E+00   -0.113149253723499772E+02    0.534842221004934615E+00    0.894795666565004212E+05
    0.609426393962783752E+00    0.365247442316806226E+00    0.345848173090129329E+00   -0.112700105770234753E+02    0.705044932823646331E+00    0.894795676545743481E+05
    0.548574101542303794E+00    0.173568614682977074E+00    0.653597298931274384E+00   -0.112324899608187003E+02    0.768297924858745485E+00    0.894795712162567652E+05
    0.548574101542303794E+00    0.173568614682977074E+00    0.653597298931274384E+00   -0.112324899608187003E+02    0.768297924858745485E+00    0.894795712162567652E+05
    0.284427751502017934E+00    0.366160583968841657E+00    0.346440366652146003E+00   -0.112823699433975335E+02    0.457231610450839820E+00    0.894795724287710618E+05
    0.160671900852725980E+01    0.349377792877657689E+00    0.323332723554874746E+00   -0.112172924553093480E+02    0.776202880888821944E+00    0.894795751267029555E+05
   -0.219832526686194463E+00    0.155595535424273679E+00    0.641235438924979140E+00   -0.111974761836755725E+02    0.682646817189655919E+00    0.894795840619171213E+05
   -0.181376729887323229E+00    0.385297235996470033E+00    0.367305488799096191E+00   -0.112653069455640651E+02    0.467616398591276239E+00    0.894796028226447233E+05
   -0.181376729887323229E+00    0.385297235996470033E+00    0.367305488799096191E+00   -0.112653069455640651E+02    0.467616398591276239E+00    0.894796028226447233E+05
   -0.384641236121729513E+00    0.382461110032714990E+00    0.367776524146901151E+00   -0.113320432735608776E+02    0.504738409530126386E+00    0.894796164244636311E+05
    0.645474145661262266E+00    0.180484968083479136E+00    0.664827966677769666E+00   -0.112184744787281971E+02    0.694137772338004555E+00    0.894796410771854571E+05
    0.101818921257289929E+01    0.352829887788571495E+00    0.332154760347348810E+00   -0.112065872858247886E+02    0.777634581296837046E+00    0.894796565326130367E+05
    0.213347414722932616E+00    0.167319086037624964E+00    0.650379682517162605E+00   -0.111840948704043512E+02    0.665823579942129706E+00    0.894796918040096352E+05
    0.213347414722932616E+00    0.167319086037624964E+00    0.650379682517162605E+00   -0.111840948704043512E+02    0.665823579942129706E+00    0.894796918040096352E+05
    0.906387130684976228E+00    0.180766002874113124E+00    0.670949779161477800E+00   -0.113118943650896480E+02    0.497076920011576107E+00    0.894797131727503729E+05
    0.300907922399664063E+01    0.335052341836973133E+00    0.297244519527738948E+00   -0.113151964034951522E+02    0.450192448794675237E+00    0.894797335689424654E+05
    0.100412268179840680E+01    0.184919617895404065E+00    0.674035446626960799E+00   -0.112678332368140275E+02    0.359069638883799724E+00    0.894797528299451224E+05
    0.192869702030334000E+01    0.197231728746001478E+00    0.692050128619721594E+00   -0.112761861432098112E+02    0.700552709905591486E+00    0.894797768621337018E+05
   -0.434349009732775571E+00    0.392315376062603360E+00    0.370890713123411042E+00   -0.112082192783842043E+02    0.685773459802427987E+00    0.894797832333188271E+05
   -0.157118331029595826E+00    0.391854860684054007E+00    0.369053063819193783E+00   -0.113197276319597222E+02    0.486145982775327667E+00    0.894798059180192649E+05
   -0.402833881914630432E+00    0.134201761856540563E+00    0.622016776431607576E+00   -0.112564973198383171E+02    0.741735820938124180E+00    0.894798329898170778E+05
   -0.402833881914630432E+00    0.134201761856540563E+00    0.622016776431607576E+00   -0.112564973198383171E+02    0.741735820938124180E+00    0.894798329898170778E+05
    0.979154949196976432E-01    0.153170648335440251E+00    0.641210388718910562E+00   -0.113020955229125004E+02    0.418641750257588652E+00    0.894798444440847670E+05
    0.130609615679884161E+00    0.369512953463596250E+00    0.354665947888591349E+00   -0.113095429949462893E+02    0.354432654842967376E+00    0.894798698056757567E+05
    0.246297377225192182E+01    0.200294286297421381E+00    0.693857908148358238E+00   -0.112454663091397666E+02    0.748035198415783364E+00    0.894798989376125392E+05
    0.480979219187262608E+00    0.368151861812146874E+00    0.348343680331731798E+00   -0.112724896879186591E+02    0.572961138334080577E+00    0.894799053015952813E+05
    0.480979219187262608E+00    0.368151861812146874E+00    0.348343680331731798E+00   -0.112724896879186591E+02    0.572961138334080577E+00    0.894799053015952813E+05
    0.381429088826997109E+00    0.362795614010578971E+00    0.344670304761153290E+00   -0.112775618370702375E+02    0.618048950795564989E+00    0.894799394631565665E+05
    0.233440344979609105E+01    0.338406500468668714E+00    0.305495757921331268E+00   -0.112493530394917336E+02    0.585886656495335334E+00    0.894800067802034901E+05
    0.996040406026859504E+00    0.177876669026880818E+00    0.665965143384759761E+00   -0.113140122549786390E+02    0.546349306763061704E+00    0.894800155731017003E+05
   -0.352495402602190921E+00    0.142706205148823401E+00    0.625423275946277890E+00   -0.112935057902229925E+02    0.524894380420734885E+00    0.894800205063598987E+05
    0.709765156087776461E+00    0.362472454150631340E+00    0.340695856703828459E+00   -0.112695132313494923E+02    0.480558176369009216E+00    0.894800482520186924E+05
    0.765246665617941968E+00    0.177927687817543118E+00    0.663886099840205302E+00   -0.113034619606638156E+02    0.643446946977750511E+00    0.894800736072689178E+05
    0.798569689042902375E+00    0.355175615421929269E+00    0.334723859328004525E+00   -0.112862027788293933E+02    0.449475272905023537E+00    0.894800875592661323E+05
    0.271007851591710036E+00    0.367980825040262416E+00    0.350760384721799101E+00   -0.113034399106206038E+02    0.520697776861272388E+00    0.894800880974989850E+05
   -0.565771167694002486E+00    0.397307869059718599E+00    0.373539641253172683E+00   -0.112385261858763457E+02    0.591116094543835846E+00    0.894800900490274944E+05
   -0.488062786825031125E+00    0.131335927563759641E+00    0.624027036628863607E+00   -0.112709189206027425E+02    0.443580966334343019E+00    0.894801038850971236E+05
    0.207610175944077380E+00    0.178720303336866171E+00    0.653361853197918840E+00   -0.112692717722970652E+02    0.684648497232290376E+00    0.894801177051920677E+05
    0.115365147835922599E+01    0.180607641917749334E+00    0.668046520964895141E+00   -0.112351715980774252E+02    0.717313056558324780E+00    0.894801240431142505E+05
    0.838415972777832863E-01    0.167330797630442230E+00    0.643620081741521632E+00   -0.112236070533694630E+02    0.744141465416073067E+00    0.894801259365174337E+05
    0.169228222523931215E+01    0.191695865936371473E+00    0.679687332946030565E+00   -0.112612288455924610E+02    0.461263842357715670E+00    0.894801395107094431E+05
    0.855905347135817340E+00    0.357188289820163374E+00    0.333865543091080075E+00   -0.112937261141895764E+02    0.400496435849672316E+00    0.894801499884912046E+05
   -0.170207382508421379E+00    0.154432785630410241E+00    0.632037753501025978E+00   -0.112650848086059234E+02    0.489732614616377460E+00    0.894801521481494419E+05
    0.474683201028326174E+00    0.173416706097080986E+00    0.654777227521017746E+00   -0.112061790100123329E+02    0.767093685308199547E+00    0.894801554362131283E+05
    0.150762843410398251E+00    0.163803931053665475E+00    0.647363511588086582E+00   -0.112763741124463497E+02    0.730546524926493968E+00    0.894801727376827039E+05
    0.407952672188073073E+00    0.362196086301012743E+00    0.344899028494052462E+00   -0.113288966493460759E+02    0.433810747328423507E+00    0.894801810227128444E+05
    0.473604839591650340E+00    0.177811183384858296E+00    0.656302483724487074E+00   -0.111908655845594041E+02    0.766607959941132067E+00    0.894801819493016810E+05
    0.880904623154440181E+00    0.180267456653411595E+00    0.665532158929252882E+00   -0.113106437572842964E+02    0.349995243902307296E+00    0.894801954072262743E+05
    0.880904623154440181E+00    0.180267456653411595E+00    0.665532158929252882E+00   -0.113106437572842964E+02    0.349995243902307296E+00    0.894801954072262743E+05
    0.901070726100030583E+00    0.355120251974640366E+00    0.333004611266110528E+00   -0.112556286200661546E+02    0.568749133844287491E+00    0.894801966108994093E+05
    0.693593575679060326E+00    0.359145880765674275E+00    0.336612442763714437E+00   -0.112451112428964084E+02    0.493168496211005447E+00    0.894802153065610328E+05
    0.590331864294354247E+00    0.171580411987496850E+00    0.655015035895454290E+00   -0.113187856983438984E+02    0.522786790361918552E+00    0.894802331036744872E+05
    0.448968516159727216E+00    0.364044299333646348E+00    0.344463477562219234E+00   -0.112065438326597473E+02    0.512688609058575051E+00    0.894802358203234035E+05
    0.235713131107715412E+00    0.164913395553729913E+00    0.648734714000397839E+00   -0.112237213342374798E+02    0.810694914539460298E+00    0.894802790544714371E+05
    0.154540866355917128E+01    0.189202068144031871E+00    0.679956680474150588E+00   -0.112554147949063665E+02    0.626609560352759942E+00    0.894802797336569056E+05
    0.517927141312013894E+00    0.178755198114984526E+00    0.659125316071012879E+00   -0.112413391191627063E+02    0.614411531699948554E+00    0.894802898082044558E+05
    0.165498489947615290E+00    0.164143195841360834E+00    0.645760417071901238E+00   -0.112049161302046301E+02    0.728216360284677178E+00    0.894802903267521469E+05
    0.974823126816743102E+00    0.353741181901598756E+00    0.331339117855507848E+00   -0.112906857131394105E+02    0.411789601487717039E+00    0.894802977530882345E+05
    0.144491195031719588E+00    0.173977665561700107E+00    0.649166366702614850E+00   -0.112872132650156711E+02    0.605238247092248827E+00    0.894802984250128502E+05
   -0.280619447498364316E+00    0.143740662534353969E+00    0.630637291663139532E+00   -0.113015231126085496E+02    0.488954353748900672E+00    0.894803022333968547E+05
    0.947765322612377670E+00    0.348876514518610681E+00    0.328735574897025096E+00   -0.112896576674111042E+02    0.671318282135605293E+00    0.894803568818708300E+05
    0.423074197768180227E+00    0.170231703495371200E+00    0.654894703838087011E+00   -0.113227625539197785E+02    0.510153391294416503E+00    0.894803600035997224E+05
    0.302690169506306805E+01    0.202729431066427351E+00    0.703527986024369500E+00   -0.112779047677693480E+02    0.642004859542248063E+00    0.894803647843913059E+05
    0.326363047414406804E+00    0.368463178552537629E+00    0.347644115455031211E+00   -0.112500564818206765E+02    0.655166253051602920E+00    0.894803671809771331E+05
    0.113944150324195803E+00    0.369990755465749777E+00    0.350060970699472007E+00   -0.113266129829096975E+02    0.373920166767677364E+00    0.894804017660699901E+05
    0.114350448924987225E+01    0.184878961377549111E+00    0.667866396486325620E+00   -0.113026133440054970E+02    0.600840922401897237E+00    0.894804067627316690E+05
    0.231829323566984424E+01    0.195141683513239295E+00    0.692626940490501553E+00   -0.113222672367724435E+02    0.482034256436517872E+00    0.894804114075990510E+05
   -0.604376809564415751E+00    0.139131225917118323E+00    0.620008496111095209E+00   -0.112456616463839758E+02    0.607783840454031887E+00    0.894804118341931317E+05
    0.499108326029047866E+00    0.167540593177641028E+00    0.652605918055537471E+00   -0.112200647342132278E+02    0.601406876454137596E+00    0.894804120123741450E+05
    0.525153203825899251E+00    0.169659658467534058E+00    0.657026184962147042E+00   -0.112354111141349087E+02    0.669578942553663570E+00    0.894804139543850324E+05
    0.157516102495184729E+01    0.195146669565750885E+00    0.683748627735764725E+00   -0.112481482139736961E+02    0.664289553022954671E+00    0.894804195177890360E+05
    0.516751362637001499E+00    0.171290623845952478E+00    0.652797941374913759E+00   -0.113088144108638762E+02    0.356972770840200349E+00    0.894804357273362111E+05
    0.245690924925384024E+00    0.172354636345342344E+00    0.652162139224190307E+00   -0.112248019876040157E+02    0.684796375097959209E+00    0.894804421026073978E+05
    0.337571609062361944E+00    0.170739528483715208E+00    0.655250665224936579E+00   -0.112899778418123766E+02    0.387571154500233495E+00    0.894804446302166325E+05
    0.494808974901017606E+00    0.365081912803073783E+00    0.343941965416909523E+00   -0.112805102665626293E+02    0.553594749515972429E+00    0.894804571664332179E+05
    0.164786775274442476E+01    0.344989185962514044E+00    0.321180105939046556E+00   -0.112671200931627222E+02    0.491136903836003946E+00    0.894804758273137268E+05
   -0.316750230979558900E-01    0.155814526086834715E+00    0.640584913224562680E+00   -0.112535134868858080E+02    0.623000256172802080E+00    0.894804766776754113E+05
    0.887557423013851654E-01    0.170350701069373278E+00    0.650777095677498418E+00   -0.112644471269213238E+02    0.538513513610181849E+00    0.894805184210209409E+05
    0.340128308019105319E-01    0.375085153180070852E+00    0.356994489525606307E+00   -0.113567146511614077E+02    0.305860228907854248E+00    0.894805403397761984E+05
    0.559111361164400300E+00    0.175479171772918718E+00    0.653118307543271603E+00   -0.113020206119525390E+02    0.499950103330270235E+00    0.894805451005897485E+05
    0.809433211850373979E+00    0.182804393667553550E+00    0.667629789040276478E+00   -0.112712437959889566E+02    0.742665017360183866E+00    0.894805777413696633E+05
   -0.800547642079587618E-01    0.389206750171470550E+00    0.364074666401700053E+00   -0.112702742565013576E+02    0.670989895908203904E+00    0.894805845987767389E+05
    0.210967792259484899E+01    0.192642501207874906E+00    0.683380468880849468E+00   -0.112978882615462091E+02    0.609082495916649425E+00    0.894805908291323576E+05
    0.115154998387096663E+01    0.184588738818742160E+00    0.671192768232678483E+00   -0.113292933041429968E+02    0.471550113192074072E+00    0.894806184923758265E+05
    0.730606067393830827E-01    0.165286038487649445E+00    0.648979345137265629E+00   -0.113306105391846064E+02    0.408150066503051245E+00    0.894806358649769682E+05
    0.468155290179068651E-01    0.371186694861602717E+00    0.356009156730606291E+00   -0.112841134733697483E+02    0.497794645262857549E+00    0.894806487903431989E+05
    0.146375794978014895E+00    0.366885568088896830E+00    0.350879768197231545E+00   -0.113430551917938160E+02    0.401511034797997601E+00    0.894806502102673985E+05
    0.178536056781972263E+00    0.373955306401009380E+00    0.351097637894033476E+00   -0.112846928181388559E+02    0.434902867280294370E+00    0.894806599347265728E+05
    0.113225026817136776E+01    0.180107772303819802E+00    0.666562087206169052E+00   -0.112437472723188474E+02    0.592207150935072146E+00    0.894806839029128896E+05
   -0.362318173577943270E+00    0.144748209268265260E+00    0.630227466792037339E+00   -0.112723426219480487E+02    0.760585690293632988E+00    0.894807053182140517E+05
    0.374355234520692193E+00    0.163021013321073466E+00    0.647087799315889889E+00   -0.112562562906367400E+02    0.613545741393085819E+00    0.894807087342287123E+05
    0.465316439334210852E+00    0.367585531159808854E+00    0.346788121796454130E+00   -0.113124345527843584E+02    0.654522357909380403E+00    0.894807132328699226E+05
    0.216675487110814746E+00    0.159673770895568029E+00    0.649344545329550549E+00   -0.113019083697371165E+02    0.404984907927348647E+00    0.894807213661515270E+05
    0.432045391157574343E+00    0.174748417232906739E+00    0.655393279843839549E+00   -0.112491248594207764E+02    0.633272973080897250E+00    0.894807496077633696E+05
    0.322140678187083029E+00    0.177591588320941657E+00    0.659344075592935175E+00   -0.112760615531204333E+02    0.641042444847178094E+00    0.894808157290142262E+05
   -0.474279179083865188E-01    0.368551041859609851E+00    0.357587965428371179E+00   -0.112744050352654011E+02    0.516389976152191843E+00    0.894808176054404175E+05
   -0.318145241288245728E-01    0.158570014933389403E+00    0.642346289551160021E+00   -0.112491391302572623E+02    0.644958988190661664E+00    0.894808256605345814E+05
    0.242075662084172638E+00    0.158479649575358955E+00    0.646888037303271712E+00   -0.112464689556784183E+02    0.666000592634745869E+00    0.894808562268103997E+05
    0.311851991219797231E+00    0.357795306835302362E+00    0.344202316026729460E+00   -0.112642576003779524E+02    0.562675657860956524E+00    0.894808618317908840E+05
    0.140518636283669540E+01    0.183727477316669746E+00    0.671764343886124049E+00   -0.112599052798015009E+02    0.676229774457737687E+00    0.894808622234311770E+05
    0.351378639310305552E+00    0.172858135231920007E+00    0.653621173071834649E+00   -0.113161675222235409E+02    0.663289267042501351E+00    0.894808692884895136E+05
    0.378164927525617145E+00    0.170291162050717426E+00    0.654012010400567112E+00   -0.112448095866210842E+02    0.398020479314813658E+00    0.894808876154579339E+05
   -0.202783419039462398E+00    0.157774027529155092E+00    0.636399476385039131E+00   -0.112590486914156234E+02    0.633441402668848630E+00    0.894808890926323656E+05
    0.583977812195149326E+00    0.173029120009775217E+00    0.656342427241023207E+00   -0.112455851056210392E+02    0.584597597165160465E+00    0.894809174873567536E+05
    0.659968297794017111E+00    0.364643471433493294E+00    0.346100210944276621E+00   -0.112963579824515179E+02    0.616860384053213417E+00    0.894809956805249676E+05
    0.142658597866464998E+01    0.192871033476702175E+00    0.678501559442596491E+00   -0.112126726014761289E+02    0.751310208421482217E+00    0.894810132964273216E+05
    0.119224749580459921E-01    0.374776032232748246E+00    0.357228111836802920E+00   -0.112684215144487325E+02    0.601105405668181159E+00    0.894810276593357266E+05
   -0.297533819529685939E+00    0.144290546260839231E+00    0.633354477515686520E+00   -0.112293874678638996E+02    0.757662885005299880E+00    0.894810505792798649E+05
    0.570470922508216294E+00    0.176564322968846332E+00    0.658347257977095146E+00   -0.112191444194090977E+02    0.763056901602552684E+00    0.894810697843383532E+05
   -0.670266041622880504E+00    0.130005714780387721E+00    0.617257025225235623E+00   -0.113208262652238254E+02    0.512266682966546316E+00    0.894810830971626419E+05
    0.827481772632120638E+00    0.185976582664172829E+00    0.667754866693607618E+00   -0.112665122872320893E+02    0.568945397490995930E+00    0.894810939901332022E+05
    0.937845887995699456E+00    0.178984987453733979E+00    0.663446872575011226E+00   -0.113306857522467936E+02    0.472900766599022693E+00    0.894811094213949400E+05
   -0.156564632954532268E+00    0.155722007713089972E+00    0.636878605418431110E+00   -0.112936989341574314E+02    0.538015898139427406E+00    0.894811137681819091E+05
    0.114436180022614886E+01    0.187628728339307771E+00    0.674770830034299163E+00   -0.112614366694741168E+02    0.803178556403073007E+00    0.894811178702109028E+05
   -0.527077803096784869E-01    0.380815665469874443E+00    0.360383431681736699E+00   -0.112523214488764509E+02    0.785741496846614984E+00    0.894811318748025806E+05
    0.719868797094186164E+00    0.174555305118229032E+00    0.658122450166291451E+00   -0.112247995536656600E+02    0.830105750938901599E+00    0.894811470217888127E+05
   -0.292301483845462950E+00    0.155334955645725387E+00    0.635749255027532656E+00   -0.113072117165808894E+02    0.426446967179549219E+00    0.894811518751840631E+05
    0.136050226252067397E+01    0.346556383645378163E+00    0.322682729812403035E+00   -0.112397346204197763E+02    0.596626439945867615E+00    0.894811602080917219E+05
    0.509843307637470655E+00    0.358319778347604756E+00    0.336822681772802834E+00   -0.112342251364477903E+02    0.742191462204073726E+00    0.894811703674087767E+05
    0.136226901498768616E+01    0.346597422515382170E+00    0.322825893119910390E+00   -0.112324470971676451E+02    0.674077981129222348E+00    0.894811846579478588E+05
   -0.258300431885082116E+00    0.152223718159004151E+00    0.633312886276011566E+00   -0.112982285474920090E+02    0.489037709248328900E+00    0.894812053796060209E+05
    0.454753161518924198E+00    0.177034498985923355E+00    0.657113691245354792E+00   -0.112685942883830830E+02    0.775335144534425202E+00    0.894812087918410543E+05
    0.139329142703068065E+01    0.183674060422708896E+00    0.676354205306261447E+00   -0.112248340360976488E+02    0.659157761712422352E+00    0.894812263156598201E+05
    0.100330724032195517E+01    0.351756749901984078E+00    0.331304282683969165E+00   -0.112784882190082456E+02    0.564389275242783262E+00    0.894812713102701236E+05
    0.965865552584714848E+00    0.349161918891990553E+00    0.332406867187524380E+00   -0.113005029912356765E+02    0.427445073261865427E+00    0.894812715892361593E+05
   -0.341084248716229776E+00    0.147717504710543068E+00    0.634122616779661641E+00   -0.112712648456837670E+02    0.645016863645286098E+00    0.894812871511748526E+05
    0.244896622888643112E+00    0.159941522172852374E+00    0.646636841110988625E+00   -0.112870638419021212E+02    0.628048780136387097E+00    0.894813887312109582E+05
    0.434431566461193519E+00    0.173360048416361739E+00    0.654688186576576792E+00   -0.112436966513496994E+02    0.549412537717657079E+00    0.894815896498014918E+05
    0.584951233333885767E+00    0.171209335334312818E+00    0.657851304309325702E+00   -0.112883802510829483E+02    0.475255811479146639E+00    0.894814699702870566E+05
    0.795255414609298494E+00    0.177449303736033015E+00    0.662118716969554155E+00   -0.112223948652511467E+02    0.698680945959983646E+00    0.894813838977160049E+05
   -0.590632866485049757E+00    0.119334558611576158E+00    0.616927372482925396E+00   -0.112747822533183957E+02    0.591757574499516270E+00    0.894814432081146806E+05
   -0.334484762314514850E+00    0.136417278328742758E+00    0.626836647860906315E+00   -0.112612399363048734E+02    0.702119580238578012E+00    0.894817619160256872E+05
    0.520405474489712638E+00    0.176450192351130714E+00    0.659597790837465725E+00   -0.112398413885096708E+02    0.615413889126637970E+00    0.894828802926165517E+05
    0.520405474489712638E+00    0.176450192351130714E+00    0.659597790837465725E+00   -0.112398413885096708E+02    0.615413889126637970E+00    0.894828802926165517E+05
    0.520405474489712638E+00    0.176450192351130714E+00    0.659597790837465725E+00   -0.112398413885096708E+02    0.615413889126637970E+00    0.894828802926165517E+05
    0.305937500798224793E+00    0.176895490861202043E+00    0.652912579786325220E+00   -0.112527536734288809E+02    0.572616778778332725E+00    0.894816948950964725E+05
   -0.251380153952891927E+00    0.152705809528997566E+00    0.634008517110163927E+00   -0.112655092202711309E+02    0.544403071500450642E+00    0.894827806517702411E+05
   -0.251380153952891927E+00    0.152705809528997566E+00    0.634008517110163927E+00   -0.112655092202711309E+02    0.544403071500450642E+00    0.894827806517702411E+05
   -0.251380153952891927E+00    0.152705809528997566E+00    0.634008517110163927E+00   -0.112655092202711309E+02    0.544403071500450642E+00    0.894827806517702411E+05
    0.196557850070811124E+01    0.190687227622203692E+00    0.684791597570632349E+00   -0.113218535487604317E+02    0.444399964286358473E+00    0.894813679832767230E+05
    0.508278370399970925E+00    0.178998369050962836E+00    0.657037882312892840E+00   -0.112304836962986485E+02    0.776358892834692949E+00    0.894819999264180660E+05
    0.508278370399970925E+00    0.178998369050962836E+00    0.657037882312892840E+00   -0.112304836962986485E+02    0.776358892834692949E+00    0.894819999264180660E+05
   -0.518183727829112595E+00    0.136241768052469292E+00    0.624035794062765325E+00   -0.112245715410736082E+02    0.582902904359632545E+00    0.894820887599128473E+05
    0.417374753650806340E+00    0.167540096411573636E+00    0.649889096362808116E+00   -0.112473764503970699E+02    0.468433891602606900E+00    0.894817829870017886E+05
    0.121149240542148462E+01    0.182615198650666721E+00    0.669830616021656944E+00   -0.112899976373169544E+02    0.397495128365919381E+00    0.894817337914145901E+05
    0.388329262420730181E-01    0.157911711917764597E+00    0.640561072567069401E+00   -0.112819684050581781E+02    0.434939665718064972E+00    0.894824527892685728E+05
    0.388329262420730181E-01    0.157911711917764597E+00    0.640561072567069401E+00   -0.112819684050581781E+02    0.434939665718064972E+00    0.894824527892685728E+05
   -0.739332756581316364E+00    0.121132438252525856E+00    0.616445271043932319E+00   -0.112375994306642895E+02    0.711082754153964491E+00    0.894813422843159788E+05
    0.366222968242452485E+00    0.176767795817318746E+00    0.653032626150148454E+00   -0.112794812500068051E+02    0.501347495613775118E+00    0.894823845018530847E+05
    0.366222968242452485E+00    0.176767795817318746E+00    0.653032626150148454E+00   -0.112794812500068051E+02    0.501347495613775118E+00    0.894823845018530847E+05
    0.153486998104559902E+01    0.188142489835418675E+00    0.678199575017029987E+00   -0.113040656331707208E+02    0.394112456223808971E+00    0.894817619963177713E+05
   -0.478560556037948004E-01    0.163211001820500523E+00    0.642047539940740486E+00   -0.112431634459995351E+02    0.551335212213601045E+00    0.894821689810146636E+05
    0.202065485975113646E+00    0.170376849667682406E+00    0.646436820622762864E+00   -0.112668346463653766E+02    0.544921510131730957E+00    0.894818621983496123E+05
    0.109966532508837922E+00    0.163179140846204052E+00    0.643924902650356068E+00   -0.112882267519545838E+02    0.356785958742806608E+00    0.894813161035030789E+05
    0.364068397420451273E+00    0.173231812892286785E+00    0.654619723025087197E+00   -0.112577065046006748E+02    0.564325246680953851E+00    0.894822245044352603E+05
    0.364068397420451273E+00    0.173231812892286785E+00    0.654619723025087197E+00   -0.112577065046006748E+02    0.564325246680953851E+00    0.894822245044352603E+05
    0.812982814204648907E+00    0.180503368728229197E+00    0.665502443957125767E+00   -0.112346235571319859E+02    0.715410658647867459E+00    0.894815092954452266E+05
    0.801219374260300654E+00    0.178154650726684127E+00    0.662001303716915679E+00   -0.112408633906591628E+02    0.597320981216564739E+00    0.894816257612085901E+05
   -0.149835902460599524E+00    0.157428958522344342E+00    0.637199859486544007E+00   -0.112581761033295340E+02    0.572179207882090868E+00    0.894814422676817630E+05
    0.184781089172743940E+00    0.165173147711259682E+00    0.647890962073015553E+00   -0.112658633976959131E+02    0.639429667785599509E+00    0.894817348125372373E+05
    0.563210718113125619E+00    0.170029529709677274E+00    0.658716806540326716E+00   -0.112601811952287569E+02    0.601188605965350176E+00    0.894824322242267081E+05
    0.563210718113125619E+00    0.170029529709677274E+00    0.658716806540326716E+00   -0.112601811952287569E+02    0.601188605965350176E+00    0.894824322242267081E+05
    0.177369760400466081E+01    0.192657396328231201E+00    0.681436771377487815E+00   -0.113224837262328233E+02    0.485299485610748205E+00    0.894820493937058491E+05
    0.131995075764136427E+01    0.187408330059902511E+00    0.674330910277683326E+00   -0.112642131849894547E+02    0.360846494053503941E+00    0.894814714333356824E+05
    0.116317849758726499E+00    0.366859729286087288E+00    0.349313712487390293E+00   -0.112400907965314314E+02    0.682428556054934465E+00    0.894818167785920086E+05
   -0.417564973865744982E-01    0.375746641509598023E+00    0.358527165710214535E+00   -0.112954313654096659E+02    0.408961423505694865E+00    0.894816668955905479E+05
   -0.832312871080191918E-01    0.378020148894174512E+00    0.362685431626392663E+00   -0.112931637017898758E+02    0.388047356537584431E+00    0.894819097899117041E+05
    0.309100131013708701E+00    0.368750346381015504E+00    0.348102757308832444E+00   -0.112874360633922208E+02    0.443366347066436128E+00    0.894816065031347680E+05
    0.394417681585530921E+00    0.367268838768713080E+00    0.346273678439960653E+00   -0.112402523419938749E+02    0.495932963043298258E+00    0.894822719854721217E+05
    0.394417681585530921E+00    0.367268838768713080E+00    0.346273678439960653E+00   -0.112402523419938749E+02    0.495932963043298258E+00    0.894822719854721217E+05
    0.441695477816977267E+00    0.363175140223022885E+00    0.344734827551342216E+00   -0.112110997626593552E+02    0.620717583411811935E+00    0.894813761173987878E+05
    0.567233546730973703E+00    0.362677865939426414E+00    0.342567924745916796E+00   -0.112025917344596913E+02    0.687876558581654862E+00    0.894814614181219949E+05
   -0.515370189316016969E+00    0.397877922872326706E+00    0.375569048218399426E+00   -0.112556562413814714E+02    0.699314138029380583E+00    0.894818114205122693E+05
    0.156210465050588887E+01    0.344893463457665472E+00    0.318309851374912300E+00   -0.112305438564724795E+02    0.721542957404838869E+00    0.894818111915428890E+05
    0.237878512628596717E+00    0.374477946382247628E+00    0.354321019398154524E+00   -0.112831851206276088E+02    0.666917138255250785E+00    0.894815467739308369E+05
    0.746364534879667474E+00    0.362496756331818881E+00    0.337455681698193843E+00   -0.113007338384190437E+02    0.506618221518828515E+00    0.894814191397131654E+05
    0.293171082509459335E+00    0.377228367925170172E+00    0.353101332460463824E+00   -0.112687125926218581E+02    0.535092972293504054E+00    0.894818901636561786E+05
