    0.156456834396559952E+01    0.194105343470458103E+00    0.681981482494803282E+00   -0.114377087413986374E+02    0.295307155667321131E+00    0.894542914270347683E+05
   -0.499895045107334290E+00    0.144347989863349346E+00    0.637159290722448368E+00   -0.113130553422452014E+02    0.388691893096426822E+00    0.894547911177904462E+05
    0.103056537183615227E+02    0.225317472143219677E+00    0.763676561084533412E+00   -0.113107727062264516E+02    0.463791597297584790E+00    0.894557589643462561E+05
   -0.457948516964357122E+00    0.150084254061127464E+00    0.630512507870955030E+00   -0.112493899643719057E+02    0.258583990991417878E+00    0.894573392138597264E+05
    0.218218664880538959E+01    0.193345741288153461E+00    0.682762119558567360E+00   -0.112005706739554416E+02    0.882186955029436115E+00    0.894573676019700360E+05
    0.419175479071638435E+01    0.209065054109709547E+00    0.716456844473495558E+00   -0.113134529805488029E+02    0.224559701267190659E+00    0.894578024545441149E+05
    0.188128667511779479E+01    0.195422631112543377E+00    0.696071122546954357E+00   -0.112611597773368004E+02    0.512279040254906781E+00    0.894578366903369897E+05
    0.196214394922866742E+01    0.348456919615370397E+00    0.322310032503965116E+00   -0.112662264096007743E+02    0.391505995028658904E+00    0.894581385002659517E+05
   -0.416674990807522683E+00    0.131033683513585408E+00    0.620464284346120998E+00   -0.113740939561008449E+02    0.418488923760542753E+00    0.894581445673239505E+05
    0.426695961798927748E+01    0.327869227408570441E+00    0.276824148569742523E+00   -0.113552338813657236E+02    0.404284453966954893E+00    0.894582317207698943E+05
    0.478896987015976627E+01    0.324989985997104380E+00    0.269440632268858948E+00   -0.112885949490188917E+02    0.432691483603315108E+00    0.894582455242034048E+05
    0.246075308709533935E+01    0.192709193203958767E+00    0.685535779246429389E+00   -0.112732563591097161E+02    0.620938010382630190E+00    0.894585767292316305E+05
    0.159022657609637896E+01    0.354446728308580983E+00    0.324212432071525392E+00   -0.113387802958530148E+02    0.583504390755729574E+00    0.894587332755408715E+05
   -0.842997258393493931E+00    0.409952044180502906E+00    0.384411186870357413E+00   -0.112959054366545519E+02    0.350266098770658674E+00    0.894588025881027424E+05
    0.820274740390707358E-01    0.156260338698759577E+00    0.644278390592998740E+00   -0.113775208128631338E+02    0.193226880507887222E+00    0.894588424212461105E+05
   -0.371278847052426197E+00    0.398679891161444533E+00    0.371589837764601694E+00   -0.113066510151243449E+02    0.227104758447587818E+00    0.894590021722735837E+05
    0.500888178421503216E+01    0.214378955780493263E+00    0.731655450181282752E+00   -0.112700275732435156E+02    0.559677286126616602E+00    0.894592230364979478E+05
    0.133773050992312381E+01    0.351824561298080984E+00    0.328342238108618401E+00   -0.112952908446097560E+02    0.795157907073037462E+00    0.894593685464345617E+05
    0.196448329613421802E+01    0.189343348432309100E+00    0.681754616513932321E+00   -0.112135023501510371E+02    0.868628806353427874E+00    0.894594027013008017E+05
    0.147873712369894150E+01    0.349353239899620416E+00    0.322398285792684203E+00   -0.113508839108138133E+02    0.158672324014192706E+00    0.894594678476466215E+05
    0.471770656875699856E+01    0.324176540789813006E+00    0.275593472801188455E+00   -0.112373712693757017E+02    0.670571443998599581E+00    0.894595104860409629E+05
   -0.685345381082991256E+00    0.417768881399121772E+00    0.381968411601441349E+00   -0.112232485768813426E+02    0.606773948860853451E+00    0.894595722380310472E+05
   -0.264542091653881872E+00    0.398864547065619579E+00    0.371865377712711276E+00   -0.112374719873528957E+02    0.454268079386501933E+00    0.894596486138967448E+05
    0.838741766645263898E+00    0.368712952347606815E+00    0.345559860151792797E+00   -0.112841761077358083E+02    0.567730070534511966E+00    0.894596581854964024E+05
    0.207633808305598855E+00    0.156416891359434151E+00    0.643284906001160284E+00   -0.113726584608060914E+02    0.432399119603333548E+00    0.894596857755257224E+05
    0.746362966679711803E+00    0.184665346223400639E+00    0.669024169318510831E+00   -0.113440016799176142E+02    0.234519652550466196E+00    0.894597275435320917E+05
    0.358265014133377147E+01    0.208307797064671979E+00    0.716610136607074288E+00   -0.112451849307122327E+02    0.685396225056649433E+00    0.894597487274588784E+05
   -0.958596901111756772E-01    0.369770608952422197E+00    0.350645809808817766E+00   -0.112625810419354639E+02    0.596957245771364553E+00    0.894597642953644681E+05
   -0.864890966024874697E+00    0.420387094740024891E+00    0.388915527911456227E+00   -0.112874333023945344E+02    0.656902036841899739E+00    0.894597720579512388E+05
    0.141547825217080092E+00    0.383896121140811009E+00    0.355717423180038128E+00   -0.112567443323937635E+02    0.462772162948248800E+00    0.894597723212252895E+05
   -0.906089215016209870E+00    0.429205406648000554E+00    0.391903012811898099E+00   -0.112807606929134394E+02    0.471390472370480873E+00    0.894598580751894042E+05
   -0.456467120785928326E+00    0.138366360415734052E+00    0.630890016403293230E+00   -0.112309964661415496E+02    0.764476346539962437E+00    0.894598654637714208E+05
   -0.783928475360265775E+00    0.128399922354195395E+00    0.611997107676132801E+00   -0.112463558496707243E+02    0.699860140019911592E+00    0.894599162844624807E+05
   -0.100019491523004933E+01    0.943002848999984350E-01    0.604660231525311564E+00   -0.113035060938179992E+02    0.423183539365708072E+00    0.894600311241938180E+05
    0.263122090131454556E+01    0.199917088942924509E+00    0.693041512498106638E+00   -0.112830845692748856E+02    0.675207430868073999E+00    0.894600930473561748E+05
    0.135732484511401363E+01    0.178901375102739568E+00    0.674089240793641409E+00   -0.112702891026602803E+02    0.585918676442297892E+00    0.894602297754707979E+05
    0.234133536693985178E+00    0.152268855778681017E+00    0.639361004478227524E+00   -0.112845485909580354E+02    0.625296090952493833E+00    0.894602344006856147E+05
    0.125534527602261470E+01    0.187506019945001101E+00    0.673751182638207435E+00   -0.113839606606052826E+02    0.377613638383715589E+00    0.894602458004514920E+05
    0.416182684765229816E+01    0.210545753420517789E+00    0.718762801901473902E+00   -0.113180939392228197E+02    0.425700916709767951E+00    0.894603640522683272E+05
   -0.370473538317475093E+00    0.141945375224705600E+00    0.625996995368368725E+00   -0.112645144278733831E+02    0.327696185939915563E+00    0.894604395446370763E+05
   -0.756508303132168880E+00    0.103901292953207144E+00    0.610627834479091525E+00   -0.112902508754703579E+02    0.427171930448162540E+00    0.894604408154675475E+05
    0.280492760546146958E+01    0.203321991895812459E+00    0.702519994477265985E+00   -0.112907148526978389E+02    0.703289696269108311E+00    0.894605235403780243E+05
   -0.556025634688505743E+00    0.147062101294102021E+00    0.624347672892565653E+00   -0.112161870969063990E+02    0.772046707063309245E+00    0.894605746514189523E+05
    0.402898076412121320E+01    0.326763423961096033E+00    0.280455172982783107E+00   -0.112814026352150076E+02    0.563908093341533245E+00    0.894606054818802513E+05
    0.256734986575525959E+00    0.157812054010708080E+00    0.645695591745956810E+00   -0.113394544313327845E+02    0.264351553628263014E+00    0.894606303097674972E+05
    0.236891947643715017E+00    0.378559026039176294E+00    0.357324405519420352E+00   -0.113144789021599728E+02    0.631564642014978750E+00    0.894606526411007217E+05
    0.941840495794123989E+00    0.356448394297803062E+00    0.339101302229294965E+00   -0.113243973536944402E+02    0.564451046194157646E+00    0.894606736422744580E+05
    0.941840495794123989E+00    0.356448394297803062E+00    0.339101302229294965E+00   -0.113243973536944402E+02    0.564451046194157646E+00    0.894606736422744580E+05
    0.624374478785698184E+00    0.181859131584658579E+00    0.665929153421289000E+00   -0.112098172160213476E+02    0.604316381457910223E+00    0.894606966807120480E+05
    0.143577043045727404E+01    0.187185617541493210E+00    0.673772230459112720E+00   -0.111875707908538065E+02    0.783739784079829138E+00    0.894606973168223631E+05
    0.305542428920225095E+00    0.365507586387411709E+00    0.345650076711694898E+00   -0.113624326131386493E+02    0.436455784548285763E+00    0.894607278657565475E+05
   -0.290244457758605190E+00    0.146017780874084568E+00    0.627927859556135948E+00   -0.112917363416920953E+02    0.746626216040772284E+00    0.894607652269736864E+05
    0.194158845354381171E+01    0.200819246533472440E+00    0.691558423918809950E+00   -0.112844888231290064E+02    0.534633849610052003E+00    0.894607992942435085E+05
    0.194158845354381171E+01    0.200819246533472440E+00    0.691558423918809950E+00   -0.112844888231290064E+02    0.534633849610052003E+00    0.894607992942435085E+05
    0.793829882804598430E+00    0.179067572249128337E+00    0.656876558339443362E+00   -0.112588969996220492E+02    0.697485692397872947E+00    0.894608092911511776E+05
   -0.137375796489651147E+00    0.149327696968356183E+00    0.638221349926528347E+00   -0.112037720721064336E+02    0.818034689499891776E+00    0.894608210172545223E+05
   -0.188321371905313395E+00    0.157932951496277396E+00    0.639899522567121570E+00   -0.112675862078526237E+02    0.821681455132023175E+00    0.894608482994401420E+05
    0.170416360023735347E+01    0.184694090979675929E+00    0.677115732031993711E+00   -0.112963312202235944E+02    0.640866432408222497E+00    0.894609222551865387E+05
   -0.256647349892250354E+00    0.382546296839775646E+00    0.369136276429900989E+00   -0.112505729486052726E+02    0.482479915073962706E+00    0.894609239262142510E+05
    0.178383576743590666E+01    0.186110870885696333E+00    0.682544619834412725E+00   -0.113196199715984704E+02    0.485823748677671308E+00    0.894609345922409557E+05
    0.377259654031837588E+00    0.376957236416371577E+00    0.352419286745610183E+00   -0.112290017511761793E+02    0.686752484395821927E+00    0.894609473444528121E+05
    0.145208755222066443E+01    0.346496894167748815E+00    0.322560869617399382E+00   -0.112024850256823694E+02    0.831406716560080805E+00    0.894609529224036960E+05
    0.862816767038339094E+00    0.360822842875225591E+00    0.337754709684968457E+00   -0.112623004443231682E+02    0.811815345001549615E+00    0.894609937534167548E+05
    0.843120584974180076E+00    0.356275063707584105E+00    0.335537224805422529E+00   -0.112610560483582205E+02    0.834201351558669923E+00    0.894610067945385817E+05
    0.320272641692969451E+01    0.202100173327921739E+00    0.706094765680180814E+00   -0.112416698874487011E+02    0.644171781410947331E+00    0.894610541739885230E+05
    0.139785480453898181E+01    0.186026694101390444E+00    0.674951082194473528E+00   -0.112263481850836424E+02    0.463564193670681524E+00    0.894610755301205209E+05
    0.139785480453898181E+01    0.186026694101390444E+00    0.674951082194473528E+00   -0.112263481850836424E+02    0.463564193670681524E+00    0.894610755301205209E+05
   -0.508654719895947682E+00    0.146785312415479929E+00    0.629723036447986773E+00   -0.113400501139438941E+02    0.394675423412144177E+00    0.894610791367589845E+05
    0.243890968175180145E+01    0.342927993982717894E+00    0.310233924344501200E+00   -0.112677284667132547E+02    0.505149998680328949E+00    0.894611181718909647E+05
    0.184226597976694073E+01    0.195122840789396401E+00    0.689745605093098790E+00   -0.112640821259373993E+02    0.747877967048760528E+00    0.894611278456849395E+05
    0.184226597976694073E+01    0.195122840789396401E+00    0.689745605093098790E+00   -0.112640821259373993E+02    0.747877967048760528E+00    0.894611278456849395E+05
    0.216924438470635739E+01    0.342140663405181789E+00    0.313373567261617969E+00   -0.113308071936852972E+02    0.335987836088885272E+00    0.894611507291946909E+05
   -0.171903232497579772E+00    0.376239612491369835E+00    0.356621136058281996E+00   -0.113084779909390853E+02    0.510512570010339339E+00    0.894611938889192534E+05
   -0.731279854865765522E+00    0.121044528333695792E+00    0.612765245880369847E+00   -0.113234393199050380E+02    0.442675112870629717E+00    0.894611969662895135E+05
   -0.731279854865765522E+00    0.121044528333695792E+00    0.612765245880369847E+00   -0.113234393199050380E+02    0.442675112870629717E+00    0.894611969662895135E+05
    0.138716812225689967E+01    0.194487822035826291E+00    0.679919720183267962E+00   -0.112556873578887711E+02    0.500715821091153757E+00    0.894612039129735786E+05
    0.201617351108689569E+01    0.338776766155143128E+00    0.310548590490716370E+00   -0.113047875170921017E+02    0.354597449253801766E+00    0.894613022433030419E+05
   -0.107786231245034170E+00    0.384173957131260679E+00    0.367749171632795191E+00   -0.112583405165957888E+02    0.683689826726474381E+00    0.894613288565195689E+05
    0.756003510181667338E+00    0.363105981683947421E+00    0.341014307601911648E+00   -0.112938110883060379E+02    0.721657858416866471E+00    0.894613653148043086E+05
    0.134024712682764857E+01    0.183602400251754561E+00    0.675702987381033959E+00   -0.113297943635348872E+02    0.298762851249001260E+00    0.894613702740066219E+05
   -0.505344307763957890E+00    0.390894783239127297E+00    0.370440190159250338E+00   -0.112493168663621681E+02    0.659504573110153647E+00    0.894613908236150746E+05
    0.183692211379067771E+01    0.193618750281891794E+00    0.683792615195402353E+00   -0.112902697322396577E+02    0.320305432561598435E+00    0.894614095362735097E+05
    0.451743535418687170E+00    0.163861670792321168E+00    0.653079217697115855E+00   -0.113034202801772068E+02    0.624552549721015815E+00    0.894614281866091478E+05
    0.451743535418687170E+00    0.163861670792321168E+00    0.653079217697115855E+00   -0.113034202801772068E+02    0.624552549721015815E+00    0.894614281866091478E+05
    0.283512488624444892E+00    0.372760061423883737E+00    0.352789583839297316E+00   -0.111943974901986181E+02    0.704395537811588923E+00    0.894614393748310977E+05
    0.192752671628935079E+01    0.189788968027269689E+00    0.684514543267013886E+00   -0.113377274809174082E+02    0.340606895215193106E+00    0.894614726606618497E+05
   -0.651126170453766751E+00    0.122505074289813026E+00    0.616587497292128139E+00   -0.112195166128253003E+02    0.608301685145913984E+00    0.894615005823209067E+05
    0.120631925129880768E+01    0.349917380558912139E+00    0.329854513656006376E+00   -0.112738708728688604E+02    0.728246635961847022E+00    0.894615206807304057E+05
   -0.481205766042711591E+00    0.395663972404162789E+00    0.374662911861720627E+00   -0.112435821273147223E+02    0.763251891616737677E+00    0.894615304363724426E+05
   -0.481205766042711591E+00    0.395663972404162789E+00    0.374662911861720627E+00   -0.112435821273147223E+02    0.763251891616737677E+00    0.894615304363724426E+05
    0.105930284174554057E+01    0.189384006112947256E+00    0.670095403685776470E+00   -0.112385731688011710E+02    0.696604913694360284E+00    0.894615481282337569E+05
    0.147955386843693670E+01    0.342493798848131747E+00    0.315138468076886502E+00   -0.112826461346486102E+02    0.544164391111083168E+00    0.894615504301775363E+05
   -0.778377504575376022E+00    0.111942632495755007E+00    0.611943765625517333E+00   -0.112522123422648868E+02    0.539850497990640221E+00    0.894615636295424920E+05
    0.923711969545994993E+00    0.178564177385275080E+00    0.665917151113474048E+00   -0.111926214413268514E+02    0.726691635948551351E+00    0.894615711240324308E+05
    0.810383550928147400E+00    0.176579426596125272E+00    0.662641312243851033E+00   -0.111999297412763870E+02    0.851536032777454932E+00    0.894616100232115132E+05
    0.185518456643245511E+01    0.340356710108852045E+00    0.316134472451259307E+00   -0.112649763039624062E+02    0.617825106930890433E+00    0.894616173359547975E+05
    0.324990076450977128E+01    0.204956992253773895E+00    0.706914786960118890E+00   -0.112682653772967321E+02    0.610102022293983026E+00    0.894616233552174526E+05
    0.647210987696158924E+00    0.358747347581831244E+00    0.343603064607060582E+00   -0.112368303207419977E+02    0.557294226881178023E+00    0.894616233666383196E+05
    0.239550670351709805E+01    0.335970980107495654E+00    0.302185304805583588E+00   -0.113189489289902703E+02    0.424627104938693489E+00    0.894616504488796927E+05
    0.107680667127692287E+01    0.190627469129679344E+00    0.672262943237327160E+00   -0.112793688807073984E+02    0.621512967380901893E+00    0.894616815321826143E+05
    0.159135212965926343E+01    0.191181170944522583E+00    0.676950522000594690E+00   -0.113277581644385030E+02    0.367404192042810829E+00    0.894617047294775257E+05
    0.230175137566593779E+01    0.343099410852866937E+00    0.307996276750073295E+00   -0.112636200837936933E+02    0.612333088787947899E+00    0.894617426870218478E+05
   -0.317861670242812977E+00    0.149844700028111094E+00    0.628031944680649934E+00   -0.113089063960254315E+02    0.570475605065751457E+00    0.894617844547109562E+05
   -0.317861670242812977E+00    0.149844700028111094E+00    0.628031944680649934E+00   -0.113089063960254315E+02    0.570475605065751457E+00    0.894617844547109562E+05
   -0.279914256758638569E+00    0.148957186446255108E+00    0.633674788796679267E+00   -0.113251361611430852E+02    0.285268628977048966E+00    0.894617863021217636E+05
    0.972559663218936610E+00    0.177809517304279407E+00    0.669417832318718986E+00   -0.112778300233237250E+02    0.635750000210086652E+00    0.894618666480061365E+05
    0.247661341935422552E+00    0.375995947996469571E+00    0.351200864210355845E+00   -0.112487025599164632E+02    0.685373672500348530E+00    0.894619135243472701E+05
    0.247661341935422552E+00    0.375995947996469571E+00    0.351200864210355845E+00   -0.112487025599164632E+02    0.685373672500348530E+00    0.894619135243472701E+05
    0.955470062501136308E+00    0.356399886541956534E+00    0.333983357949151238E+00   -0.113137686837683855E+02    0.282583578855317485E+00    0.894619228300057584E+05
    0.190890369346645539E+01    0.188427010414389695E+00    0.683420590205206402E+00   -0.112569849066611116E+02    0.576149270993490670E+00    0.894619653092514491E+05
    0.190890369346645539E+01    0.188427010414389695E+00    0.683420590205206402E+00   -0.112569849066611116E+02    0.576149270993490670E+00    0.894619653092514491E+05
    0.120464832826658252E+01    0.189748843807769574E+00    0.678591869693451200E+00   -0.112787281593978435E+02    0.432284315991629808E+00    0.894620080027930089E+05
    0.363098036132388557E+00    0.178633734597258342E+00    0.657239976873001286E+00   -0.113102230890557340E+02    0.566921773950150198E+00    0.894620545864381129E+05
    0.122953600551657471E+01    0.179157033322601883E+00    0.668291490709755021E+00   -0.112516655680486615E+02    0.700697123229878427E+00    0.894620548121978063E+05
    0.928661113943229477E+00    0.357374054091635585E+00    0.333422323655200081E+00   -0.113502330367620257E+02    0.347605818164505809E+00    0.894620570307990420E+05
    0.930327478728449897E+00    0.185503341613932032E+00    0.672716576116804577E+00   -0.113007122710463150E+02    0.609299131253198234E+00    0.894620782753677340E+05
    0.936315344067848443E-01    0.375707615940985118E+00    0.353746796005118436E+00   -0.112423885506834758E+02    0.509726553250184677E+00    0.894620921089060430E+05
    0.936315344067848443E-01    0.375707615940985118E+00    0.353746796005118436E+00   -0.112423885506834758E+02    0.509726553250184677E+00    0.894620921089060430E+05
    0.152530734066465801E+01    0.183336238227291171E+00    0.673016266247761008E+00   -0.112642153984145370E+02    0.596504852994123480E+00    0.894621011600228958E+05
    0.154381609351275806E+01    0.189201017375263458E+00    0.676747959792453946E+00   -0.112246369608661727E+02    0.609932675752884013E+00    0.894621020420845016E+05
    0.154381609351275806E+01    0.189201017375263458E+00    0.676747959792453946E+00   -0.112246369608661727E+02    0.609932675752884013E+00    0.894621020420845016E+05
    0.323196897916017800E+00    0.374589711287759530E+00    0.352436989277577772E+00   -0.113322697161064880E+02    0.443332040464679888E+00    0.894621323701390065E+05
    0.323196897916017800E+00    0.374589711287759530E+00    0.352436989277577772E+00   -0.113322697161064880E+02    0.443332040464679888E+00    0.894621323701390065E+05
    0.104172543226016323E+01    0.348960571363295058E+00    0.324919389566401373E+00   -0.112987007566000024E+02    0.548871350386740620E+00    0.894621336516497540E+05
    0.104172543226016323E+01    0.348960571363295058E+00    0.324919389566401373E+00   -0.112987007566000024E+02    0.548871350386740620E+00    0.894621336516497540E+05
    0.860173686983700669E-01    0.166944953376384764E+00    0.648443958227393535E+00   -0.113462797199088481E+02    0.394872062297945359E+00    0.894621486476430437E+05
    0.860173686983700669E-01    0.166944953376384764E+00    0.648443958227393535E+00   -0.113462797199088481E+02    0.394872062297945359E+00    0.894621486476430437E+05
   -0.310382693964298184E+00    0.150038157924777954E+00    0.629623230005174617E+00   -0.113326158079504609E+02    0.428913287703706236E+00    0.894622365038700227E+05
    0.671635518646055196E+00    0.356027187876398754E+00    0.333165943747439020E+00   -0.112731182088393460E+02    0.524529939387628374E+00    0.894622390671914909E+05
    0.268551860787745511E+00    0.368683003650707941E+00    0.353649226867245425E+00   -0.112591591392769974E+02    0.467303993719634270E+00    0.894622412007463281E+05
    0.268551860787745511E+00    0.368683003650707941E+00    0.353649226867245425E+00   -0.112591591392769974E+02    0.467303993719634270E+00    0.894622412007463281E+05
   -0.314712865622412963E+00    0.156430228653564152E+00    0.633518616857087435E+00   -0.112973399960326191E+02    0.622565922544913608E+00    0.894622415415255819E+05
    0.300579302498731771E+00    0.162279849044733138E+00    0.645653071138969969E+00   -0.113441009728370261E+02    0.396619927244913628E+00    0.894622575623321172E+05
    0.671398798915950668E+00    0.183784237415920482E+00    0.662696990088688542E+00   -0.112646046814830125E+02    0.657764408057225358E+00    0.894622596343662008E+05
   -0.361488271626334789E+00    0.137984279355635370E+00    0.629008717029514441E+00   -0.113002921009393500E+02    0.416183644391465823E+00    0.894622653719041264E+05
   -0.361488271626334789E+00    0.137984279355635370E+00    0.629008717029514441E+00   -0.113002921009393500E+02    0.416183644391465823E+00    0.894622653719041264E+05
   -0.792590580794807487E-01    0.152929933869531132E+00    0.634854519356705449E+00   -0.112336257570192277E+02    0.790227253345913927E+00    0.894622752246762684E+05
    0.998315104844859746E+00    0.349794705027289432E+00    0.327210389467058438E+00   -0.112600889303352645E+02    0.499462831231669457E+00    0.894622936795381829E+05
    0.204254204416955076E+01    0.191395651638415931E+00    0.688127871238013666E+00   -0.112845510527819108E+02    0.504333242041283270E+00    0.894623377196134534E+05
    0.264083017134405473E+01    0.336691683535658093E+00    0.302010398837406047E+00   -0.112699088018817690E+02    0.589067061048801799E+00    0.894623702304748585E+05
    0.301673685567667604E+00    0.371404661905308797E+00    0.354553846332723688E+00   -0.113101115189344110E+02    0.487360545291328218E+00    0.894623702346554783E+05
    0.121194172253540389E+01    0.187275272724874264E+00    0.670085373653167782E+00   -0.113226682606546944E+02    0.469372893592766127E+00    0.894623766606385470E+05
    0.121194172253540389E+01    0.187275272724874264E+00    0.670085373653167782E+00   -0.113226682606546944E+02    0.469372893592766127E+00    0.894623766606385470E+05
    0.198339860843945992E+01    0.340302710971187139E+00    0.308861289962853502E+00   -0.112923360132871302E+02    0.551837436848085172E+00    0.894623799470869708E+05
    0.369873126461352175E+00    0.161238062678224436E+00    0.649369599329682634E+00   -0.113122335060263559E+02    0.505811072558413732E+00    0.894623819561359123E+05
    0.369873126461352175E+00    0.161238062678224436E+00    0.649369599329682634E+00   -0.113122335060263559E+02    0.505811072558413732E+00    0.894623819561359123E+05
   -0.967871745053989763E-01    0.382346061414250371E+00    0.361058678933454946E+00   -0.112591308345643384E+02    0.720816826438165581E+00    0.894624267061811988E+05
    0.133574421745654170E+01    0.349295065558945517E+00    0.321995685193925352E+00   -0.113137496351823028E+02    0.380621296697661593E+00    0.894624455721130944E+05
   -0.440476576840262979E-01    0.151068940232546522E+00    0.638813491860840132E+00   -0.113288948802064162E+02    0.462674791389421358E+00    0.894624570177583955E+05
    0.381461839215039067E+00    0.165314266785641428E+00    0.647009913988554786E+00   -0.113224873183378030E+02    0.512827971104222291E+00    0.894625228325329663E+05
    0.395701471837406338E-01    0.379559609430707046E+00    0.357707407832216107E+00   -0.113122488821426153E+02    0.560524665397928334E+00    0.894625493639987835E+05
    0.391432629664180798E+00    0.166861017057570504E+00    0.653692710160974411E+00   -0.112932908206176936E+02    0.651179989447182139E+00    0.894625533844954043E+05
   -0.481466948938106487E+00    0.137205511895278326E+00    0.626271355258428253E+00   -0.113162447320606869E+02    0.522874170990333620E+00    0.894625557005336741E+05
   -0.408762947057074388E+00    0.152096676074970544E+00    0.632565889374498536E+00   -0.112427150244089340E+02    0.676701247263708838E+00    0.894625596036697680E+05
    0.521039484384551610E+00    0.357641648291467162E+00    0.339004221601234612E+00   -0.112565140037738622E+02    0.525686951671504032E+00    0.894625726031146478E+05
    0.521039484384551610E+00    0.357641648291467162E+00    0.339004221601234612E+00   -0.112565140037738622E+02    0.525686951671504032E+00    0.894625726031146478E+05
    0.146460925542429887E+01    0.344391168267318748E+00    0.318417616309985552E+00   -0.112691726367306906E+02    0.526199463822430991E+00    0.894625752027040580E+05
    0.141301111169442439E+00    0.373687680526557597E+00    0.356609581369064621E+00   -0.112381214774384794E+02    0.743441977357528039E+00    0.894625953935430152E+05
    0.508177545552484844E+00    0.179216148491066596E+00    0.660114615973682595E+00   -0.113283431747637664E+02    0.419488257304367729E+00    0.894625964929815964E+05
    0.682642280000606227E+00    0.182380301854030313E+00    0.665203547410033846E+00   -0.113185085431435333E+02    0.522374704412849056E+00    0.894626000812249840E+05
    0.104700319688733590E+01    0.187945347725570699E+00    0.674272491037868127E+00   -0.112517178517164140E+02    0.583962018876709954E+00    0.894626283604690689E+05
   -0.557862783030300680E+00    0.136810777865107924E+00    0.621225188678337314E+00   -0.112784115544977137E+02    0.639312638905611963E+00    0.894626439719741466E+05
   -0.557862783030300680E+00    0.136810777865107924E+00    0.621225188678337314E+00   -0.112784115544977137E+02    0.639312638905611963E+00    0.894626439719741466E+05
    0.218993404264692693E+01    0.340234246634649518E+00    0.308902413470016290E+00   -0.113100957386270071E+02    0.476655429883729442E+00    0.894626511748025659E+05
    0.668895405944686328E+00    0.179837320548869251E+00    0.661885377783974826E+00   -0.112879672779992184E+02    0.706929863862065133E+00    0.894626612944235094E+05
   -0.240878463309819324E+00    0.386255658159140425E+00    0.364103616872968772E+00   -0.112661917536467868E+02    0.621167446196597917E+00    0.894626735966945998E+05
   -0.291387932859616505E+00    0.383863023646896950E+00    0.366038155017825995E+00   -0.112537363157554431E+02    0.556436751437419552E+00    0.894627157075343712E+05
    0.168119926730414981E+00    0.371936468388000430E+00    0.356991495357595390E+00   -0.112927374570983101E+02    0.530602082958094412E+00    0.894627396923564374E+05
    0.852445955530375166E+00    0.358373161338200519E+00    0.335673919859396097E+00   -0.112534138543046662E+02    0.735621932239471032E+00    0.894627550191493938E+05
    0.124802990705823014E+00    0.156376391352633565E+00    0.644497333303379660E+00   -0.113035048083867053E+02    0.518404342851699118E+00    0.894627681690474565E+05
    0.404639907754429817E+00    0.168756211078079338E+00    0.650119402525446866E+00   -0.113061697520707725E+02    0.637696593800387346E+00    0.894628161125166225E+05
    0.142722337252822662E+01    0.188565258730286317E+00    0.679337993929719719E+00   -0.112813520432007781E+02    0.417687093061348602E+00    0.894628272719038068E+05
   -0.119383283702506837E+00    0.152431337810776890E+00    0.637660180101773610E+00   -0.112209243573738231E+02    0.685504942570663522E+00    0.894628542252625630E+05
    0.108493082902880689E+01    0.181039146318720090E+00    0.669000722164905470E+00   -0.112336777741049545E+02    0.568578974177683771E+00    0.894628584728710121E+05
    0.108493082902880689E+01    0.181039146318720090E+00    0.669000722164905470E+00   -0.112336777741049545E+02    0.568578974177683771E+00    0.894628584728710121E+05
    0.310161730744004327E+00    0.365772322065739119E+00    0.346596506432974683E+00   -0.113012833303801550E+02    0.387434521975276558E+00    0.894628714575452614E+05
    0.645498365035659383E+00    0.170495050458717490E+00    0.655288901811067137E+00   -0.112382604079001798E+02    0.703568906068941180E+00    0.894628715986880707E+05
    0.176012581967958948E+01    0.346493608100036765E+00    0.317103000885282482E+00   -0.113083753391113166E+02    0.466092448972939832E+00    0.894628890864316490E+05
    0.183140779095468442E+00    0.164485781589682883E+00    0.649894922620594784E+00   -0.112341451489924165E+02    0.664687164896556992E+00    0.894629053991807741E+05
    0.189769834655060698E+00    0.373234049268821033E+00    0.353090667428159199E+00   -0.112283158317948413E+02    0.659815739382262345E+00    0.894629126525050960E+05
    0.120118107711511835E+01    0.186454696236492190E+00    0.673270048016232137E+00   -0.112297471153936019E+02    0.595686263967545093E+00    0.894629193070206093E+05
    0.697022077843872268E+00    0.176985439102629372E+00    0.663227910037491597E+00   -0.113348217275456538E+02    0.449765011968739525E+00    0.894629497544118785E+05
    0.470764516935086696E+00    0.171936815270902238E+00    0.657249350530758170E+00   -0.113194746626790774E+02    0.564567805246611543E+00    0.894629634161590948E+05
    0.650079799124923419E+00    0.177986972227003881E+00    0.661824863598714508E+00   -0.112656304508678762E+02    0.731255776275853586E+00    0.894629674921947299E+05
    0.101782242632758546E+01    0.353082723107416840E+00    0.330928517310951908E+00   -0.112346380297595587E+02    0.604760332603513140E+00    0.894629859755061916E+05
    0.423630096007045154E+00    0.172238743474870976E+00    0.654573907399985222E+00   -0.112707562401951638E+02    0.744473523263031955E+00    0.894629875623289845E+05
    0.423630096007045154E+00    0.172238743474870976E+00    0.654573907399985222E+00   -0.112707562401951638E+02    0.744473523263031955E+00    0.894629875623289845E+05
   -0.476356638128873744E+00    0.145047771535998959E+00    0.626992597161071696E+00   -0.112675960881843888E+02    0.648192380297450521E+00    0.894629883376589860E+05
   -0.123422926582617443E+00    0.162982714639631071E+00    0.643073800621224545E+00   -0.112530091881832082E+02    0.637169081157537676E+00    0.894630043508494855E+05
   -0.240696201341403793E+00    0.386769806713355757E+00    0.366683093806287386E+00   -0.112797928973881731E+02    0.488678454179002797E+00    0.894630242100880714E+05
   -0.669569861085106410E-02    0.166311606677915891E+00    0.642933680100430838E+00   -0.112463666954709947E+02    0.584247706122878352E+00    0.894630309887118055E+05
    0.154542159155643599E+01    0.190378319311245242E+00    0.680653723412571687E+00   -0.112946848845556058E+02    0.408171027752995685E+00    0.894630355224902742E+05
    0.175748348622201700E+01    0.344823908391902745E+00    0.318403002099826193E+00   -0.112829463538484518E+02    0.528848899096006519E+00    0.894630391326926765E+05
   -0.520659244889219330E+00    0.140511736002527032E+00    0.625146771159748704E+00   -0.112559081545760460E+02    0.658240431588967390E+00    0.894630443166038312E+05
    0.125038246617594861E+01    0.349304693576166170E+00    0.323769856783097720E+00   -0.112800129359708698E+02    0.476481405611130004E+00    0.894630547290315153E+05
    0.153632245537207446E-01    0.376805358953936576E+00    0.360219745020129989E+00   -0.112679250928858306E+02    0.508698502104340089E+00    0.894630695214847510E+05
   -0.845192871785740429E-01    0.152688601008264868E+00    0.635592975709095009E+00   -0.112343220406906799E+02    0.591056859715116012E+00    0.894630778521627653E+05
    0.781220792331495328E+00    0.173492714081874139E+00    0.658987604758832335E+00   -0.112392049498754396E+02    0.626355101456587460E+00    0.894630823579329881E+05
    0.116155756293897783E+01    0.182822816912922625E+00    0.666847951609343625E+00   -0.112735289709213333E+02    0.605100019139923284E+00    0.894630902138219099E+05
    0.160459099837577668E+00    0.169704616311590839E+00    0.652451740279241021E+00   -0.112835238030107146E+02    0.521728078299577014E+00    0.894630930198105634E+05
    0.371815991779777200E+00    0.171116850837126300E+00    0.650833840375428130E+00   -0.113178135241181259E+02    0.571090957681019473E+00    0.894631014472866082E+05
    0.118516872567512976E+00    0.369499029744963403E+00    0.352606839660508431E+00   -0.113148619028644557E+02    0.475675828332620398E+00    0.894631221765300434E+05
    0.841559347234533295E+00    0.355191424347779450E+00    0.334550281419354945E+00   -0.112562594409513057E+02    0.698994312590496270E+00    0.894631274205505615E+05
   -0.316830852663410489E+00    0.150226789331602273E+00    0.632383539880007173E+00   -0.112575922145060385E+02    0.481902810374601087E+00    0.894631308608060936E+05
    0.359699857274809354E+00    0.168429952703455066E+00    0.654074757312972932E+00   -0.113083955938437022E+02    0.379319306114094257E+00    0.894631475537422230E+05
    0.100038963289481053E+01    0.352100167076568382E+00    0.332614863926013749E+00   -0.112803471698616669E+02    0.587398241849034441E+00    0.894631510606210795E+05
    0.203180433932517168E-01    0.376711817237045554E+00    0.358979465543296905E+00   -0.112700984857094770E+02    0.646625781734424754E+00    0.894631513533202233E+05
    0.292055552347914471E+00    0.160412307673191340E+00    0.647764702266003023E+00   -0.112809248020920663E+02    0.534081079959300098E+00    0.894631525274066662E+05
   -0.101742377546480967E-01    0.156699257076149095E+00    0.640391370111882186E+00   -0.112205114842548284E+02    0.699402979485755916E+00    0.894631602514650440E+05
    0.387693268236586341E-01    0.169063839389308357E+00    0.647960206218593182E+00   -0.112723983731903914E+02    0.554974225426271506E+00    0.894632274314200040E+05
    0.710762738886130840E+00    0.363022906307193916E+00    0.340721372558324520E+00   -0.112704805939630770E+02    0.601174804649812433E+00    0.894634341877039988E+05
    0.603588083567169420E+00    0.361235678404635385E+00    0.342668689538928040E+00   -0.112867562261445133E+02    0.598046969120831218E+00    0.894635359334405512E+05
    0.817244428166569392E+00    0.357840339852523892E+00    0.336840087295979085E+00   -0.112970176181491269E+02    0.442312566229268900E+00    0.894636073901431519E+05
    0.917639338665120263E+00    0.358994202631890358E+00    0.336010119765948523E+00   -0.112722312489103285E+02    0.531070961902921690E+00    0.894635326785109355E+05
    0.454436814770130759E+00    0.366095708419283739E+00    0.345195847750184526E+00   -0.112685168923875256E+02    0.586278315064604927E+00    0.894637581745937350E+05
    0.441015659196840826E+00    0.369468761363464071E+00    0.347512462968984248E+00   -0.112614045107896406E+02    0.621641274189336457E+00    0.894633457251897780E+05
    0.650317524917194412E-01    0.376337970460990712E+00    0.357886457330881980E+00   -0.112790185265809502E+02    0.539006269144182371E+00    0.894636726905090909E+05
    0.538445556961184568E+00    0.363978928595877715E+00    0.343314289577421217E+00   -0.112620945667099868E+02    0.519265253304211805E+00    0.894636379948435351E+05
    0.722147456090985962E+00    0.356543301638969967E+00    0.336299748970750878E+00   -0.112591382884134372E+02    0.598158864871250473E+00    0.894635212719171541E+05
    0.352385733870374196E+00    0.371202157806950206E+00    0.350859859813504205E+00   -0.112930290116868139E+02    0.469670277940786751E+00    0.894634251296888688E+05
    0.115003293336796419E+01    0.349876027754048746E+00    0.327686224032455453E+00   -0.112911212569534030E+02    0.465569265069660065E+00    0.894633450505422661E+05
    0.935172164819815244E-01    0.158897603110747798E+00    0.644117478182541614E+00   -0.113115788692941273E+02    0.503713423019758078E+00    0.894635523099560523E+05
   -0.270616958773116867E+00    0.148606014695542854E+00    0.632878307845716526E+00   -0.112557856985136393E+02    0.589920564951742277E+00    0.894636242059968936E+05
    0.601922519148322177E+00    0.175315569702231749E+00    0.658388275745780072E+00   -0.112507484980699939E+02    0.467973624933465782E+00    0.894632367186851916E+05
    0.242709309032198117E+00    0.172368266878542092E+00    0.652435984363127330E+00   -0.113126632162665715E+02    0.541049897940292457E+00    0.894632584842965589E+05
    0.789714280163732241E+00    0.180110305166587881E+00    0.662982191455162351E+00   -0.113274631123366802E+02    0.462331031456592489E+00    0.894635191139619565E+05
   -0.241804228835002633E+00    0.150761460464471780E+00    0.635529399503732328E+00   -0.113056247048398948E+02    0.407417501999757681E+00    0.894632507246209425E+05
    0.100040281965188704E+01    0.182439598801592662E+00    0.668737179512014057E+00   -0.113066458000179555E+02    0.453669981818842438E+00    0.894638966943741543E+05
    0.100040281965188704E+01    0.182439598801592662E+00    0.668737179512014057E+00   -0.113066458000179555E+02    0.453669981818842438E+00    0.894638966943741543E+05
    0.706097734948721634E+00    0.173753231477108416E+00    0.657880641756006579E+00   -0.112486757321430630E+02    0.661141251918048400E+00    0.894635559676816920E+05
    0.655078306685488165E+00    0.173626147877404935E+00    0.658284804219927633E+00   -0.112978926945295015E+02    0.496855043984734013E+00    0.894640926970554865E+05
    0.655078306685488165E+00    0.173626147877404935E+00    0.658284804219927633E+00   -0.112978926945295015E+02    0.496855043984734013E+00    0.894640926970554865E+05
   -0.615808432368516456E-01    0.153312179821792127E+00    0.636568952885295580E+00   -0.112648219361003150E+02    0.591324523003768143E+00    0.894637837690143497E+05
   -0.615808432368516456E-01    0.153312179821792127E+00    0.636568952885295580E+00   -0.112648219361003150E+02    0.591324523003768143E+00    0.894637837690143497E+05
   -0.214881605345744298E+00    0.155078503820962554E+00    0.635184332012941111E+00   -0.112963241317895271E+02    0.551581956088433856E+00    0.894636967108638200E+05
   -0.214881605345744298E+00    0.155078503820962554E+00    0.635184332012941111E+00   -0.112963241317895271E+02    0.551581956088433856E+00    0.894636967108638200E+05
    0.812711680992690422E+00    0.183567269814957190E+00    0.664512465028187949E+00   -0.112665125813140126E+02    0.588240423711177129E+00    0.894634316188721568E+05
   -0.191662982350758515E+00    0.155114197018130923E+00    0.636132791857392910E+00   -0.112940534592530195E+02    0.426672241803485786E+00    0.894635563014654617E+05
    0.375732224346815524E+00    0.171312369425494104E+00    0.654458323140835296E+00   -0.112774810408386816E+02    0.702734717904117234E+00    0.894632652232732507E+05
    0.945405397019547955E+00    0.183106102007318472E+00    0.665813491675869451E+00   -0.112721810214476630E+02    0.552492936062705331E+00    0.894637848172120866E+05
    0.776844155484543997E-01    0.158664805131675662E+00    0.644743059992704204E+00   -0.112547584435293526E+02    0.614876341898828560E+00    0.894634351057396852E+05
    0.358559719366889240E+00    0.175028921414337846E+00    0.656285947255392466E+00   -0.112803037359057754E+02    0.600206083363936882E+00    0.894635210768954712E+05
    0.375420182894231402E+00    0.169493724375630483E+00    0.648965659089750901E+00   -0.112974256342355428E+02    0.470565414980942176E+00    0.894634938297728659E+05
   -0.157428254343914276E-01    0.165435433709064966E+00    0.643862956086868277E+00   -0.112540462218767399E+02    0.561939890468882153E+00    0.894634326873261889E+05
    0.124605321698792348E+00    0.160367026845930516E+00    0.642990782805633598E+00   -0.112633124013439971E+02    0.615140043820962434E+00    0.894639866114248289E+05
    0.597224823105270808E+00    0.172890675769111768E+00    0.657534380707234689E+00   -0.113173058466923671E+02    0.405399856001563308E+00    0.894636736859040684E+05
    0.897619846869386784E+00    0.182217009378409844E+00    0.666760742316665267E+00   -0.112307208710487636E+02    0.665276860599709252E+00    0.894633933961547446E+05
    0.419100125158090808E+00    0.172500265019344234E+00    0.654504179007198705E+00   -0.112673939399553564E+02    0.685069716613484925E+00    0.894638380389637314E+05
    0.419100125158090808E+00    0.172500265019344234E+00    0.654504179007198705E+00   -0.112673939399553564E+02    0.685069716613484925E+00    0.894638380389637314E+05
    0.147735508053382869E+00    0.162571406199392532E+00    0.645644563823135398E+00   -0.112735013833478419E+02    0.502974974096010441E+00    0.894641640539012733E+05
    0.147735508053382869E+00    0.162571406199392532E+00    0.645644563823135398E+00   -0.112735013833478419E+02    0.502974974096010441E+00    0.894641640539012733E+05
   -0.257842149146612076E+00    0.156500825375585323E+00    0.636219457684416012E+00   -0.112751727171663010E+02    0.628198345648464995E+00    0.894634209244526573E+05
   -0.365144544588638986E+00    0.144861714438420913E+00    0.630790049805094344E+00   -0.112666883395160884E+02    0.479129587675696023E+00    0.894632299273672979E+05
    0.430070563162975095E+00    0.170329341404031498E+00    0.652685943182630623E+00   -0.112706813326451485E+02    0.725693315167825204E+00    0.894633744545467780E+05
    0.112989776298325673E+01    0.181558901077993107E+00    0.671494285462751472E+00   -0.112969544599299141E+02    0.443901932619485073E+00    0.894633092383781332E+05
    0.115725047244158397E+01    0.182163286193855356E+00    0.669135003788103422E+00   -0.113122974414813768E+02    0.495517339665603407E+00    0.894636547229613643E+05
    0.117864985074834694E+01    0.185418639821906178E+00    0.672361994479980241E+00   -0.112902011090688479E+02    0.469303167586644421E+00    0.894639408229758847E+05
   -0.298488503633361546E+00    0.152580409007662232E+00    0.633633168901281074E+00   -0.112949064536420920E+02    0.425810439528146012E+00    0.894633513543393055E+05
    0.295156604644764453E+00    0.171820738740982082E+00    0.649956469721955421E+00   -0.112397555923030126E+02    0.593882600659777271E+00    0.894633440946445917E+05
    0.780968432364489207E+00    0.175626907379260067E+00    0.662189621685655760E+00   -0.112346165786097156E+02    0.638862424677252738E+00    0.894633798835499329E+05
    0.839141274059048037E+00    0.179452618218928300E+00    0.667216147053968367E+00   -0.112899205315455102E+02    0.471953648328492292E+00    0.894634918957761838E+05
    0.839141274059048037E+00    0.179452618218928300E+00    0.667216147053968367E+00   -0.112899205315455102E+02    0.471953648328492292E+00    0.894634918957761838E+05
