   -0.173545377057867654E+03   -0.244529549418530223E+01    0.411993770485348521E+00    0.321884702440453696E+00    0.582880856073815679E+00    0.308092665550330047E+00   -0.151791642290447406E+02    0.549024847343473787E+01   -0.113579637181406419E+02    0.190174508932757136E+01   -0.125756000397045611E+02    0.287587516459121773E+01    0.901392640621766914E+05
   -0.238340269342118859E+03   -0.516666564085539903E+01    0.377526066700897167E+00    0.491648478872114436E+00    0.507080257374552756E+00    0.277884993096041033E+00   -0.143703409142282901E+02    0.514053706593407256E+01   -0.113951353760085290E+02    0.247638351076752983E+01   -0.126163551245407835E+02    0.150691823746635500E+01    0.901415348342829384E+05
   -0.238340269342118859E+03   -0.516666564085539903E+01    0.377526066700897167E+00    0.491648478872114436E+00    0.507080257374552756E+00    0.277884993096041033E+00   -0.143703409142282901E+02    0.514053706593407256E+01   -0.113951353760085290E+02    0.247638351076752983E+01   -0.126163551245407835E+02    0.150691823746635500E+01    0.901415348342829384E+05
   -0.238340269342118859E+03   -0.516666564085539903E+01    0.377526066700897167E+00    0.491648478872114436E+00    0.507080257374552756E+00    0.277884993096041033E+00   -0.143703409142282901E+02    0.514053706593407256E+01   -0.113951353760085290E+02    0.247638351076752983E+01   -0.126163551245407835E+02    0.150691823746635500E+01    0.901415348342829384E+05
   -0.238340269342118859E+03   -0.516666564085539903E+01    0.377526066700897167E+00    0.491648478872114436E+00    0.507080257374552756E+00    0.277884993096041033E+00   -0.143703409142282901E+02    0.514053706593407256E+01   -0.113951353760085290E+02    0.247638351076752983E+01   -0.126163551245407835E+02    0.150691823746635500E+01    0.901415348342829384E+05
    0.237007984822551407E+03   -0.147272914018958545E+01    0.630382108320218126E+00    0.261544759490544731E+00    0.471784451960392592E+00    0.326771356635284838E+00   -0.151363885929547095E+02    0.462957982605740170E+01   -0.114079526670733546E+02    0.169164779469833304E+01   -0.126355061195879639E+02    0.149771832644476666E+01    0.901391929829600267E+05
    0.108622700924349147E+03   -0.781806646304221431E+01    0.562095872719470480E+00    0.689143435693912454E+00    0.107408894134360652E+00    0.746613785865886781E+00   -0.149063988747951779E+02    0.445381542588508239E+01   -0.115866942415444427E+02    0.192807306262563039E+01   -0.126029533578433544E+02    0.213734321213125833E+01    0.901400783533197828E+05
   -0.454738508271597425E+03   -0.167220184582708953E+01    0.262414785211831203E+00    0.279406641083458418E+00    0.150074212207546492E+00    0.671471540227555952E+00   -0.145810385211924025E+02    0.439901927954351546E+01   -0.114357803537953853E+02    0.202972582669863488E+01   -0.126825355286829247E+02    0.311665594302559690E+01    0.901397537331711501E+05
